
    #include <assert.h>
    #include <stdint.h>
    #include <stdlib.h>


    #define INPUT_SIZE 784
    #define LAYER_SIZE 100
    #define SCALE_FACTOR 2048

    // Parâmetros quantizados (convertidos para fixed-point)
    int32_t weights[LAYER_SIZE][INPUT_SIZE] = {{-135, 37, 142, 106, -73, 68, 18, -55, 40, 148, -129, -73, -144, 43, 67, 90, 138, 62, -46, -95, -160, 127, 80, 35, -55, 166, -156, 44, -1, 30, -72, -109, -137, -200, 74, 92, 225, 121, -1, 229, -127, 111, -94, -82, 711, 290, -213, -482, -636, -354, -376, -220, 0, 154, -15, -151, 37, -112, 40, -307, -100, -193, 233, -185, 231, 437, 320, 113, 170, 434, -182, -112, -17, -141, -161, -588, -221, -453, -675, -140, 163, -48, -4, -155, -92, -90, 150, 367, 473, -76, 453, 141, 474, 924, 527, 684, 702, 306, 256, 55, 48, 573, 680, -97, -101, -228, -373, -651, -185, -254, -455, -133, -49, -27, 250, 113, -343, 173, 573, 582, 298, 698, 393, 960, 672, 461, 519, -18, -179, -6, 236, -37, -30, -408, -657, -766, -473, -482, -576, -534, 126, -94, 348, 306, 99, 397, 500, 486, 595, 735, 155, 708, 824, 400, 200, -125, 518, 26, 175, 214, 66, 380, 137, -294, -905, -923, -594, -438, 50, 330, -411, -460, -532, 222, 436, 559, 193, 606, 461, 104, 232, -63, -100, 317, 249, -32, -179, 57, 26, 102, 226, -168, -469, -223, -420, -290, 19, 423, -516, -429, -341, 3, 601, 434, -127, 223, 348, 527, 346, 446, 244, -64, 262, 54, -157, -35, 320, 191, 237, -86, -654, -244, -4, -362, 103, 534, -678, -619, -520, -383, -21, 116, -347, 420, 490, 557, 555, 271, 445, 268, -6, 190, 256, 278, 423, 75, 225, 576, 73, 328, 265, 476, -16, 140, -659, -401, -713, -572, -618, -478, -740, -290, -423, -18, 264, -162, -129, -186, -140, 193, 420, 271, 149, 8, 329, 390, 203, 813, 636, 649, -66, -30, -687, -367, -772, -1146, -1341, -1255, -985, -1525, -1105, -766, -751, -677, -743, -203, 61, 150, 371, -117, -188, -84, 415, 473, 78, 301, 818, 483, 137, 250, -211, -171, -976, -1310, -1837, -1674, -1229, -1854, -1535, -1225, -1058, -822, -175, 9, -30, 100, -244, -357, -236, -193, 461, 414, 272, 774, 345, 114, -101, -98, -392, -94, -1014, -1329, -1256, -1249, -969, -1306, -861, -776, -526, 364, 208, 57, 97, -41, -178, -168, 100, -105, 178, -280, 152, 496, 92, 169, -100, -302, -145, -140, -789, -595, -549, -242, -48, -286, -106, 161, 471, 673, 159, 25, 127, -375, -286, -59, 130, 231, 111, -309, 603, 144, 22, 246, 114, -266, -386, 177, -86, 23, 214, 350, 481, 357, 809, 731, 736, 170, 90, 267, 219, -42, 90, 74, -121, -15, 82, 433, 498, 47, 126, 264, 79, -132, -349, 667, 579, 857, 758, 574, 503, 724, 540, 547, 188, 283, 223, 289, -11, 146, 167, -149, -435, -39, -88, -7, 437, -342, 584, 742, -93, -43, -33, 470, 1007, 948, 767, 635, 601, 640, 346, 105, 15, 74, 97, 463, 341, 385, 304, 33, -84, 418, -45, -5, 232, 258, 878, 543, 104, -293, 26, 637, 866, 569, 911, 517, 513, 339, 124, -261, -124, -359, 20, 563, 222, 287, 66, -227, 136, 188, -91, -189, -171, -54, 523, 202, -7, 4, 115, 402, 385, 664, 258, 204, 394, 129, -10, -95, -393, -426, -64, -306, 79, 45, -2, 298, 135, -308, -126, 37, 189, 295, 954, 514, -115, -450, 20, -64, 151, 471, -42, 209, 76, -245, 3, -140, -187, -386, -344, -341, 80, -20, -201, 7, 76, -113, -137, 19, -70, 231, 338, 35, 104, -609, -71, 378, -10, 277, 50, 175, -128, -502, -375, -209, -23, 5, -470, -239, -36, -262, -502, 14, -75, 177, -79, 239, -117, -104, -312, -5, -130, 168, 149, 88, 121, -16, 150, 29, -110, -77, -250, -148, 302, 24, -267, -85, 24, -284, 36, 148, 132, 256, -197, 289, -55, -49, -211, -7, -170, -88, 82, 258, 633, 18, 98, 221, -244, -458, -214, -121, -104, -150, -212, -74, -86, -109, 2, 71, 53, 123, -228, -245, 33, -192, -363, -49, 100, -32, 486, 167, 500, -280, 25, 242, -133, 79, 3, -118, 26, 169, 140, 369, -188, -482, -341, -487, -141, -164, 422, 227, -202, -164, -82, -145, 18, -150, 456, -275, 115, 9, -25, 228, 322, 311, -6, -42, -117, -82, 255, -68, -288, -41, -358, -256, -182, -280, -57, -795, 143, 40, 138, 166, 86, 92, -315, 501, 254, 59, -63, 47, 275, 86, 558, -44, -139, -345, 391, 439, 278, 214, 25, -209, -310, -460, -105, -59, -257, 103, 325, -113, 92, 64, 73, 100, -518, -499, -320, -707, -76, 157, 392, -129, -25, 189, -277, -4, -624, -448, 73, -302, -852, -436, -183, 34, -75, -166, -161, -117, -159, 51, 146, 163, 148, -6, -303, 16, -224, -329, 402, 621, 86, -27, -129, -166, -110, -127, 104, -9, 55, 3, 78, 161, 126, -162, 143, 123}, {-26, 111, -100, 158, -44, -137, 134, -119, -112, 167, 62, 69, -167, -50, -54, 57, -82, -8, -5, 53, 84, -103, -88, -91, 50, 22, 142, 84, 76, 160, 68, -27, -118, 28, -118, 1, -27, -144, -5, 279, 303, 320, 58, 246, 51, 222, 395, 538, 744, 434, 397, 325, 9, -54, -51, -62, -51, 74, -157, 372, 278, 102, 164, 436, 81, -198, 415, 464, 67, -237, -300, -591, -725, -495, -430, 744, 764, 997, 1114, 928, 725, 384, -34, 125, 113, -70, 482, 432, -47, 53, 214, 380, -88, 136, -175, -593, -831, -772, -1073, -950, -958, -384, 36, -76, 75, 30, 320, 519, 258, -557, -234, 3, 163, -96, 387, 148, 286, -108, 140, -290, -347, -436, -611, -914, -765, -459, -694, -366, 169, 388, 225, 128, 146, -49, 273, 329, -810, -547, -176, 399, -90, 78, 618, -391, 278, -31, 414, 426, -702, -374, -890, -1131, -1228, -1114, -1215, -293, -80, 146, 118, 317, 196, -69, 11, -331, -187, -744, -24, 74, -139, -159, -180, 78, 656, -156, 305, 285, 172, -56, -769, -1269, -1519, -984, -295, -197, 70, 146, 326, -69, 540, 382, 248, 4, -314, -474, -313, 33, 27, -551, -50, -215, 196, 155, -249, 130, -265, -804, -1816, -1588, -791, -197, -20, 295, 535, 352, 468, 394, 555, 803, 536, 562, 100, 274, -666, -58, 241, -478, -55, -389, 411, -2, -200, -558, -1111, -1258, -1206, -759, -290, 155, 1, 253, 616, 251, 85, -100, 99, 331, 419, 311, 258, -249, -341, -612, -13, -160, -137, 68, 193, 55, -693, -827, -1278, -1016, -262, -256, -127, 235, 166, 375, 366, -303, -365, -240, -228, 11, -7, -163, -164, -585, -193, 119, -282, 199, -543, -245, 187, -262, -1228, -811, -693, -345, -179, 172, 178, -240, -238, 64, -134, -98, -548, -305, -190, 131, -100, 193, -308, -126, 203, 280, -193, -50, 522, -682, 14, -574, -476, -207, -231, -179, 320, 417, -79, -378, -487, -356, 7, -269, -34, 141, 246, 185, -145, -111, -39, 9, 258, -343, 166, -102, 436, -622, 166, 152, 249, 54, -133, -102, 4, 186, -386, -405, 282, 285, -177, -260, 7, 154, 70, 378, 142, -69, -402, -1186, -598, -638, 203, 237, -320, -580, 292, -86, 318, 357, 129, 125, 269, 118, 130, 61, 360, 458, -39, -128, 173, 21, -179, 64, 182, -259, -853, -1267, -413, 10, -170, 26, -169, -688, -178, -298, -121, 395, 325, 260, 5, 160, -246, 334, 416, 248, 45, -60, -54, -191, 70, 267, -141, -649, -674, -712, 265, 16, 84, -32, -179, -765, -238, -391, -193, 340, 488, 219, 4, -154, -92, 281, 279, 78, 91, 109, 15, -40, -96, 11, -511, -1073, -875, -478, -60, -67, -80, -137, -139, -981, -327, -57, 274, 113, 243, 263, 281, 143, -221, 2, 111, 147, 133, 167, 86, -276, -468, -706, -866, -765, -396, 39, -144, 339, -114, 140, -437, -663, -636, -115, -82, 342, 362, 480, 510, -68, 163, -181, 26, 194, 129, -116, -104, 109, -352, -799, -916, -435, 16, 229, 367, 503, -30, 48, -268, -690, 28, -455, -229, 138, 582, 672, 190, -122, -442, -118, 164, 452, 127, -174, -15, 62, -506, -867, -581, -110, 109, 766, 222, 291, 172, 53, -57, -545, -312, -126, -270, -158, 111, 64, -6, -129, 200, -54, 279, 239, 250, -350, 3, 607, -401, -142, 88, 190, 622, 344, 39, 490, 56, 372, -25, -128, 91, -35, -176, -278, -317, 47, 298, 71, -186, -12, 69, -67, -105, 73, 172, 71, -490, -722, -316, 360, 554, 598, 71, 166, 190, -118, -71, 96, -438, 15, -201, -141, -104, 330, 265, -370, -147, -4, 95, 42, -163, -201, 95, 19, -539, -303, -593, -250, 205, 318, -78, -1, 174, -123, -55, 449, -136, -49, 214, -219, -1, 190, 166, -416, -275, -20, 52, 211, -52, -106, -192, -625, -635, -183, -353, 255, 305, -20, 0, -85, -68, 116, -23, -43, -598, -47, -159, -381, 60, 268, -14, -252, -139, -46, -66, 161, -137, -88, -534, -817, -240, -170, 170, -102, 338, 233, 612, -112, -51, 107, -149, -535, 326, 116, 5, -161, 24, 1, -387, -433, 96, 58, -40, -115, -281, 307, -654, -366, -608, -132, 62, -159, -51, 153, 178, 78, -134, -60, 296, -526, -243, 65, -148, -179, 66, -20, -387, -481, 61, 151, 498, 7, 167, 362, -6, 740, 431, 3, -46, -249, 37, 44, -86, 96, 74, -67, -151, 177, 941, 508, 60, 49, 118, 41, -61, -169, 238, 520, 478, 279, 208, 249, 529, 705, 543, 508, -117, -168, 62, 62, -122, 104, -7, 2, -103, -42, -396, -343, 181, 527, 433, 480, 553, 805, 486, 369, 948, 287, 106, 441, 356, 380, -164, -8, -14, 28, -146, -137, 97, 153}, {-35, 4, 155, -141, 146, 5, -168, 60, 49, -41, -77, 78, -3, 59, 230, 151, -1, 167, -124, 17, 30, -27, 19, 71, -26, -67, -43, -115, 146, -13, -36, -114, -46, 207, 62, 111, 175, 374, 319, 670, 330, 346, 138, 230, 335, 315, 240, 300, 107, -69, 156, 137, 119, -167, -76, -144, -39, 49, 157, 205, 229, 285, 91, 228, 425, 1097, 996, 920, 560, 301, 854, 586, 56, -178, 34, -76, -32, 397, 497, 429, 277, 327, -49, 32, -160, -112, -534, -308, 102, 139, 464, 180, 21, 654, 304, 154, 103, 257, 261, 328, -109, -165, 61, -50, -322, 261, 232, -182, 276, -146, -316, 12, 122, -209, -496, -650, -489, -32, 366, 364, 253, 480, 145, 328, 77, -64, 51, 85, 55, 179, 70, -318, -114, 63, 174, -280, -274, -439, -119, 403, 101, -158, -323, -98, 7, -512, -49, 175, 142, 29, 326, 12, -62, 59, -105, 78, -59, -12, -218, -355, -78, 406, 170, 35, -72, 173, 651, 582, -14, 140, 143, -76, -187, -158, -119, -126, 52, 123, -122, 107, 2, 26, 177, 88, 262, -233, -138, -309, -183, -263, 67, 2, 313, 127, 171, 179, -92, -49, -81, 81, -93, -396, -349, -266, -28, -137, -324, 274, -37, 161, 271, 309, 226, -25, -172, -201, -403, 19, -30, 125, -173, -247, -140, 441, -54, -202, -94, -27, 38, -312, -410, -217, -7, -500, -161, -45, 75, 10, 223, 25, 193, 80, -134, 38, 83, -149, -45, 658, 223, -241, -381, 160, -23, -235, 66, -129, 28, -314, -279, -26, -193, -267, 35, 65, 179, 19, -21, -425, -110, -48, 10, -230, 9, -381, -67, 133, -83, 105, -391, -351, -52, 53, 296, 118, -562, 39, -171, 216, 207, -55, -50, 148, 199, -153, -185, 4, -69, -93, 199, -9, -68, -340, -226, 302, -214, -200, -89, -613, -212, 34, -434, -41, -503, -585, 283, 341, -72, -86, -206, -122, -261, -233, -387, -135, -322, -125, -37, 145, 59, 124, -173, 21, -14, -33, 49, -175, -48, -43, -32, -365, -508, -844, -45, -111, -104, 285, -47, 129, -67, -436, -419, -579, -580, -127, -23, 46, -174, 6, -358, -136, -28, -187, -118, -217, 122, -236, -261, 97, -110, -333, -285, -156, -218, 208, 2, 3, -346, -277, -337, -516, -692, -450, 91, -27, -230, -106, -56, -180, -38, -39, -267, -21, 67, -326, -432, 146, -264, -134, -200, -174, -503, -55, 20, -205, -392, -79, -364, -241, -517, -814, -268, -469, -85, 66, 261, -226, 117, 55, 299, 38, 262, -1, -290, -8, -635, -234, -273, -464, -256, -127, -235, 14, -18, 294, 106, -550, -180, -621, -292, -460, -412, 160, -138, 110, 520, -110, 428, 375, 32, -37, -180, -431, -398, 65, -538, -271, -287, -140, -8, 138, 295, 367, 89, -523, -229, -161, -426, -499, -221, 39, -50, -46, 63, 139, 283, 455, 134, -153, -243, -221, -257, -2, -360, -365, 150, -116, 508, 174, 320, 10, -13, -277, -217, -198, -236, -337, -409, 90, 201, -149, 38, 802, -234, 645, 126, -259, -463, -633, 50, -133, -289, 53, 168, 155, 487, 75, 31, -32, -285, 24, -223, -187, -372, -383, -495, 111, 46, -127, -132, 720, -15, 679, -154, 116, 401, -668, -95, 31, -17, -96, 99, -92, 244, 292, 133, 111, 91, -201, -234, -247, -254, -338, -26, 254, 56, -410, -463, 341, 839, 307, -71, 74, 565, 109, 9, 313, 313, 125, 117, 287, 300, 416, 417, 687, 433, 361, 178, 57, -9, -253, -241, 51, 13, -126, -489, 345, 408, -118, -26, 101, 251, 344, 171, 231, 106, -292, 64, 207, 138, 364, 684, 689, 871, 567, 524, 275, -26, 87, 178, 272, 513, 407, 404, 577, 406, -10, -34, -95, 401, 300, 51, 312, 396, 160, 114, 255, 333, 567, 687, 515, 468, 604, 558, 256, 542, 456, 193, 269, 689, 521, 199, 277, 73, 183, -60, -38, 272, -20, 69, 167, 151, 174, 330, 197, 79, 386, 326, 144, 44, 354, 456, 504, 248, 336, 496, 539, 907, 835, 194, 80, 258, 3, 79, -54, -390, -380, -176, -321, -392, -130, 93, 153, -433, -278, -237, -19, 189, 119, 297, 438, 1002, 471, 342, 79, 117, 490, 676, 427, 280, -93, -165, -90, 223, 43, -482, -654, -248, -656, -967, -1088, -713, -501, -530, 67, -258, -14, -95, 525, 289, 414, 244, 37, 86, -124, -50, 78, 85, 123, 30, 118, 47, 143, -219, -485, -429, -733, -394, -557, -204, 100, 213, 254, -240, -318, -546, -517, -726, -312, -537, -311, -329, -84, 96, 48, 2, -165, 163, 47, 11, -122, -63, 5, -75, -97, -115, -19, -294, -154, -117, 14, 55, -227, -501, -11, 12, -63, -108, -315, -190, -142, 16, -122, 99, -60}, {100, -14, -135, 14, 55, -52, 123, 7, -46, 4, -103, -68, 83, -165, -103, 130, 29, -155, 104, 59, -145, -32, -10, 166, -84, 28, -151, 88, 160, 86, 109, 144, -77, 29, -290, -57, -279, -64, -233, -66, -329, -217, -243, 77, -143, -275, -503, -105, -47, -201, -301, -355, -137, 75, -78, 150, -95, -140, 60, -362, -393, 87, -383, -227, -415, -358, -324, -503, -668, -813, -525, -344, -742, -814, -511, -265, -69, -458, -389, -303, -191, -207, 68, 50, -138, -43, -95, -467, -522, 219, -167, -450, -206, -868, -1361, -1344, -1278, -1594, -1019, -214, -398, -477, -610, -434, -355, -114, 14, 222, 223, -197, -53, 92, -149, -44, -161, -45, -434, -607, -116, 85, -706, -914, -1136, -532, -824, -431, -303, 34, 61, 253, -94, -438, -502, 134, 376, 375, 824, 218, 19, 26, 98, -60, -95, -359, -654, -564, -546, -687, -387, -290, -157, 327, 213, -13, -436, -473, -330, -109, 129, -5, -184, 143, 197, -236, -11, 136, 216, 163, -95, 31, 118, -284, -116, -172, -893, -447, -86, -175, 105, 129, 322, 344, 158, 25, -48, 3, 173, 81, -309, -585, -227, -88, 81, 1127, 456, 71, 163, -553, 102, -130, -297, -172, -549, -451, 287, -21, -129, -244, 32, 321, 241, 445, 257, -4, -108, -177, 99, 1, 178, 145, 22, 964, 481, 254, -617, -427, -109, -44, -44, 35, 291, 204, -29, -343, 34, -111, -138, -74, 189, 309, 332, -8, -82, 262, 151, 199, -98, 461, 188, 312, 518, 391, 19, -283, -743, -41, -25, 322, 429, -8, -96, -114, -3, 186, -358, -745, -276, 193, -182, 179, 46, 119, -158, 65, 346, 483, 475, 515, 542, 271, -41, -24, -637, -417, 629, 647, 791, 607, 578, 661, 536, 90, -742, -1001, -569, -208, -85, -122, 79, 143, -85, 213, 87, 120, 530, 306, 639, -137, -47, -611, -441, -155, 713, 608, 721, 653, 686, 481, 395, 397, -172, -544, -121, -146, -278, -237, -113, -63, -307, 414, 258, 419, 208, 492, 797, -60, -219, -277, -161, 493, 655, 550, 446, 884, 995, 606, 204, 638, 211, 43, -294, -36, -328, -126, -150, 400, 153, 215, -125, 110, -353, -387, 444, -230, -144, -524, -351, 712, 177, 523, -88, 391, 284, 333, 319, 745, 745, 472, 53, 149, -207, -13, 84, 34, 249, 207, 259, -104, -598, -573, 330, 279, 325, -203, -457, -20, 127, 63, 476, 462, 231, 38, 223, 238, 235, 312, 61, 29, -2, -34, -68, 221, 124, 20, -106, -207, -238, -375, 909, 272, 199, -120, -638, -116, 137, -267, 187, -285, 85, -12, 158, 92, -217, -81, -156, -174, -276, 62, 103, -217, 29, 135, -172, -344, -158, -353, -298, 334, -110, -11, -474, 119, 128, -58, -263, -547, -448, -207, -194, -355, -62, -145, -133, -328, -112, -27, -174, -183, -325, 100, -129, -501, -608, -207, 466, 73, 164, -149, -150, 205, 240, -246, 51, -577, -120, -224, -144, -58, -135, 46, -206, 160, 91, -147, 10, -183, -364, -182, -98, -622, 1, -535, 29, 233, 161, -302, 79, -72, 213, 174, 255, -293, 8, -96, -303, -42, 49, 70, 317, 30, 180, -119, -63, 123, -181, -306, 104, 70, 611, -2, 358, 312, -138, -463, -181, -269, -548, -59, -144, -148, -186, -256, 86, 151, 253, 268, 85, 41, 50, 142, 398, -11, -254, -179, 56, 469, 505, 48, 550, -56, -99, -312, -117, -370, -508, 124, 87, -381, -142, -337, -132, -44, -246, -35, 113, 149, 131, -157, -214, 42, 325, 29, 302, 601, 109, 515, 337, -204, 83, -68, -232, -878, -446, 411, 90, 80, -428, -223, 0, -233, -361, -416, 32, 81, -277, -111, -85, 10, -47, 254, -66, 633, 381, 376, -592, -55, 11, 61, -207, 90, -255, -452, -156, -70, -40, 9, 115, 71, 27, -351, 135, -181, -251, -205, -104, 11, -195, -221, 195, 303, 817, -11, -132, 91, 120, 40, -341, 437, 363, -135, -237, -315, 227, -158, 147, 292, 167, 70, -84, -156, 273, 101, -116, 43, -112, 63, 842, 1093, 739, 358, 538, 28, 152, -127, -397, -131, -235, -609, -573, -175, 175, -176, 177, 426, 324, -117, -161, 16, 392, -103, 291, 591, 711, 12, 526, 777, 929, 39, 106, -18, 167, 101, 528, 229, -198, -489, -212, -262, -418, -339, 30, 60, -316, -321, 57, 446, 484, 796, 721, 682, 925, 874, 803, 679, 856, 409, 354, -31, -164, 96, -126, 160, 850, -359, -534, -177, -138, 269, 115, 584, 762, 670, 524, 29, 239, 1029, 530, 319, 874, 374, 407, 603, -23, -165, -48, -148, 6, 28, -149, 97, -243, -392, -47, 99, 97, -198, -195, 275, 198, -43, 204, 219, 130, -293, -21, 44, -47, -283, -199, -203, 85, -66, 161, -133}, {-29, 77, 22, 39, -36, -58, -166, 162, 116, -149, -163, -106, 191, -99, 0, 120, 95, -140, 137, -79, -88, 81, 64, 26, 43, -120, -159, 59, 21, -111, -60, 54, 11, 80, 350, 199, 42, -99, 287, 183, 167, 150, 286, -92, -216, -39, 520, 499, 727, 175, 203, 356, -161, 131, 51, 80, 133, -142, -113, 88, 34, 6, 195, 149, 46, -41, 146, -37, -231, -323, -49, 110, 692, 218, 51, 543, 475, 785, 432, 184, 163, 135, 71, 85, -111, -123, 148, -140, 58, 348, 132, -259, -503, -21, -392, -279, -615, -319, -269, -82, 258, -203, -11, 57, -219, -212, -308, -252, 44, -59, 274, 117, 162, -58, 172, -260, -298, 250, -101, -104, 440, 470, 323, 70, -327, -543, -208, -331, 447, 511, 97, 333, -128, -484, -525, -326, 136, 43, -12, 349, 125, 68, 53, 371, 390, 165, -146, -221, 93, -240, -26, 79, -64, 10, -457, -265, -433, -115, 35, -52, -304, -61, -10, 266, -7, -365, -367, -181, 18, 111, -174, 142, 223, -296, -205, 22, 185, -111, -526, -193, -74, 111, -3, 109, 80, 177, -62, -81, -261, 177, 126, 170, -316, -465, 16, 182, -122, -156, -303, 610, 288, -315, -357, -117, -34, -234, -260, -6, -54, -62, 76, 127, -48, -33, -242, -21, -57, 208, 251, 297, -392, -498, 275, -19, -327, -481, -230, 470, 263, 131, 68, -132, 122, 90, -103, -161, -196, 70, 175, 11, -397, -491, -42, -108, -50, 517, 85, 80, 3, 421, 216, -546, -65, -114, -266, -55, -113, -98, 5, 190, -145, 61, 18, -213, -281, 247, 248, 250, -190, -369, -32, 44, -176, 404, 22, 102, 238, -14, 14, -27, -77, 199, -513, -386, -223, -208, 62, 8, 267, 172, -81, -87, 144, 159, 408, -27, -156, -612, -496, -194, -196, 239, 258, -151, 159, 248, -267, 319, -78, -257, 104, -280, -555, -522, 281, 391, 322, 355, -32, 106, 158, 393, -48, -341, -174, -464, -347, -214, -71, 323, 301, -284, -528, -351, -112, -519, 45, 265, 383, -415, -286, -89, 218, 65, 40, 95, -22, 174, -172, 34, 187, 350, 71, -57, 254, 24, 330, 357, -209, -219, -478, -957, -907, -415, 252, -80, 152, -358, -81, -409, 19, 93, 151, 302, 183, 290, -132, 33, 287, 303, 185, 77, 397, 470, 204, 58, -251, -205, -254, -509, -822, -73, -140, 14, 72, 26, -656, -235, -196, 36, -184, 288, 229, 452, 285, 364, 333, 192, 29, 33, 587, 785, 186, -526, -130, -437, -73, 277, -705, -49, 97, 43, -8, -81, -166, -506, -547, -226, -18, 122, -30, 582, 161, 504, 223, -43, 261, 459, 389, 340, -197, -388, -514, -515, -417, 108, 92, -208, 158, -22, 279, -96, -226, -463, -430, -178, -46, -130, 122, 517, -51, -47, 231, 170, 472, 105, 126, -220, -325, -830, -637, -41, 57, -245, -437, -279, 45, 139, 6, 126, 121, -50, -557, -386, -316, -339, 207, 295, 89, -115, 314, 166, 295, 2, -116, -255, -689, -883, -755, -286, -377, -144, -126, -542, -27, 31, 76, 37, 165, -247, -374, -867, -555, -293, 54, -186, 266, 122, 240, -88, -205, -384, -281, -444, -755, -400, -667, -99, -325, -189, -111, 150, 46, -235, -18, 54, -58, -304, -768, -746, -734, -222, -131, 429, 483, 247, -65, -207, -489, -544, -231, -101, -530, -175, -194, -145, -280, -112, 86, 465, 105, 282, -158, -517, -339, -623, -661, -1017, -825, -580, -117, 269, 655, -185, -161, -441, -50, -360, -143, -504, -343, -103, -305, -375, -302, -152, 48, 229, -91, -167, -197, -577, -683, -216, -773, -818, -433, -418, -322, -148, 81, 162, 152, -130, -269, -82, -357, -226, -90, -120, -125, -65, -223, 3, -131, -73, 61, 29, -145, -521, -667, -356, -517, -216, -362, -631, -315, -330, -18, 188, 191, 453, 137, 209, 92, -46, 158, 447, -79, -106, 309, 85, -156, -17, -99, 125, -49, -641, -515, -766, -102, -679, -517, -262, -416, -428, -83, 173, 186, 148, 292, 397, 623, 528, 211, 0, 9, 549, 511, 639, 279, -70, -79, -51, -318, -136, 161, -197, -174, -189, -446, -670, -612, -763, -629, -86, 128, 315, 343, 25, 474, 299, 215, 18, 138, 516, 228, 426, -36, -37, -10, -13, 444, 179, 221, 122, -163, -35, -283, -327, -439, -594, -469, -284, 393, -85, -49, 486, 79, -419, -360, -286, -382, -12, 142, -130, -171, 86, 25, -87, 120, 192, 968, 294, 334, 335, 18, 205, -151, -90, 79, -110, 402, 99, -22, 323, 408, 106, -52, 97, 74, 191, 203, -48, 124, -57, 53, -8, -134, -34, -289, -437, 334, 404, 469, 58, -188, 187, -121, -1, 582, 472, 287, 339, 406, 583, 158, 370, 223, -27, 118, 103, 168, -22}, {143, 37, 95, 81, -31, -97, -151, 30, 26, -159, -35, -39, 158, -114, 89, -45, 29, -114, -80, 68, 12, 1, -92, -103, 69, -143, -34, -96, 112, -75, 19, -166, 58, -108, 98, -95, 149, 155, -54, 164, -62, 63, -103, -110, -60, -40, 58, 162, -125, -132, -141, -77, -22, -68, -92, -162, -97, -101, 89, 125, 168, -156, 103, -146, -102, -469, -347, -220, -320, -400, -316, -230, 406, 572, 766, 508, 390, 453, 426, 409, -101, 129, 124, 141, 106, 134, -51, 125, -57, -301, -19, -165, -167, -113, 315, -140, -499, -228, 112, 566, 194, 208, 214, 190, 41, 211, -229, -457, -309, -295, -166, 98, 101, -137, -428, -582, -235, 104, 260, -174, -364, 203, 139, -229, -25, -247, -178, 521, 246, 32, -57, 175, 97, 347, 242, 352, 215, 628, 278, 13, 58, -123, -100, -312, -214, 464, 254, -1, 144, -29, 292, -32, -229, -96, -80, -57, 97, 137, -225, -171, 80, -86, 305, 470, 457, 310, -223, -97, 18, -14, -205, -428, -284, 486, 222, 34, 243, 367, 562, 71, -308, -264, -5, -349, -96, 80, -288, -588, 1, 14, 28, 78, 145, 388, 78, 5, -46, -12, -558, -330, 8, 361, 434, 230, 183, 185, 305, 211, 70, -247, -169, -149, 77, -27, -134, -141, -86, 136, -49, -100, 263, 796, 325, -16, 79, 218, -307, -294, -136, 374, 168, 170, -208, 82, -34, 477, 366, -138, -96, -97, -68, 321, 10, 238, 423, 83, 346, 698, 774, 319, 78, 135, 36, 94, 279, -421, -214, -28, -345, 161, -77, 196, -253, 79, 42, 10, -324, -326, -62, -359, -141, -75, -88, 317, 738, 487, 384, 228, 45, 64, -74, 187, -161, -235, -8, -492, -531, -122, 124, -57, 23, 112, 386, 343, -311, -511, -556, -371, -476, -61, -136, -188, -181, -571, -651, 119, 278, -37, 0, -235, -611, -624, -72, -387, -253, 24, -105, 23, -7, 109, 476, 60, -347, -103, -137, -197, 25, -269, -319, -595, -471, -851, -565, 87, 121, 59, 19, -313, -282, -165, 371, -418, 104, 302, 305, 190, 157, 405, 479, 261, -175, -186, -180, 130, 51, -51, -193, -421, -433, -502, -737, -444, -33, 56, 93, -282, -207, 293, 292, -2, 60, 404, 500, 342, 272, 357, 174, -182, 61, -75, -323, 184, 260, -61, -237, -654, -526, 46, -214, -170, 346, 12, 185, 2, -391, 114, 647, 375, 387, 516, 352, 137, 130, -18, 38, -101, 82, -15, -286, 135, 24, -29, 78, -433, -551, 137, 211, -601, 330, -59, 184, 165, 184, -13, 92, -195, 108, 1, 182, 277, 268, -186, -205, -18, 211, 232, -286, -266, 16, -103, -42, -156, -12, 135, 121, -323, 443, 18, -233, 237, -370, 232, -522, -339, -544, -676, -626, -423, -488, -473, -262, -41, 224, 277, -65, 29, -245, -209, -293, -263, -138, -234, 168, 452, -255, 275, 62, -38, -664, 64, -336, -691, -984, -1154, -1288, -1237, -876, -698, -540, -605, -432, 9, -209, -68, 60, -239, -434, -66, -200, -8, -113, 853, 82, 177, -413, -23, -834, -359, 211, -775, -1123, -1016, -1045, -1236, -1009, -698, -1185, -931, -710, -179, -162, -176, -113, -110, -155, 132, -9, 57, 221, 290, -365, -241, 73, -708, 369, -192, 549, -425, -736, -863, -650, -737, -381, -291, -443, -469, 54, 177, 187, -23, -140, -38, 488, 301, -173, -115, 53, 354, -383, -223, -95, -216, -27, -341, 409, -153, -338, -380, -28, -115, 248, 280, 296, 384, -141, 40, 171, 341, 348, 221, 307, 243, 226, 388, 113, 164, 94, -49, -11, -274, -308, -256, 822, 457, 200, 615, 729, 329, 441, 436, 611, 525, 269, 263, -41, -3, 342, 52, 207, 242, 348, 591, 410, 542, 200, -94, 0, -83, -192, 202, 764, 634, 418, 108, 604, 513, 260, 501, 286, 90, 0, -160, -168, -58, 33, 63, 355, 517, 452, 551, 377, 399, 321, -59, 75, -79, 236, 135, 618, 361, 535, 528, 369, 450, 193, -36, -69, -197, 329, 61, -106, -182, -81, -81, -103, 699, 378, 28, 215, -198, 384, -73, 41, 120, -373, -74, -124, -99, 298, 763, 630, 616, 268, -156, 159, 146, 451, 85, -306, 132, 377, 221, 114, 362, 134, -226, -13, 72, 129, 81, -161, 42, 118, -93, -575, -810, -271, -2, 168, 230, 52, 84, 760, 781, 365, 327, -141, -218, 24, 329, 119, 122, 584, 683, 167, -95, 105, 21, 46, 138, -15, -228, -667, -835, -1118, -1216, -993, -1269, -831, -595, -382, -733, -590, -11, -216, -1143, -692, -392, -191, -82, -128, -234, 141, -99, 27, -129, -5, 89, 76, 117, 48, 102, -98, 119, -125, 14, -494, -559, -587, -430, -620, -139, -282, -354, -306, -293, 35, -338, -526, -111, 8, 48, 131, -51}, {119, 167, -10, -127, 162, -161, -164, 55, -53, 25, 43, 42, -114, 101, 7, -17, 101, -15, -161, 21, -163, 33, 37, 90, 145, 130, -22, 58, 111, -64, -5, 73, -93, -105, 69, -152, -90, -115, -100, -72, 114, 30, -227, -119, -201, -38, -116, -115, -26, 30, 140, 125, -106, -11, -150, 56, -152, -152, -28, -44, -115, 3, -238, 116, 292, 461, 228, -60, 240, -363, -44, 24, -454, -284, -355, 63, -226, -351, -75, 366, 222, -69, 100, 21, -168, 10, -55, -208, 178, -20, -94, 133, 596, 732, 539, 315, 601, -470, -1047, -964, -1410, -1180, -753, -837, -747, -115, -188, -566, -399, 198, 441, 78, -29, -127, -182, -383, -220, -305, -823, -231, -18, 178, 52, -89, -52, -577, -117, -337, -172, 396, 159, -416, 188, 413, -64, 215, 85, 342, 420, 417, 30, -38, -109, -315, 286, -72, -227, 414, 749, 134, -98, 151, 84, 54, 318, -293, -58, 57, -250, -439, -244, 217, -74, -247, -57, 136, 727, 250, -16, -53, 74, 333, 321, 533, 61, 421, 559, -29, 106, 3, 112, -72, -347, -90, -425, -153, 31, 65, -376, -196, -93, 21, 283, 490, 208, -22, 60, 439, 428, 796, 76, -140, -43, 462, 280, 217, -8, -41, 101, -171, -49, -221, -215, -29, 332, 67, 41, 228, 407, 230, -299, -128, 612, 106, -541, 860, 270, 495, 351, -143, -25, 596, 360, 38, -25, 103, 238, 260, 9, 275, 345, 158, 55, 334, 669, 530, 590, 888, -15, -146, 850, 678, 231, 325, -103, 509, 381, 56, 265, 409, 126, 24, 257, 293, 330, 560, 549, 731, 727, 582, 472, 435, 410, 90, 482, 712, 301, 343, 252, 144, 131, -15, -49, 221, 473, 401, 170, 50, 77, 102, 634, 401, 229, 550, 320, 379, 282, 433, 677, 231, 395, 309, 46, -211, 462, 116, 226, -314, 225, -147, -91, -256, 327, 700, 235, -24, -111, 362, 202, 37, 123, -429, -690, -380, -254, -134, -80, 13, 206, 122, -124, -268, -135, -195, 589, -422, 95, 75, -211, -625, -287, 70, -53, 418, 50, 255, -196, -320, -477, -991, -1027, -728, -527, -457, -459, -377, -347, -417, -383, -370, -513, 227, 543, -41, -76, 312, 324, -570, -608, -139, -250, -276, -83, 79, -247, -323, -443, -832, -418, -546, -618, -633, -219, -227, -66, -373, -450, -572, -484, -482, 302, 237, -70, 351, 518, -198, -233, -504, -426, -474, -152, -305, -297, -490, -560, -751, -178, -388, -802, -427, -525, -270, -571, -480, -148, 90, -702, -560, 349, 138, -162, -289, 151, -320, -412, -693, -719, -474, -546, -351, -432, -185, -159, -10, 113, -215, -637, -383, -473, -419, -641, -452, 47, 459, -601, -254, -145, 187, 80, -184, -54, -294, -716, -613, -996, -890, -509, 110, 43, -123, 147, 244, 390, 307, -62, -81, -287, -177, -821, -140, 55, 359, -1009, 142, -99, 187, -26, -11, -254, -463, -576, -361, -570, -862, -182, 17, -199, -77, 196, 446, 317, 340, 146, 200, 93, -460, -545, -30, 267, 3, -885, 504, 242, 7, 275, 7, -33, -341, -73, -351, -89, -217, -163, 206, 23, -219, 447, 517, 324, 342, 82, 27, -23, -171, -114, 185, -236, -693, -948, -542, 310, -236, 72, 27, 493, -444, 242, -125, 111, 146, 387, 55, -60, 6, 206, 228, 149, 84, -250, -8, 34, 254, 253, -59, -329, -195, -266, -257, 253, -440, 148, 11, 63, -336, 4, 448, 264, 481, 404, 426, 277, -12, 210, 20, 165, 104, -131, 266, 262, 4, -31, -361, -303, -330, -188, 441, 164, 49, -234, -96, 170, -516, 483, 690, 458, -127, 149, 67, 263, -45, 67, 231, 140, 117, 31, 169, 92, 110, -178, -24, -257, -2, 203, 351, -117, -136, -97, 38, 194, -92, 536, 330, 262, 66, 16, 440, 170, 162, 302, 123, 348, 368, 230, 25, -221, 164, 30, 47, 394, 25, -291, 29, -236, 46, -130, 36, 37, 108, 801, 704, 177, 114, -224, -191, -63, 71, 242, 314, 318, 165, 154, 1, 125, 424, 481, 390, 235, 239, -83, -104, -175, 100, 78, -100, 242, 113, -347, 18, -173, -191, 116, 134, -104, 35, 121, 263, -147, -89, 281, 355, 292, 727, 494, 312, 64, -385, 137, -298, -176, -24, -127, 130, -557, 475, 14, -367, 120, 403, 210, -91, -107, 88, 414, 157, -116, 375, 262, 669, 680, 538, 295, 657, 122, -192, -490, -80, 34, 169, 64, -83, -38, -118, -895, -464, -371, -31, -344, -138, -102, 205, 79, 295, -208, 229, -120, 194, 91, 811, 555, 133, -162, -107, -240, 87, 144, -140, 87, -168, 51, 164, 218, 409, 39, -202, -188, 389, 329, 45, 18, 720, 46, -391, -131, 730, 302, 266, -193, -344, -390, 221, -118, 14, -130, -101}, {-43, -121, -57, 60, -46, 162, -70, -1, 73, -114, -29, -105, 100, -72, -157, 163, 166, -155, 100, -123, 68, -53, 151, 106, 35, 137, 141, -63, 33, 42, 66, -11, -18, 111, -201, 118, -123, -269, -19, -70, -201, -328, 58, -182, -213, -93, -255, -154, -228, -77, -222, -27, -101, 32, -163, -60, 108, 132, -130, 74, -58, -71, -11, -289, -160, -427, -527, -292, 117, -81, 72, -18, -504, -273, 168, -180, -34, 107, -215, -51, -108, -86, -148, 44, -127, 97, -215, -74, 86, -31, -151, -203, -224, -118, 66, -481, 20, 358, 668, 669, 240, 5, 42, -251, -401, -52, 48, -69, 137, 214, -40, 133, -150, -104, -292, -482, -443, -182, -456, -400, -804, 144, 93, -340, -59, 114, 377, 208, 228, 59, 135, -341, -112, 311, 155, 153, 519, 407, 158, -296, 160, -117, -197, -141, -650, -566, -683, -1026, -543, -68, -310, 318, 619, 133, 335, -246, 212, 202, 76, 212, 224, 357, 520, -209, -167, 253, 170, -217, -47, -152, 18, -105, -172, -525, -1160, -597, 290, 11, -281, 174, 27, -5, 51, 4, -158, -11, -492, -114, -5, -569, 123, 12, 70, 511, 123, -80, 154, -387, -26, -633, -454, -410, -826, -647, 313, 147, -113, -18, -32, -201, -161, -22, -281, -376, -474, -443, -201, -131, 58, 17, -77, 201, 375, 61, 34, -592, -361, -410, -539, -545, -234, 237, 231, 191, -258, 167, 15, -81, -272, -322, 7, -362, -364, 72, 192, 244, 232, 581, 277, 256, 339, 514, 110, -384, -329, -271, -607, -424, 106, 67, 371, 407, 126, 149, -148, -382, -524, -163, 117, 0, -87, -45, 95, 11, 143, 222, 380, 388, 279, -258, -92, -101, -663, -836, -350, -328, 299, 292, 524, 210, -182, -318, 108, -465, -112, -279, -528, -441, 8, -107, -63, 229, 100, 102, 226, 183, 55, -548, 69, -116, -376, -773, -355, 17, 462, 150, 51, 76, 71, 129, 411, -82, -372, -302, -189, -382, -186, 110, -178, -3, -192, -201, 113, 627, 556, -443, -119, -114, -529, -244, -327, -4, 191, 82, 93, 343, 406, 304, 383, 244, -535, -441, -209, -447, -244, 221, 260, -23, -49, -299, -319, -135, -229, -591, -130, 112, -255, -474, -858, -102, 5, 235, 488, 239, 176, 432, 464, 148, -24, 273, 263, 36, -210, -173, 159, -132, -437, -234, -49, -296, 55, 312, 88, -263, -175, -348, -841, -215, -10, 50, 359, 319, 101, 430, 248, 23, 403, 447, 556, 43, 12, -451, -414, -455, -406, -126, 352, 356, 663, 146, 56, -163, -5, 367, -394, -363, 47, 142, 256, 185, 419, 206, 203, 454, 501, 370, 355, -62, -131, -304, -567, -195, -295, 91, 459, 528, 113, 139, -48, 46, -345, 254, -446, -346, -26, 213, -90, -136, 267, 563, 470, 296, 244, 262, 31, -6, 32, -438, -422, -235, -289, -138, 133, 750, 738, 56, -61, -46, -519, 271, -35, 238, 345, -62, -377, -426, 92, 782, 423, 80, -16, -87, 13, -232, -301, -268, -230, 143, 152, -318, 8, -305, 199, 674, -425, -14, -503, 356, 468, 615, 583, -222, -374, -334, -188, -143, -190, -73, -103, -80, -238, -52, -301, 131, 172, 105, -82, 158, 735, -398, -118, 492, -8, -671, -511, 530, 296, 491, 330, -260, -273, -339, -111, -651, -704, -166, -388, 28, 167, 160, 179, 494, 282, 302, 394, 650, 520, -6, 314, 279, 100, -106, -239, -60, 326, 290, 439, 173, 376, 55, -197, -332, -210, -207, -260, 197, 438, 450, 175, -51, -9, 65, 284, 630, 370, 461, -111, 154, 94, -174, -292, -365, 115, -34, 182, 473, 149, 136, -96, -54, 138, 25, 62, -80, 49, 567, 201, -334, -271, 6, 131, 825, 24, 529, 193, -170, -149, -58, 64, 357, 316, -82, 64, 304, -149, 71, -125, -6, -55, 9, -146, -21, 56, 302, -107, -538, -308, -279, 33, 645, 282, -34, 177, 43, 132, -19, 162, 717, 724, 62, -186, 95, 352, 95, 182, 29, -93, 22, -103, -266, -68, -212, -374, -255, -256, 133, 465, 856, 667, 102, 231, 90, 168, 20, 5, 390, 550, 23, -220, -107, 441, 416, 496, 222, 483, 160, -167, -74, 96, -235, -73, -208, 418, 288, 161, 282, 422, -107, -281, -134, 163, 38, 406, -52, -470, -546, -3, 110, 122, 55, -161, -91, 223, 181, -45, 508, 496, 303, 376, 131, 450, 672, 690, 514, 431, 45, -76, 160, 168, 162, 18, -28, 382, 196, -400, -22, 247, -422, -676, -63, 420, -136, 185, 107, 126, 594, 342, -437, -151, -327, -488, 63, -51, -17, 97, -118, 91, -61, -113, -42, 82, -176, 209, 228, 216, -388, -356, 96, 81, 49, -259, 60, -130, -504, -675, 2, -358, -536, -400, -282, -23, -164, 81, 66}, {84, -82, -97, -71, 28, 62, 127, 135, -135, -140, 86, -135, -43, -323, 124, -132, 33, -30, -15, -79, 56, 23, 93, -83, 57, -7, 115, -54, 43, 85, 129, 74, 78, -277, -95, -253, -176, -279, -81, -394, -570, -825, -121, -806, -372, -352, -815, -715, -850, -441, -181, -460, -65, -58, -52, 162, 151, 133, 41, -538, -581, -41, -226, -337, -325, 78, -142, -231, 261, -160, 132, 180, -353, -508, -788, -945, -613, -602, -741, -686, -345, 120, 150, 158, -61, -149, -76, -428, 361, -158, -328, -418, -480, -513, -342, -27, 61, -185, 397, 109, 279, 112, 32, -141, 267, -52, -158, -963, -150, 406, 123, -72, 7, -163, -76, 217, -326, 4, -203, 97, -119, -391, -319, -499, -392, -45, -73, 90, -24, 4, 181, -318, 139, -21, -335, -147, 466, 426, -155, -658, 27, -45, -171, 244, -337, -29, -192, -150, -70, 212, -322, -176, -153, 93, -12, -252, -316, 89, -213, -146, 0, -363, 25, 168, -92, 332, -25, -261, -69, -60, 293, 176, -186, -279, -402, -574, -370, -396, -292, -149, 56, 25, -70, -140, -87, -173, 48, -17, 88, 4, 151, 257, 80, 247, 410, -192, 53, -109, 213, 67, 66, 103, -365, -552, -674, -216, -281, -378, -295, -358, -252, 64, 103, 139, -138, -98, 272, 4, 220, 49, 182, 195, 392, -227, -600, 27, 163, -46, -579, -322, -412, -919, -488, -474, -718, -307, -295, -197, -69, 47, 2, 270, 131, 79, 119, 15, 280, 169, 429, 450, -207, 367, -80, -283, -26, 74, -740, -599, -584, -882, -833, -295, -312, -151, -138, 259, -81, -86, -239, 419, 384, -100, -28, -366, -302, -217, -30, -3, 63, 192, -163, 31, -338, -53, -108, -310, -428, -411, -332, -48, -231, -20, 418, 20, -254, 8, -78, 50, 44, 32, -273, -348, -681, -221, 257, 507, 592, 10, 26, -487, -308, -502, -518, -13, 73, -399, -144, -153, -144, 261, 117, -508, -362, -87, 204, 68, -163, 156, -210, -432, -356, -455, 12, 754, -47, -571, 91, -139, -239, -221, -258, -5, 135, 119, 64, -236, 0, -196, -267, -140, 176, 325, 55, -193, 80, 155, -64, -391, -615, -814, -867, 104, -280, -314, 86, -233, -104, 32, -188, -179, 61, 370, -68, 31, 383, -122, 36, 302, 309, 248, -150, 200, -136, 119, -157, -158, -607, -693, -852, -498, 213, 530, 94, 111, -247, 494, 182, -96, 177, 498, 314, 429, 254, 77, -95, 199, 29, 264, 189, 291, 14, -7, 176, -205, -326, -279, -32, 272, 796, 183, 88, -144, -416, 647, 532, 733, 728, 448, 516, 503, 168, 72, 68, -71, -67, 302, 168, 199, 139, -299, -613, -689, -241, -183, -104, 124, 774, 981, -220, -411, -188, 439, 625, 782, 439, 510, 706, 361, 430, 570, 327, 368, -128, 241, 29, 109, 77, -244, -193, -368, -466, -322, -248, 396, 1001, 487, 138, -60, 29, 116, 248, 339, 573, 578, 518, 788, 1014, 1014, 439, 284, -45, 254, 233, -180, -260, -216, -132, -485, -230, -411, -1075, 17, 471, 30, -93, 9, -63, 125, -68, 492, 381, 136, 437, 635, 473, 865, 530, 462, 165, 226, 195, -26, -145, -252, 371, -316, 200, 122, -559, -186, 257, 692, 104, -559, -292, 828, 120, -5, -188, -174, -123, -234, 137, 324, 46, -120, 127, 266, 173, 202, 408, 397, 203, 17, 257, 488, 609, 214, 679, 305, 64, -573, -211, 488, 52, -305, -339, -405, -560, -241, -367, -424, -566, -203, -66, 3, 465, 615, 229, 245, -2, -137, -125, 264, 577, 847, 316, 33, 153, -33, -85, 254, 293, 38, 68, -392, -1018, -689, -789, -643, -497, -633, -359, -19, -32, 1, -217, 4, 2, 59, 43, -44, 273, 682, -427, -115, 47, -76, 195, -107, -270, -317, -292, -413, -752, -975, -504, -183, -551, -408, -264, -477, -265, -156, -286, -267, 356, 316, 316, -4, 815, 91, -130, -65, 107, -82, 93, 224, -326, -607, -190, -173, -487, -358, -21, -104, -276, -233, -119, -140, -230, -195, -258, 111, 446, 553, 479, 800, 878, 504, 526, 15, -49, -55, -123, -157, -354, -626, -4, 12, -88, 2, -82, 176, 105, 88, 133, 86, -684, -291, 423, 655, 965, 834, 895, 871, 872, 408, 149, -59, -162, 158, 514, -77, -122, 87, 430, 423, 454, 451, -52, -135, -231, -206, -141, -221, -198, -176, 331, 597, 1018, 762, 950, 1266, 796, 473, 71, 116, 62, 51, 86, 45, 703, 602, 652, 708, 486, -356, -407, 137, 219, 75, 416, 215, 196, -86, -92, 87, 392, 450, -63, 499, 151, -185, 164, -168, -108, 161, 35, 118, -146, -72, 394, 483, 223, 591, 473, 712, 270, 336, 804, 330, -251, -458, -276, -1, 203, -532, -235, -327, -158, 72, -15, 2}, {-57, 95, -167, -127, 168, -137, -33, 108, -153, 53, -56, 31, 241, 121, 105, -35, -139, 44, 98, 85, -163, 46, -133, -112, -99, -158, 149, -4, 89, 109, 122, -160, -53, 26, 289, 156, 199, 162, 382, 94, 289, 323, -84, 596, 320, 419, 588, 341, 752, 270, 123, 215, 49, -71, 99, -146, -67, 129, 39, -51, 181, 302, 433, 258, 750, 621, 1010, 899, 431, 362, 413, 609, 605, 491, 110, 246, 221, 528, 554, 386, 333, -41, -11, -127, 40, 19, -213, -75, -15, 431, 621, 294, 248, 146, 358, -63, 18, 90, 286, 648, 465, 195, 151, 419, 415, 782, 642, 474, -34, 117, 229, 73, 54, 50, -252, -613, 297, 460, 547, 10, 359, 380, 182, -49, 21, -72, 84, -62, 247, -77, -102, 291, 119, 53, -198, 308, -262, -186, 20, 382, -164, 36, -15, -275, 342, 363, 353, 37, 278, -311, -189, -562, 191, 175, 211, 280, 518, 248, -340, 76, 81, 255, -71, 455, 235, 190, 593, 376, 99, 43, -111, -58, 233, 196, 439, 112, -469, -128, -339, -130, -132, -302, -37, 265, -214, -565, -456, -300, -722, -472, -181, -98, 150, 185, -103, 450, 150, 267, 174, -139, 344, 5, -18, 517, -232, -202, -106, -498, -141, -100, -246, -290, -426, -211, -332, -403, -461, -442, -399, -644, -117, 569, 36, 447, 102, 447, -272, 105, 638, 73, 268, 536, 60, -19, -352, -309, -149, -250, -670, -411, -467, -95, -550, -284, -426, -1071, -969, -312, -91, 403, 333, 99, -75, 427, 140, 640, 96, 140, -63, 417, 519, 0, -383, -218, 47, -320, 9, -191, -232, 94, -156, -90, -442, -939, -200, -361, -396, 128, 425, 535, -38, 276, -158, -164, -121, -307, 134, 231, 213, 206, -78, 439, 138, 265, 17, -55, -240, -23, -88, -233, -335, -390, -215, 40, -44, -271, 459, 578, -115, 124, -697, -75, 220, -310, 162, 572, 523, 508, 154, 469, -100, 338, 819, 15, -120, -486, -363, -185, -158, -60, 119, -48, -203, 301, -66, 572, 50, -34, -255, 378, -76, -304, -223, 478, 462, 57, 133, 98, 114, 418, 835, 206, -315, -461, -320, -191, 197, 156, 353, -43, 418, 844, 130, 620, -22, -89, 473, 117, -582, -848, -222, -212, -31, -157, -74, 42, -138, 427, 581, 207, 131, -218, -117, 484, 448, 233, 101, 190, 466, 195, 118, 213, 402, -39, -61, 238, -1063, -439, -115, -126, -13, -327, -210, -63, 59, 469, 589, 20, 65, -102, 221, 564, 149, 55, 103, 76, -91, 251, -22, 63, 259, 55, 78, 276, -1014, -613, 46, -8, -99, -288, 80, 607, 465, 991, 719, 39, 93, -140, 451, 271, 139, 142, 107, -51, -159, 285, -437, 501, -89, -207, -63, -95, -627, -157, 367, 340, 259, 458, 261, 469, 296, 575, 419, 49, -74, 80, 273, 54, -120, 166, -25, 15, 122, 445, 216, -155, 58, -23, -233, -595, -48, -113, 461, 363, 92, 40, 236, 78, -6, 283, -43, -141, -125, -228, -47, 83, -172, 407, 3, 29, 313, 751, 162, -240, 66, -121, -62, -548, 237, 393, 199, 277, 112, 304, 7, -180, 365, 249, -357, -146, -315, 21, 405, -11, 231, 224, 7, 448, 579, 1174, 1091, 437, -26, -606, -738, -704, 190, 299, 141, 380, 205, 311, 128, 207, -75, -172, 141, -97, 176, 152, 42, -202, -40, -183, 118, 392, 287, 195, 670, 13, -152, -462, -593, -334, 119, -81, 104, 275, 269, 422, 414, -51, -104, -123, -59, 167, -78, -186, 240, -106, -45, 124, -141, 137, -91, -211, 449, -93, 21, 183, -266, 21, 136, -365, -272, 9, -158, 211, 175, -62, 103, 73, 327, -75, 23, -166, -135, -52, 28, -42, -377, -678, -599, 11, 349, -35, 103, 105, 151, -157, 184, -288, -11, -67, -129, 297, 199, -44, 112, 118, -148, 274, 191, -338, -325, -21, 105, -58, -936, -1000, -625, -273, -183, 67, 99, 27, 238, -369, 328, 99, -262, -633, -754, 151, -80, -257, 332, 68, -1, -124, 47, -764, -170, 351, 90, -385, -481, -841, -721, -216, 36, 95, 36, -98, -178, -492, -118, -279, -283, -859, -1050, -602, 28, -58, 69, -137, 349, -207, -192, -124, -209, -346, -442, -301, -195, -585, -90, 110, 119, -37, 144, 81, -175, 34, -83, -196, -296, -555, -522, -464, -48, -200, -17, -364, -569, 16, -210, -46, -451, -528, -59, -217, 120, 206, -216, 71, 140, -62, 127, 35, 88, -12, -211, -338, -226, -198, -570, -178, 65, 101, -33, -76, -238, -215, -815, -1036, -416, 398, -134, -404, 34, -338, -280, 63, -5, 14, 135, -103, 58, 93, 118, -72, -217, -240, -97, 121, 373, 206, 203, -136, -446, -190, -160, -296, -371, 631, 356, 436, 284, 152, 84, -10, -79, 102}, {110, -50, 120, 15, -105, -1, 48, 137, -113, -36, 121, 149, 110, 224, -79, -115, -72, 98, -1, -107, 29, 118, -81, -58, 121, -12, -2, 58, 0, 47, -151, -143, -29, -49, 55, -16, 323, 183, 309, 144, 258, 441, 376, 498, 351, 337, 165, 278, 140, 8, 207, 137, -150, 90, 110, -146, 78, -80, -33, 15, 227, 246, 34, 90, 517, 800, 807, 1032, 1074, 788, 1054, 655, 212, 307, -135, -213, -231, 80, -122, 79, 166, 287, 17, -50, -30, -37, -121, -39, -473, 652, 259, 846, 850, 954, 578, 910, 994, 979, 523, 83, 542, 814, 538, 156, 366, -288, 29, -7, -22, -304, -231, 125, 85, 35, -216, -47, 415, 345, 603, 835, 1032, 958, 593, 892, 784, 547, 349, 371, 310, 392, 459, 401, -152, -625, -319, -723, -603, -200, 35, 521, -123, -166, 66, 285, 520, -37, 99, 136, -118, -164, 210, 139, 74, 202, -165, 500, 176, -64, 412, 337, 423, 202, -134, -699, -460, -194, 223, 121, 44, 41, -142, 226, -19, -486, -224, -128, 14, -196, 124, 268, 195, 144, 331, 295, 268, 404, 318, 151, -99, -122, -264, -131, -454, -466, 65, 69, -13, -249, -271, -32, 386, -188, -225, -208, 145, -210, -2, 406, 329, 416, 591, 551, 396, -224, 140, -23, -93, -192, 45, -474, -472, -948, -214, 108, 32, -396, 39, 152, 486, -121, -138, -124, -133, -144, 137, 90, 285, 182, 435, 36, 377, -40, -76, 28, 99, 21, 249, -55, -532, -563, 8, -23, -204, -183, 234, -37, 296, 4, 137, -60, 8, -160, 36, 15, -357, -77, -104, -169, 79, -44, -66, 148, 185, -464, -74, 214, -363, -304, -76, -85, -166, 10, 242, 119, -220, -116, 90, 173, 17, -153, -71, -347, -388, -419, -52, -138, 219, 284, 234, 214, 82, -237, 59, 215, -203, -491, -67, -287, -228, -32, -531, -128, -73, -282, -404, -61, -211, -176, -171, -88, -498, 257, -79, 79, 104, 200, 28, -80, 189, -106, -7, -290, -167, -254, 46, -64, 14, -88, -447, -6, 19, -186, 50, -285, -171, -89, -46, 120, 187, 287, 361, -314, -211, 133, -260, -137, 108, -71, -350, -230, -201, -385, -507, -173, 63, -233, -688, 194, -363, -236, 50, 30, 227, 342, -77, -14, 11, 190, 40, -270, -465, -220, -81, 121, -220, -462, -243, -593, -156, -486, -497, -14, -249, -24, -699, -338, -380, -384, -170, 149, 175, 103, -229, 48, -12, 164, 52, -71, -148, -411, -190, -394, 66, -136, -256, -584, 66, -632, -23, 28, -129, 21, -253, -601, -328, 29, 180, 21, 37, 104, 2, -178, -61, 132, 53, -178, -3, -299, -221, -287, -238, -5, -331, -87, 239, -649, -86, 450, -73, -19, 464, -349, -180, 166, -11, -152, -238, -156, 104, 155, 199, -49, -304, -650, -386, -455, -177, -78, 45, -99, 186, -93, 353, -323, -243, 505, -8, 42, -72, 167, -195, -257, -110, 28, -74, -54, 38, -123, 98, -84, -245, -524, -494, -332, -234, 25, 106, 215, 75, -29, -240, -33, -625, 460, -92, 280, -305, -99, -880, -526, -224, -146, -99, -104, 323, 121, -151, -383, -404, -121, -44, -262, -110, 38, -134, 380, 123, 94, -95, 505, -67, 710, 127, 374, -75, -6, -460, -491, -731, -472, -425, -213, 158, -389, -168, -119, -285, -189, -95, 195, -49, 112, 31, 460, 532, 84, -251, 293, 820, 531, 113, 360, 80, 493, -454, -296, -635, -243, -102, 267, 56, 25, 51, 184, 331, 199, 215, 472, 481, 505, 654, 778, 735, 559, 177, 543, 180, -63, -62, -2, 345, 592, 5, -826, -281, 80, 190, 228, 172, 148, 167, 604, 504, 276, 468, 298, 570, 565, 565, 436, 402, 176, -57, -26, 540, 152, -127, 27, 3, 575, 245, 165, 469, 520, 446, 548, 229, 475, 646, 705, 525, 440, 335, 171, 548, 121, 514, 191, 385, 403, -104, -93, 109, -68, 41, 104, 654, 620, -4, 346, 377, 507, 669, 456, 287, 396, 164, 463, 271, 540, 527, 431, 420, 17, 463, 39, 587, 306, 77, 301, 155, -83, -123, -57, -101, 491, 588, 226, 300, 547, 187, 275, 216, 63, 40, 14, 59, 29, 214, 249, 325, -142, -104, 66, 196, 456, 509, 388, 20, 113, -19, 162, 427, -509, -683, -65, 310, 160, 209, 149, 174, -123, 121, 471, -42, 193, 8, 33, 16, 267, 579, -43, -468, -463, -88, 173, 120, -17, 35, 93, -142, 274, -147, 40, -294, -623, -638, -561, 283, 219, 98, 122, 179, -32, 166, 285, 319, -133, 521, 167, -66, 18, -56, -102, -140, 164, 46, 18, -2, -153, -203, -106, -49, 96, 58, -466, -237, -109, -6, -128, 278, 253, 277, -202, 184, 268, -312, -316, -56, -166, -106, 135, 44, -59}, {-165, 127, 164, 11, 55, 64, -10, -37, 7, -123, 102, -99, 50, -90, -126, -33, -98, -133, 96, -92, -48, 91, -77, 73, 145, 19, -31, -121, 58, 132, 15, -139, -94, -87, -155, -3, 9, -77, 8, -124, 147, -278, -82, -229, -334, -202, -319, -334, -407, 5, 88, 155, 25, -45, 18, 15, -55, 81, 142, -103, 57, -227, -66, -211, -244, -150, -184, -322, -585, -703, -900, -500, -573, -671, -953, -837, -609, -666, -344, -522, -403, -164, -153, 80, 119, -22, 278, 105, 21, 146, -7, -80, 37, -488, -555, -350, -605, -409, -303, -511, 291, -42, -1073, -885, -1007, -1390, -1005, -502, -571, -61, -18, -31, 80, -44, 62, 406, 429, 170, -110, -181, -351, -390, -195, -196, -135, 115, -2, -10, 256, 59, -20, -184, -473, -114, 84, -338, 83, 151, 257, -104, 57, -142, 110, 89, 135, 83, 254, 162, -66, 183, 268, 86, 303, 43, 140, 4, 60, 411, 140, -390, -963, -965, -586, -866, -244, -72, 169, -195, 139, 136, 182, 232, 278, 457, 311, -72, -105, 405, 456, 189, -33, -206, -140, 86, 583, 355, 70, 369, -241, -666, -632, -761, -725, -537, -274, -291, -65, 463, 640, 357, 666, 414, 468, 212, -256, 254, 46, -135, -63, -189, -176, 28, 192, 711, 155, 139, -388, -757, -631, -365, -250, -450, -332, -127, 153, -100, 653, 668, 567, 92, 50, 281, 162, 412, 74, -411, -395, -447, -366, -226, 298, 432, 105, -91, -806, -997, -405, -380, -598, -625, -242, -102, 56, 293, 305, 366, 87, -176, 150, 210, -185, -348, -688, -671, -480, -132, 57, 153, 847, 578, -90, -487, -897, -1107, -471, -442, -457, -125, -528, -318, 188, 169, 162, 40, -441, -524, -122, -716, -1105, -464, -286, -342, -247, -45, 254, 364, 484, 179, -490, -1125, -1169, -759, -562, -584, -324, -67, -500, -274, 93, 197, -273, 29, -782, -919, -714, -1134, -160, -73, 239, 368, 370, 208, 362, 222, 84, -249, -810, -1362, -1058, -828, -304, -267, -283, -378, -620, -626, 109, 62, -312, 50, -344, -551, -422, -162, 138, 337, 883, 365, 317, 229, 124, -85, -16, -510, -822, -1021, -535, -282, 4, 155, 369, -264, -765, -659, 64, 1, -197, -21, -348, -186, 199, 205, 353, 724, 622, 25, -195, 151, 126, -19, -186, -70, -251, -1, -138, 308, 345, 231, -11, -31, -364, -300, -112, -29, -135, 481, -171, 134, 398, 343, 630, 178, -146, -395, -34, 127, 182, -84, -7, -25, -114, 180, 51, 450, 651, 174, -80, -204, -741, -143, -89, -5, 64, 488, -40, 128, 385, 423, 86, -200, -399, -10, -143, -212, 63, 171, -62, 51, 131, 505, 181, 353, 406, 16, -165, -324, -202, 1, 153, 34, 247, 567, -216, -560, -27, 28, 359, 92, -95, 162, 154, 131, 144, 187, 93, 284, 356, 54, -58, 13, 41, -33, 184, -1006, -946, -140, 100, -14, 504, 357, -190, -573, -307, -342, 202, 308, -231, 255, 288, 357, -135, -272, 2, 55, -38, -44, -112, 568, 90, 446, 237, -900, -414, -95, -418, 217, 444, 666, 137, -132, -127, -409, -209, -326, -143, -42, -74, 80, -218, -146, -38, -16, -152, -116, -306, 316, 194, 89, -27, -820, -240, -444, 91, 54, 206, 553, 151, -130, -5, -156, -213, -392, -128, -227, -577, -184, -192, -96, -40, 134, -81, -406, -36, -69, -94, 301, 418, -852, -587, -293, -2, -15, 176, 151, -289, 209, 553, -50, -253, -6, -435, -390, -642, -219, -88, -113, 134, -24, 70, -619, -137, -321, -35, 116, 361, -475, -89, -138, 45, 211, 592, 633, -101, 198, 445, -96, -213, -310, -144, -218, -405, -164, 160, 204, 400, 209, -98, -241, -268, -355, 111, 107, 2, -464, -54, 104, -10, 206, 364, 721, 369, 460, 525, 179, -233, -346, -3, 27, -117, 237, 86, 180, -191, -346, -117, -106, -347, -248, 259, 5, 183, -469, 61, -5, -47, -64, 361, 491, 559, 131, 3, 514, 378, 369, 135, 294, 16, 135, -30, -142, -557, -246, -182, -192, -178, -438, -594, -205, -362, -346, -20, -122, 40, 9, 322, 67, 513, 171, 436, 926, 656, 642, 229, 241, 155, 267, -41, -395, -221, 24, -46, -151, -17, -336, -424, -484, -575, -63, -125, 135, 61, 57, 11, -185, 705, 527, 1005, 720, 932, 1007, 981, 426, 107, -208, -457, -602, -533, -581, -247, -116, 669, 179, 124, 326, 57, -139, -21, 28, -36, -163, -2, -133, 16, 70, 46, -190, -406, -675, -200, 176, -526, -428, -678, -522, 259, 183, 489, -187, -544, -389, 49, -97, -143, 29, 71, 50, -29, -7, 53, 9, -90, 38, -292, -510, -590, -384, -424, -88, -318, -534, -641, -372, -74, -357, -610, -242, 23, -95, 146, -55, 109, 40, -127, 123}, {-25, 31, -145, 120, -115, 139, 10, -166, 41, 4, 46, -95, 219, 256, -7, -22, -91, 90, -156, -151, 159, 56, 167, -60, -162, -59, 27, -71, 68, -57, 47, 148, 7, 76, 126, 188, 175, 220, 130, 183, 588, 616, -203, 395, 475, 660, 569, 432, 753, 245, 457, 414, -50, -93, 11, -32, 58, -165, 32, 592, 554, 208, 373, 316, 379, 217, 296, 230, -120, -445, -469, -225, 429, 340, 308, 277, -12, 381, 584, 420, 126, 37, -91, 144, 26, 146, -341, 482, 100, 540, 462, 538, 707, 246, 243, 482, 338, -119, 212, 530, 423, 510, 634, 467, 525, 210, -395, 190, 129, -343, 121, 12, -122, 81, -278, -71, 577, 42, -89, 167, 494, 581, 459, 198, -35, 196, 348, 320, 233, -130, -233, 36, -1, 354, 3, 297, -25, -78, 156, 527, 33, -73, 106, 43, 79, 199, 209, 269, 257, 184, 351, 300, -106, 51, -48, -182, -250, -426, -185, -69, 196, 204, -75, 299, 414, -44, 484, 489, 123, 151, 255, -113, 417, 140, 115, 137, 11, 275, -453, -337, -262, -420, -453, -639, -569, -569, -227, 15, -70, 557, 3, 36, 542, 40, -190, 42, -7, 708, 303, 119, 183, 70, 104, 319, -64, -179, -774, -601, -662, -582, -595, -719, -544, -300, -83, -60, -80, -73, -253, 148, 249, -400, -391, 167, 646, 456, 191, 266, 270, 49, 30, 153, -295, -526, -403, -328, 56, -603, -722, -428, -113, -388, -71, -187, -191, -9, -56, 143, 252, -544, 73, 158, 261, 414, -82, -44, 457, 214, 311, -135, 124, -380, -70, 663, 539, 328, 149, -285, 303, 242, -236, 14, 60, 103, 129, 188, 299, 348, 151, 713, 46, 147, 480, 174, 432, 87, 59, -233, -141, 220, 269, 907, 561, 682, 708, 368, 353, 127, -75, -145, -216, -120, 217, 371, 226, 7, 304, 422, 3, 716, 361, 447, 403, 113, 30, 121, -52, 48, 142, 766, 513, 602, 569, 690, 162, -13, 142, 36, 70, -154, -1, 216, 483, -190, 343, 636, 74, 139, 237, 95, -165, -65, 61, 75, 200, 344, 608, 445, 298, 216, 363, 526, 293, 105, 56, 40, -92, -136, 163, 164, 296, -62, 516, 254, 90, 368, 204, 222, -88, 6, 28, -122, -66, 306, 143, 255, 308, -132, 49, -149, 340, -126, 187, 224, -289, 49, 333, 338, 278, 357, -40, -442, 121, 280, 269, 167, -253, 486, -63, -164, -191, -13, 73, 400, 144, -401, -395, 36, -202, 148, 179, 606, 199, 551, 231, 332, 141, -427, -656, -322, -107, 82, -62, -192, -215, 233, 23, -59, 66, 8, 156, 151, -219, -241, -190, -147, -323, -288, 42, 366, 483, 522, 436, 472, 466, -878, -960, -711, 185, 239, 136, 149, 101, 156, -86, -46, 148, 356, 296, -122, -417, -276, -51, -97, -422, -164, -107, 328, 287, 332, 654, 236, 340, -776, -1013, -145, -74, 137, 37, 158, 101, 336, 92, 151, 177, 221, 371, 12, -356, 12, -185, -345, -266, -66, -478, 282, 329, 544, 368, 293, 117, -853, -665, 238, 386, 223, 409, 167, -37, 30, 119, -47, 147, 50, 121, 48, 92, 329, -30, 44, -64, -113, 16, -182, -151, 256, 379, 202, -567, -376, 77, -9, -97, 846, -25, -218, -284, 146, -57, -386, 33, 11, 46, 37, 330, 356, 184, -91, -164, 278, -219, -97, -210, -408, -350, -433, -355, -658, 40, 12, 76, 628, -134, 1, -287, 246, -184, -263, -110, 9, 173, 147, 229, 349, 305, -47, -322, -24, -272, -216, -230, -455, -575, -617, -677, -590, -267, 110, -63, 46, -165, 19, -496, -352, -313, -333, -61, -151, -8, 337, 185, 18, 56, 66, 67, 67, 111, -113, -440, -699, -315, -662, -924, -226, 156, -24, -33, 18, 43, 119, -218, -137, -165, -358, -195, 38, 124, 11, -176, -75, 47, -74, 200, 632, 32, -153, -435, -562, -315, -804, -819, -447, -79, 155, 31, -69, 148, 171, -98, -10, -369, -286, -579, -450, -78, -37, -366, -159, -32, -219, -143, -283, -282, -656, -941, -707, -394, -779, -650, -306, -307, -138, -75, -84, 274, 227, 241, 924, 20, -605, -567, -529, 7, 22, -165, 24, 292, -635, -304, -576, -307, -443, -458, -579, -555, -312, 191, -346, -300, 133, 22, -41, -35, 153, 443, 274, 640, 662, 184, -33, 491, 155, 241, 154, -41, -391, 268, 190, -170, 315, -206, -184, -71, -110, 348, -56, 120, -48, -169, 99, -77, -109, -349, -206, -35, 290, 267, 295, 234, -20, 41, 422, -295, -96, 3, 87, -82, 306, -64, -181, 188, -283, -104, 84, -13, 89, 142, -84, 31, 42, 417, 279, 290, -84, 84, 240, 709, 87, 137, 230, -33, -178, 30, 622, 250, 306, 189, 482, 642, 354, -159, -140, -19, -103}, {100, 19, -5, 50, 41, 79, 98, -152, -129, 52, 146, 129, -94, -80, -107, -149, -107, 131, 156, 60, 70, 153, 12, -78, 162, 111, -156, -108, 31, -48, -44, 32, 146, 156, -10, 331, 259, 361, 33, -255, -81, 504, 772, 683, 234, 302, 449, 281, 51, 142, 131, 72, -26, -42, 156, 20, -145, 98, 12, 99, 299, 107, 53, 100, 334, 300, 422, 600, 823, 420, 51, -85, 250, 127, 352, 303, 220, -161, -221, -375, -308, -126, 9, -50, 1, -102, -52, -78, -279, 452, 257, 324, 33, -212, -494, -117, 525, 397, 464, 149, 704, 541, 51, -1, 11, -121, -15, -112, -763, -315, -162, -146, 165, -2, 359, -472, 756, 732, 616, -162, 195, -7, -153, -1, 152, 405, 499, 414, 310, 319, 93, 332, -83, 303, 258, -317, -1054, -210, 37, 17, 12, 52, -27, -689, 488, 788, 609, -227, 370, 313, -112, -133, -19, 217, 501, 123, 72, -59, -232, 256, -64, -14, 128, 24, -697, -480, -489, 114, -53, 37, 6, 15, 298, 665, -108, -185, -156, -176, -146, -80, 62, -124, -99, 151, 193, 53, -345, 91, -20, 59, -220, -85, -301, -954, -530, -200, 56, 411, -109, -88, -165, 15, 329, -267, -387, 255, 581, 510, 62, -63, 61, 172, 339, 211, -10, 182, 90, -184, -290, 38, 126, -957, -646, -277, 478, 381, -192, -304, -488, 268, 310, 126, -8, 163, 155, -70, 344, 106, 72, 531, 138, -44, -18, 25, 216, 43, 301, 163, 410, -441, -443, -16, -31, 153, -562, 49, 414, 311, 344, 266, -55, 249, 99, -40, 45, 124, 116, -163, -421, -149, -134, 67, 523, 4, 195, 405, 165, -213, -639, -162, 96, 396, -39, 299, 242, 53, 207, 275, 221, 590, 399, 168, 93, -173, -710, -447, -326, 99, -151, 313, 329, 84, 176, 619, 304, 455, -650, 193, 31, 439, 718, 251, -124, -225, 343, 413, 649, 1088, 523, -27, -907, -768, -538, -293, 67, -70, 336, -9, -152, -323, 95, 531, 988, 524, -32, 331, -49, 470, 373, 27, 6, 272, 709, 673, 418, 817, 290, -1222, -1563, -1068, -178, 62, 246, 36, 247, -433, -38, -82, 181, 447, 967, 637, -396, 176, -119, 404, 421, 63, -135, -42, 657, 349, 723, 461, -851, -1889, -1247, -210, 288, 294, 7, -54, -254, -195, -179, -167, 30, 427, 657, 853, 20, 57, -15, 745, 752, 20, -186, 475, 436, 234, 434, -138, -1123, -1715, -419, 117, -123, 301, -66, 16, -206, -267, -20, -306, 148, 328, 660, 428, 124, 162, -116, 300, 763, -211, -405, 450, 110, 295, 42, -299, -1539, -1642, -939, -177, -10, 181, -263, -59, -204, -428, -122, -128, -30, 155, 335, 141, 134, -84, 61, 379, 461, -464, -170, 441, 82, 521, 185, -503, -1334, -1464, -903, -256, -276, 230, -543, -344, -538, -412, -366, -144, -106, -241, -127, -352, -35, -46, -89, 330, 371, -502, 8, 515, -109, 251, -227, -408, -572, -726, -781, -231, 8, -21, -190, -128, -336, -236, -130, -256, 1, -182, -244, -144, -62, -383, -94, 39, 640, -296, -147, 355, 25, 363, 464, -69, -443, -699, -821, -164, 40, -71, -57, 189, 246, 71, 227, -72, 332, 214, 265, 221, -184, -155, -78, 455, -344, -57, 300, 612, 607, 407, 538, 395, 137, -241, -435, -307, 53, -77, -243, 460, 192, 449, 549, 72, 143, 305, 684, 19, -822, 8, 65, 144, -510, -615, 128, -142, 126, 380, 461, 583, 365, 3, 17, -91, -93, -62, -188, 89, 18, 355, 125, -209, -249, 5, 113, -370, -447, -13, 13, -28, -437, -829, 76, -249, -428, 211, 40, 69, 566, 464, 173, -127, -278, -187, -18, -44, 47, -120, -137, -66, -203, -821, -425, -48, 330, 14, -114, 79, -189, -911, -450, -12, -401, -531, -227, 117, 299, 442, 131, 214, 112, 150, 168, 127, -108, 15, -230, -247, -446, -1259, -727, -266, 232, 19, -91, 89, 115, -569, -496, -121, 42, -512, -784, -162, -11, -107, 10, 90, -79, 83, -252, 65, -70, -131, -436, -258, -367, -1166, -608, -523, -586, -112, 48, 113, -115, 245, 342, 620, -304, -381, -128, 57, 390, -27, -147, -174, -26, -41, -22, -158, -615, -472, -370, 276, 245, -520, -235, -274, 111, 25, 95, -134, -599, 97, -60, -132, -341, -145, 270, 246, -72, -314, -110, -477, -36, -111, 482, 255, -36, -122, -453, 358, 103, -356, -103, 121, 151, -140, 138, -145, 162, -46, -654, -336, -370, 68, 562, 84, -202, -1, -161, 538, 470, 185, 363, 595, 447, 689, 25, 466, 405, -168, -28, 273, 118, -83, 57, 59, -86, -20, 302, 437, 371, 632, 466, 615, 470, 354, 591, 1269, 926, -8, 309, 949, 739, 654, 288, 52, 357, 645, 10, 7, -124, 72}, {54, 113, -10, -132, -124, 131, 89, -113, -142, 49, 15, -131, -21, 135, 61, -16, -100, -49, 63, -161, 72, 7, 97, 52, -31, -41, -60, 88, 153, -24, 160, 144, 77, 57, 134, 143, 21, 159, -229, -346, -447, 51, -445, -441, 528, 548, -213, -164, -144, -243, -129, 147, -90, -112, -71, -19, -138, -82, 154, -98, 16, 112, -224, -155, 169, -66, -113, -117, 197, -101, -195, -302, -269, -209, -340, -627, -654, -60, -169, 11, -28, -51, 106, 74, -124, 29, 195, -503, -654, -82, 60, 730, 751, 708, 636, 422, 464, 746, 426, 301, 202, 327, 258, -99, -100, -36, -189, 194, 31, -51, -102, 85, -91, 45, 135, -45, 7, -201, -40, 401, 391, 403, 419, 672, 453, 98, 45, 120, 339, 620, 530, 407, 274, 168, 9, -508, -314, -37, 353, -70, 0, 157, 318, -152, 263, -262, 379, 501, 288, 30, -181, -270, 136, -62, 139, 149, 189, 209, 511, 190, 237, 200, -344, -406, -74, 594, 186, -269, 160, 50, 59, -129, 105, 60, 397, 241, 121, -206, -16, 89, -87, 287, -116, 240, 355, 224, 425, 55, -125, -71, -450, -138, -478, 344, 89, 241, 143, 249, 109, 145, 288, -28, 306, 26, 60, 58, -168, -220, -155, 76, -51, 82, 34, 202, 426, 59, -101, 209, -71, -222, -176, -61, 135, 273, 223, 720, 178, 69, -32, -398, 237, 196, -58, -57, 73, -123, 18, 202, -110, -298, -90, -57, 426, 539, 162, 245, 311, -182, -534, -552, 682, 119, -30, 237, 172, 342, -117, -269, -159, -23, 77, -122, 94, -127, -221, -410, -523, -209, -120, 104, 60, 531, 299, -3, 204, 350, -404, 47, 686, -137, 24, 154, 270, 121, -12, -71, 91, 88, -13, -9, 90, -56, -605, -383, -112, -94, 140, 56, 423, 458, 583, 290, 334, 18, -467, -363, 98, -17, 119, 452, -300, 491, 277, -262, 55, 300, 44, 130, 81, -36, -634, -291, 54, -159, -127, 58, 285, 663, 817, 157, -38, -431, -391, 53, 339, -74, -119, 6, -333, 291, 168, 123, -141, 265, 175, 39, 23, -23, -400, -390, -8, -237, -2, 479, -84, 388, 226, 20, -385, -782, -411, -241, 46, -1, 49, 92, -57, 263, -324, -116, 62, -132, -109, 37, -343, -138, -150, 85, 260, -12, -135, 206, 141, -242, -188, -457, -378, -700, -698, -479, 67, -12, -210, 258, 543, 302, -455, -579, -226, -296, -404, -641, -431, -322, -34, 392, 430, 42, -30, 48, -152, -804, -393, -602, -827, -375, -617, -307, -76, 143, -188, 138, 451, 51, -418, -558, -263, -219, -388, -383, -683, -105, 178, 384, 385, 168, 337, -207, -361, -698, -618, -693, -527, -538, -98, -561, 355, 0, 146, 302, 850, 494, -118, -145, -553, -151, -394, -162, -174, 254, 129, 491, 375, -73, 109, 23, -360, -494, -516, -203, -513, -263, 104, -334, -264, 13, -125, 216, 639, 719, 417, 122, -583, -301, -183, -366, -299, 125, 345, 578, 276, 90, -185, -172, -379, -8, -216, -430, -305, -277, 317, 193, 278, 339, 255, 79, 742, 371, 258, 460, -287, -181, -61, -134, 179, 61, 242, 276, -173, 253, -96, -105, -120, -141, -227, -388, -355, -116, -87, -235, 13, -204, 79, 133, 317, 118, 273, 239, 170, -113, 20, 75, 154, -175, 231, 249, 125, -160, -51, -149, 50, -18, -14, -387, -314, 5, -42, -377, 125, -133, -86, 247, 491, 838, 160, -319, -43, 432, 222, 51, 139, 57, -20, -73, -129, -183, -231, 7, -83, 7, -32, 91, 25, 538, 731, 154, 84, -67, -103, 288, 767, 977, 225, -734, 179, 475, 61, 6, 53, 9, 141, 121, 218, 102, -7, 42, 221, 234, -21, 333, 385, 626, 350, 458, 572, -136, -58, 124, 524, 728, 182, -171, 205, 248, 89, -13, -47, 36, 66, 43, 63, 114, -109, 286, 160, 258, 396, 293, 631, 449, 483, 148, 192, 129, 74, 153, 469, 620, 260, -158, -128, 96, 64, 198, -68, 30, 103, 127, 151, 225, 465, 705, 637, 208, 543, 307, 712, 509, -30, 206, -223, 100, 131, 89, 26, 516, 219, 53, 35, -555, -15, -133, -294, 1, 47, 45, 141, 612, 499, 451, 72, 144, 184, 175, 344, -16, -52, 71, -187, 149, 88, 26, -540, -284, -154, -302, 337, 158, 558, 178, 157, -404, -23, -70, 6, 722, 275, 44, -53, 422, 112, -204, -826, -569, -382, -101, 57, 54, 59, -155, -85, -44, -727, -787, -307, 69, 567, -68, 233, 24, -261, 152, -467, -206, -495, -105, 178, -1, -98, -546, -343, -255, 69, -151, 142, 72, 152, -10, -144, 67, 198, 269, 301, 227, 256, -378, -84, -203, -285, 42, 674, 127, 311, 215, -467, -251, -278, -322, -360, 168, 106, -121, -153, 42}, {58, -17, -47, -72, 95, 166, -113, -75, 155, -76, -71, -71, -89, -24, 77, -112, 167, -131, 113, 78, -45, 72, -79, -149, -10, 42, -68, 160, 66, 28, 131, 16, 125, 143, -156, 130, -74, -104, -322, -610, -271, -372, 114, 248, -646, -635, 285, 210, 289, 336, 322, 72, -147, -134, 17, -41, -23, 24, -61, 50, 18, 152, 86, -227, -481, -458, -399, -314, -213, 183, 42, -250, -236, -45, 270, 977, 541, 395, 550, -338, -329, -62, 62, 148, 160, -5, -422, -278, -146, 58, -534, -145, -655, -1131, -913, -250, 199, 207, 349, 114, 29, 252, 525, -151, -101, 108, 276, 579, 161, 198, 616, 1, -104, 180, -685, -669, -386, 219, -426, -852, -1003, -825, -877, -385, 52, 73, 13, 134, -132, -383, -156, -300, -455, -361, -62, 662, 724, 446, 627, 206, 83, 123, -640, -639, -226, 272, 311, 122, -451, -380, -87, 184, 123, 313, 325, -309, -167, 21, -378, -421, -297, -659, -253, -57, 257, 73, 720, 253, -55, -235, -136, -190, 361, 244, -492, -686, -480, -611, -388, 56, 246, 97, 163, 145, 30, 61, -142, 84, 69, -227, 204, 587, 813, 601, 292, 191, -140, -939, -164, 470, 211, 74, -83, -655, -611, -300, -211, 316, 298, 248, 124, 572, -88, 183, 88, 86, -106, -93, 314, 907, 377, -91, 490, 303, -265, -940, -408, 517, 438, -444, -183, -664, -149, -288, -258, 421, 331, 238, 93, 16, -17, -145, 284, -248, 4, 53, 35, 159, 939, 867, 189, 439, -11, -359, -742, -554, 151, -716, -287, -783, -297, -101, -23, 397, 74, 248, 133, -170, -325, -185, 42, -68, 123, 7, -23, 221, 1169, 862, -212, -341, -250, -192, -597, -742, 51, -120, -589, -830, -369, -95, -145, 142, 174, 315, 208, -258, -226, -447, -238, 46, 109, -164, 141, 243, 692, 676, -4, -592, -23, -456, -267, -562, -187, -18, -307, -779, -333, -296, 135, -156, 294, 353, 28, -7, 137, 197, 38, -143, -327, -55, -128, 319, 677, 408, 765, -324, -48, -310, 360, -448, -408, -285, -572, -533, -306, -207, -47, 387, 169, 443, 463, 476, 274, 104, -315, -340, -203, -398, -601, -69, -258, -289, 181, -421, -222, -328, -231, -452, -731, -994, -1301, -185, -43, 269, 92, 218, 618, 563, 509, 909, 319, -240, -711, -134, -383, -694, -872, -548, -658, -62, -499, -265, 242, 52, -742, -790, -451, -887, -1238, -384, 88, 191, 222, 265, 156, 525, 570, 741, 253, -85, -303, -623, -45, -212, -577, -709, -490, 152, -692, -39, -76, -88, -515, -31, -167, -35, 46, -173, -231, -200, 113, -77, 107, 408, 378, 442, 289, 352, 215, -625, -526, 113, 36, -187, -198, 70, -714, -560, -135, -274, -432, 105, 345, 511, -41, -551, -668, -378, -155, -213, 118, 155, 97, 202, 500, 456, 13, -665, -764, -838, -735, -281, -785, -719, -900, -470, 37, 168, -43, -112, 92, 89, -231, -45, -213, -37, -140, 106, 83, -166, 82, 395, 363, 437, -108, -519, -588, -782, -390, 105, -63, -459, 54, -928, -194, -148, -77, -484, -147, -174, -116, 252, 37, 40, -203, 18, 3, 137, 488, 142, 522, 350, -219, -728, -963, -757, -662, -346, -90, 79, 615, -519, -97, -240, -363, -489, -265, -227, 74, 94, 42, -248, -227, -182, -26, -123, 50, 312, 475, 516, -142, -727, -944, -655, -646, -375, 60, 154, -71, -444, 137, 383, 92, -485, -432, 73, -12, -55, -136, -219, -38, -49, -104, -157, -93, 259, 346, 256, -399, -399, -1081, -1196, -677, -477, -154, -332, 68, -85, -183, -174, -30, -62, -258, 28, -36, -218, -82, -57, -374, -98, -172, -138, 57, -71, 83, 206, -260, -784, -1047, -1041, -1329, -190, -105, 23, -427, -7, -123, -72, -191, 176, -22, -125, 9, -56, -186, -92, -71, -62, -17, 2, 301, 3, 68, -3, -482, -880, -1297, -1472, -1049, -338, 346, -12, -655, 142, -27, 28, -652, -66, 110, 83, -87, -143, 176, -277, -281, -227, -84, 193, 64, -32, -103, -223, -441, -694, -828, -1166, -634, -229, -402, -487, -633, -119, -45, 70, -489, -254, -341, 223, -275, 307, 196, -60, -21, -10, 133, 247, -179, 234, 403, -322, -542, -927, -639, -857, -486, 613, 25, -506, -303, -141, 19, -113, 473, -310, -246, 292, -339, -4, -178, -296, -61, -21, -193, -31, -304, 138, 266, 274, -482, -483, -566, -513, -449, 683, 177, -40, -148, 96, 147, 69, -146, 212, 1006, 706, 428, 280, -155, -60, 154, 484, 823, 294, 526, 375, 384, 617, 520, 236, 128, 422, 322, 200, -15, -13, -112, 16, -34, -45, -146, 125, -198, -326, 22, 164, 174, -142, -138, 171, 136, 40, 614, 743, 234, 188, 424, 110, -17, 83, 113, -40, 68, 105, 114, -122}, {-148, 135, -15, 117, -100, -27, -130, 1, -19, -31, 160, 86, -166, 122, -126, -42, 114, 110, -9, -23, 98, 64, -16, 110, -39, 74, 108, -89, 32, -155, -3, -19, -17, -53, -6, -250, -10, -32, -271, 38, -122, -221, 219, -109, -570, -470, -213, -262, 11, -263, -399, -375, -40, -70, 122, 107, -35, -38, -49, -78, -304, -69, -340, -91, -235, -214, -366, -778, -861, -915, -835, -120, 15, 179, -319, -703, -697, -551, -700, -306, 38, 106, 121, -147, 12, 84, -5, -166, -223, -347, 49, -158, -527, -266, -268, -528, -802, -1050, -1222, -622, -1028, -583, -138, 40, -188, -31, 8, -418, -310, -168, -105, 40, 72, -115, -29, -37, -293, -98, 111, -351, -456, -638, -538, -293, -222, -189, -61, 28, -171, -87, -60, -142, -39, -51, -28, 188, -20, 126, -277, -212, 38, 28, -340, -21, -88, 290, -115, -99, -184, -700, -405, -157, 14, 0, -73, -54, 226, -89, 57, -222, 89, 319, 295, 38, -1, 90, 34, -345, -44, -73, 90, 525, 316, 523, 133, -109, 39, 7, 116, 197, 53, -180, -85, -280, -431, -8, 216, 87, -47, 18, -2, -48, 13, 101, 579, -222, 137, 341, 324, 484, 89, 276, 311, 142, 16, -9, 409, -89, -305, -309, -622, -738, -551, -178, -282, -144, -191, 183, 43, -82, -290, 60, 170, 258, -125, 791, 118, 139, 38, 223, 236, 385, -51, -309, 153, 54, -158, -164, -148, -592, -654, -599, -261, -408, -48, -94, 106, 428, -106, -410, -304, 115, 167, -32, -14, 2, 429, 669, 275, 298, 114, 19, 501, 472, 755, 661, 315, 212, -76, -5, -48, -160, -202, -86, -96, 303, -406, -79, 426, 476, 46, -59, -152, -297, 357, 770, 554, 33, 119, 518, 1025, 848, 751, 954, 333, 455, -34, -133, 145, 145, 221, 124, -47, -146, -494, 118, 715, 563, 10, 125, 232, 72, 827, 813, 517, 82, 364, 799, 510, 648, 489, 507, 202, -58, -232, 95, -95, 17, 115, -262, -126, -164, -232, -22, 241, 583, 31, 191, 242, -84, 147, 390, -47, 28, 269, 40, -60, -312, -264, -246, -211, -412, -435, -371, -187, 134, -136, -91, -296, -312, -296, 371, 568, 652, 64, 401, 340, 171, -383, -240, -445, -415, -843, -818, -839, -631, -666, -481, -395, -265, -146, 52, -254, -14, 366, 59, -548, -333, -179, 130, 535, 522, 221, 230, 487, 133, -518, -1163, -1284, -1283, -1285, -1152, -811, -643, -423, -89, -118, -90, 35, 43, 42, 304, 364, -158, -371, 75, -157, -212, 628, 222, 88, -176, -108, -169, -968, -1286, -1152, -989, -734, -346, -176, -84, 497, 414, 247, -112, -39, 163, 217, 192, 193, 310, -33, 210, -63, -224, 617, 752, -5, 7, -185, -252, -835, -730, -318, -225, -224, 167, 231, 176, 315, 523, 84, 171, -80, 3, 237, 129, 56, 329, 298, 452, 35, 567, 1183, 500, -134, -53, -202, -141, -420, -425, 150, 228, 319, 88, 186, 236, 167, 211, 31, 33, 55, -106, -178, -366, 8, 316, 316, 47, 145, 211, 471, 466, 191, -147, -6, -205, -5, 60, 345, 573, 311, -297, 114, -63, -133, 1, 173, 197, -30, -45, -219, -227, 47, 246, 25, 60, -79, 271, 583, 412, -147, 311, 170, -93, 328, 254, 181, 640, 308, -77, -233, -221, -241, -70, 49, 332, 211, -74, 82, -45, -202, -185, 40, 208, 136, 473, 398, 243, -18, 109, 294, 127, 198, 26, 409, 581, 583, 145, 34, -133, -467, -396, -97, 354, -15, 216, 2, -135, -185, -210, -128, 439, 291, 526, 179, 36, 50, -44, -287, 11, 471, 248, -5, -222, 216, 308, 243, 201, -18, -274, -126, 271, 91, 495, 216, -20, -297, -183, -159, 429, 647, 369, -83, -46, 37, 66, -4, -254, 620, 33, 22, 91, -161, 9, 0, -105, -252, -223, -200, 170, 192, 367, 254, -137, -358, -221, 104, 564, 758, 399, 26, -140, -93, -141, 78, -220, 311, 377, 511, 48, -473, -205, 180, -67, -307, -326, -13, 98, 257, -3, -455, 100, -128, -100, 92, 211, 548, 247, 546, 101, 145, 104, 43, -208, -96, 20, 117, -75, -376, -409, -124, -416, -498, -588, -367, -521, -496, -284, -394, 88, -68, 19, 12, 140, 466, 425, 224, 18, -110, -91, -293, 332, -63, -189, -57, -257, -304, -501, -268, -256, -252, 1, 178, 241, 181, 12, -323, 225, 99, 494, 424, 202, 609, 26, 259, 119, -132, 96, -81, -190, -590, -467, -597, 112, 490, 57, -464, -384, -189, 531, 504, 245, -116, -246, 20, 818, 506, 321, 277, 221, -126, 31, -101, 139, -147, 12, 160, 69, 432, 292, 274, 177, 341, 692, 955, 326, -28, 338, 203, -193, -87, 495, 245, 466, -81, 159, 212, 543, 93, -2, -57, 55}, {-69, 10, 158, 133, -167, -160, 106, 91, -37, 112, -103, 94, 106, -228, 65, 80, -87, 49, 44, -82, -69, 52, -89, 110, -8, 11, 98, -144, -120, -31, 107, -1, 71, 144, -5, 69, 27, 24, -17, 118, 182, 136, 152, 285, 138, -22, 77, 261, 419, 321, 222, 61, -83, 21, 21, 127, -85, 43, -162, 362, 462, 89, 14, 261, 31, 144, -139, 99, -84, -27, -231, -565, -633, -691, -693, -629, -119, -83, -345, 296, 445, 462, -73, 34, 43, 89, 390, 565, 644, -118, 133, 256, 184, 14, -240, -316, -270, -554, -931, -854, -817, -357, -80, -447, -179, 235, 385, 139, 175, 384, 392, -65, -36, 81, 328, 550, 394, 129, 309, -202, -247, -422, -720, -828, -928, -335, -593, -535, -377, -104, -113, -281, -487, -191, -22, 229, 91, -56, 53, -589, -50, 72, 425, 429, 427, 417, 407, 36, -353, -284, -915, -1194, -578, 17, -252, -111, 231, -188, -724, -746, -307, -448, -534, -173, -205, -680, -141, -237, 117, -251, -114, 213, 637, 372, 240, -226, -584, -234, -678, -545, -681, -261, -237, -674, -450, -528, -385, -489, -108, 152, 245, 76, -101, -173, -18, -211, 141, -116, 7, -99, 620, 164, -149, -489, -755, -851, -360, -717, -549, -231, -159, -408, -118, 51, 148, -245, -32, 107, 414, 465, -210, -16, 164, -114, 294, 206, -99, -27, -79, 268, -283, -748, -955, -807, -512, -409, -184, -202, -95, 130, 350, 666, 401, 185, 165, 255, 432, 331, 760, -151, -289, 277, 101, 583, -250, -41, 200, 253, -77, -480, -231, -355, -286, -359, 11, 214, 238, 457, 789, 843, 389, 629, 201, 225, 594, 420, 669, 186, 67, 178, 160, 303, 437, -329, 14, -5, -106, 206, 16, -2, -222, -143, 28, 410, 607, 857, 854, 409, 498, 335, 121, 89, 424, 262, 676, 864, 17, 218, 16, 445, 473, -13, -198, -400, -180, 433, 126, -480, -223, 387, 282, 585, 330, 472, 131, -43, 61, 93, 259, 204, 197, 486, 742, 610, 142, 559, 17, 32, 118, 372, 75, -417, 74, 512, -64, -52, 306, 376, -2, 321, 524, 39, -114, 3, -115, 253, -61, 20, 417, 257, 193, 336, 689, 460, -18, 378, 308, 531, 335, 234, 360, 123, 166, -154, 173, 284, 111, -18, 80, -185, -37, -272, -196, -193, -199, 452, 312, 17, 157, 302, -135, -32, -35, 230, 405, 401, 118, 283, 374, -9, -8, 21, 201, 28, 41, -237, -281, -309, -290, -201, -72, -156, 273, 281, 70, -113, -127, -809, -90, -266, 37, -104, 79, -234, 476, 399, 317, 136, -137, -342, -73, -317, -136, -267, -469, -430, -250, -211, 136, -292, -78, -65, -388, -252, -323, -563, -219, -414, -133, -256, -255, -426, 172, 581, 338, 27, 173, 110, 370, -136, -251, -665, -1004, -282, -3, -162, -74, -47, -88, -746, -653, -572, -346, -563, -281, 324, 77, -61, -299, -274, 24, 584, 204, 104, 296, 404, 240, -148, -327, -821, -505, 36, 218, 204, 134, 92, 49, -557, -180, 87, 134, 243, 189, 203, 624, 102, -1, -867, -373, 317, 108, 154, 229, 261, 274, 213, -225, -128, -159, 109, 80, 219, -154, 10, -121, -526, 87, -12, 57, 323, 198, 444, 237, 579, 223, -1309, -495, 254, -12, -46, 79, 217, -120, 31, -25, 202, -77, -142, -40, 117, -65, -83, -511, -699, 19, 95, 530, 483, 9, 379, -17, 507, -275, -1402, -711, 213, 408, -7, -4, -30, 127, 119, 59, 132, 102, -106, -166, 82, -241, -586, -791, -868, -369, 289, 906, 1012, 135, 332, 156, 22, -600, -891, -1076, -495, -141, -52, -91, 185, 105, -380, -71, -169, -47, -88, -374, -276, -353, -213, -479, -260, -347, 267, 678, 740, 86, 47, -45, -90, -657, -324, -505, -83, -286, 57, 235, 525, -159, -438, -170, 114, 260, 60, -349, -262, -264, -691, -751, -481, -233, 729, 558, 175, 305, 141, 90, -91, -578, -431, -166, 141, -301, -219, -166, 217, -30, 56, -97, 15, -224, -18, -143, -46, -465, -545, -660, -131, 531, 391, 461, 92, 558, -142, -133, -44, -322, -40, 265, 295, -297, -407, 265, 201, 448, -47, -11, 50, -86, -15, -63, 41, -341, -231, 157, -5, 290, 577, 224, -54, 170, -166, 97, 78, -153, 273, 183, -126, -235, 155, 30, 10, -244, -122, -340, -230, 42, -183, 98, 223, -46, 472, 968, 686, 826, 302, 248, 79, -156, -99, 6, 36, -39, 211, 74, -163, 83, 289, 264, 462, 254, 0, 456, 802, 511, 423, 600, 197, 51, 351, 1022, 594, 598, 420, -275, 208, 120, 146, -38, -167, 104, 93, -106, -18, 263, 260, 543, 324, 637, 687, 547, 505, 1234, 563, 686, 299, 189, 231, -9, 245, 369, -83, 24, -160, 104, -48}, {-46, -88, -33, 45, 1, 44, 111, 68, -126, -122, -133, 53, -107, 22, -17, 127, -11, 16, 99, -164, 35, -16, -160, -134, -109, 125, -7, 25, 9, 144, -68, 101, 10, -78, 152, 107, 139, -85, 278, 266, 342, 0, -144, -49, 506, 467, -14, 28, -33, -48, -19, 97, -69, 56, -76, -81, -88, 37, 0, -85, 83, 120, 305, 238, 381, 389, 518, 768, 714, 376, 225, 322, 363, 184, -175, -737, -376, -496, -206, 265, 172, -2, 127, -75, -73, -134, 143, 321, -14, 508, 564, 685, 307, 139, 28, 514, 589, 175, -3, 355, 416, -58, -119, -54, -383, 35, -222, 138, -120, 45, 92, 144, 62, -61, 79, -25, -110, 464, 773, 783, 312, 550, 624, 407, 321, 172, 187, 122, 373, 93, 63, 431, 284, 84, 15, -288, -588, -244, -496, -445, 22, 18, 234, 603, 233, -300, 174, 251, -53, -102, 206, 33, 80, 159, 95, 282, 107, -76, -17, -168, 190, 202, 195, -74, -443, 34, -495, -328, -88, 218, -365, 145, -198, -316, -292, -56, -157, -42, 283, 227, 271, 256, 216, 157, 194, 71, 26, 177, 346, -91, -182, -213, -422, -517, -292, -47, 151, 279, 112, 114, 296, -117, -146, 49, 123, 147, 100, 301, 156, 246, 301, 282, 190, 262, -292, 135, -59, 95, 66, -412, -430, -656, -393, -192, -215, 325, 153, 147, 460, 203, -106, -23, -202, 308, 444, 240, 178, -90, 107, 305, 44, 227, 197, 29, -69, -425, 152, 54, -910, -1355, -179, 168, -92, 403, -228, -39, 217, 492, 346, 431, 314, 491, 338, -32, -17, -908, -748, -395, -22, -52, 30, -355, -465, -347, 122, 36, -742, -935, 116, 61, 143, 424, -24, 90, 56, 506, 610, 649, 672, 446, 38, -360, -636, -1261, -936, -434, -68, 82, -159, -427, -304, -176, -355, 204, -159, -52, 63, 374, -195, 65, -72, 125, 198, -23, 172, -229, 84, -612, -1093, -1397, -1455, -1610, -498, -72, -172, -5, -211, -46, -38, -145, -137, -72, -64, -155, -435, -2, 82, -93, -192, -113, -468, -744, -977, -1156, -945, -1436, -1940, -1836, -809, -895, 136, -124, -67, 0, -343, -300, -63, 186, -251, -139, 106, -119, 150, -442, 30, -11, 123, -213, -732, -1222, -1597, -1944, -1692, -1468, -1114, -578, -69, 294, 178, -44, 49, -89, -317, -321, 28, 158, 136, 219, 0, -280, 102, -164, -149, -112, 476, -375, -738, -1109, -1172, -1229, -1166, -370, -5, 267, 309, 377, 276, -45, -26, -159, -198, 24, 20, 259, 237, 60, 220, 281, 387, 34, 141, -56, 288, -199, -781, -974, -522, -355, 137, 260, 601, 556, 38, 297, 182, 212, 165, -329, -288, 224, -371, -25, -225, 115, 347, 385, 455, 344, 63, 138, 105, -482, -630, 26, 65, 53, 166, 422, 246, 192, 86, 32, 271, -23, 10, -85, -480, -37, -202, 18, -312, -101, -24, 237, 746, 276, 117, 69, -57, 113, -127, 191, 355, 164, 165, 140, 98, 138, 402, 64, 399, 66, -172, -272, -233, 46, -134, -211, -293, -172, -150, 420, 301, 683, -86, 57, -437, 106, 136, -40, 61, 145, 87, -95, 244, 179, 323, 449, 368, 289, -29, -179, -80, 218, -151, -166, -297, -151, -196, 245, 58, 399, -30, 39, -135, -21, -263, -133, 76, 149, 122, 158, 121, 152, 59, 298, 152, -293, -207, -12, 36, 194, 25, -262, -25, 72, -458, 174, 327, 340, 149, -119, -208, 282, -20, 155, 62, 194, 279, -61, 139, 42, 10, 12, -71, -218, 35, 300, 523, 158, 55, 228, 33, -69, 337, 737, 603, 317, 70, 54, 72, 208, 144, 289, -95, 19, -75, 6, 236, -55, 14, -176, -41, 143, 372, 41, 507, 554, 351, 632, 560, 344, 403, 153, 390, 93, 190, -126, 131, 68, 328, 744, 5, -9, 273, 2, 138, 5, -440, -37, 102, -51, 260, 117, 245, 391, 252, 660, 473, 236, 337, 42, 65, 56, -69, -120, 137, -74, -110, 267, 242, 703, 414, 285, -162, 105, 251, 132, -43, 179, -20, 73, 388, -104, -41, 89, 245, 475, 136, 1, 209, -162, 113, -59, 200, -238, 270, 36, 82, 182, 327, 240, -392, -16, 21, 19, -87, 2, -134, 109, -35, -560, -376, -177, 382, -67, 546, 344, 255, -168, 143, 107, -215, 195, 337, 99, 99, 477, 596, 239, 121, 224, 641, -283, 172, 601, 578, 435, -389, -631, -117, -95, -392, -726, -413, 217, 124, 41, 150, -35, -12, -132, -275, -289, -361, 560, 204, 567, 1375, 794, 538, 657, 486, 778, 152, -604, -741, -896, -894, -755, -395, 95, -139, -118, -168, -132, -124, -14, 144, -141, 38, 81, 115, -4, 29, 204, 288, 452, 231, 267, 248, 298, 183, -9, -197, 4, -150, -82, -358, 12, 49, 27, 145, 156}, {126, 165, 101, 114, 90, 60, 36, 24, -48, 96, 167, 31, 51, -37, 115, 12, 163, 46, 167, 124, -103, -11, 82, -162, 32, 91, -110, 76, -82, -16, 113, 3, 78, 18, 45, 21, 197, -156, 6, -115, -49, -75, -622, -523, 266, 356, -171, -34, -354, -187, -113, -223, 139, 121, -76, -61, -163, 22, 2, -114, 122, 13, 37, 3, -146, -65, -179, -383, -21, -476, -548, -183, -393, 10, -147, -525, -518, -688, -681, -306, 91, -19, 96, -40, 67, 110, 281, 115, 98, -143, -13, -150, -343, -689, -326, 377, -39, -48, 382, 357, 269, 193, 244, -235, -31, 141, 351, 363, -59, -123, -498, -47, -47, 23, 406, 197, -458, -14, -216, 114, -674, -473, -179, 113, -95, -234, -266, 210, 82, 67, -67, -27, -159, -6, 148, 105, 82, 144, 76, -453, 157, -15, 423, 48, -259, -259, -282, -163, -276, -440, -482, -598, -644, -347, -592, -90, 162, 25, 368, 404, 130, 379, 163, -193, -208, 284, -637, -464, -101, 285, 134, 407, 472, 602, 193, -151, -186, 152, 203, -342, -314, -223, 54, -91, 183, 82, 193, 356, 139, 221, 89, -238, -629, -203, 37, -116, -57, 494, 444, 1209, 610, 509, 696, 333, -71, 83, 198, -419, -384, -245, -51, -302, -340, -214, 341, 455, 135, 415, 340, -360, -300, 218, 53, -371, -211, 866, 89, 695, 226, 352, 217, 370, -127, 214, 91, 173, -55, 242, 23, -182, -167, -125, 210, 367, 235, 35, 498, -27, -185, 106, 552, 366, 271, 177, 217, 661, -236, 312, 335, 207, 499, 324, 468, 556, 396, 351, 116, -115, -340, 190, 337, 49, 499, 225, 312, 243, -406, 600, 1153, 456, 7, -54, 123, 732, -146, 666, 344, 618, 606, 347, 611, 538, 130, 239, -144, -178, -236, 61, 258, 82, 393, 149, 220, 173, -36, 413, 288, 347, 115, 186, -604, 213, 74, 519, 701, 808, 576, 501, 491, 365, 20, -283, -501, -115, -122, 306, 175, 128, 197, -30, 122, 137, -307, -471, -306, -249, -18, 72, -226, 59, 56, 20, 245, 222, 37, -253, -319, -623, -423, -756, -343, 96, 262, 381, 126, 41, 100, 11, -21, -324, -225, 208, -113, 347, -201, 340, 154, 113, 22, -102, -339, -342, -532, -365, -671, -848, -414, -391, 81, 278, 285, 138, -16, -296, -223, -513, -181, -334, -249, -409, 344, 481, -67, 423, 392, 24, -271, -918, -682, -1053, -1185, -1037, -831, -684, -5, 149, 318, 443, 36, 399, -100, -211, -482, -538, -787, -150, 66, -332, 139, 223, 129, 90, 42, -233, -574, -1170, -1045, -1201, -1277, -729, -324, 239, 381, 75, 16, 105, 186, 198, 16, 15, 93, -291, 199, 504, 527, 97, 403, 337, 249, 454, 191, 190, -725, -1179, -1494, -499, -335, -367, -27, 532, 440, 325, 302, -28, -97, 205, 282, 464, -54, 203, 84, 148, 430, 246, 292, 230, 21, 59, 794, 322, 264, -518, -651, -80, 241, 246, 253, 471, 599, 390, 244, -340, -47, 1, 215, 216, -141, -79, -396, 40, 545, 1025, 313, 601, 113, 87, 575, 488, 82, 267, -51, 308, 351, -100, 445, 413, 112, 128, -181, 27, -18, -40, -148, 69, -309, -297, -529, -406, 212, -69, 248, -225, 47, -36, -10, 192, -91, 387, -11, 337, 459, 186, 218, -85, -303, 138, 472, -9, 44, 199, -338, -319, -430, -459, -223, -260, -32, -81, -19, -267, -104, 299, 383, 280, -44, -335, 70, 577, 656, 225, -1, 138, -368, -73, 114, 191, 115, -236, -251, -395, -155, -210, -233, -42, 87, 64, 100, -67, -67, 469, 489, 408, 272, -571, -28, 559, 372, 162, 216, -46, 26, -151, 67, 180, -25, 259, 96, 166, -624, -398, -18, 266, 146, -161, -75, -72, -257, -39, 757, 83, 229, -130, -86, 489, 374, 99, 231, 454, -107, 46, -88, -281, 82, 120, 326, 363, -285, 101, 691, 378, 55, 312, -186, 89, -127, 142, 764, -253, 55, -256, -67, 290, -5, 134, 183, 99, -42, -53, -331, -245, -78, 372, 320, 363, -103, 609, 693, 88, 94, 361, 67, -72, 45, -98, 262, 483, 192, -76, 167, -346, -305, -349, -67, -221, -37, -13, 94, 223, 98, -86, -256, -313, -209, -152, -123, 10, -95, 144, -53, -25, -38, -151, -363, 84, -13, -150, 474, 160, -96, -556, -132, -137, -140, 6, 227, 421, -30, -234, -268, -206, -609, -713, -1003, -776, -874, -257, 244, 13, -67, 160, -23, -183, -917, -605, -218, 65, 39, -487, -480, -226, -388, 278, 13, -219, -546, -520, 41, 92, -322, -299, -570, -283, -79, 84, 17, 58, 75, 34, -138, -134, 255, 409, 325, 228, -9, 503, 470, 53, 18, 567, 171, 473, 387, 244, -178, -120, -366, -597, -566, 200, 148, 40, 75, 2}, {113, 39, -28, -152, 143, -147, 98, 24, -93, 92, -161, -53, -4, -60, 196, 61, -5, -124, 40, -4, 58, -31, 141, 22, -75, -39, 114, 112, -64, -82, -87, -50, -134, -23, -311, -395, -46, -303, -184, 17, -82, -105, 105, -522, -207, -264, -356, -233, -239, -76, -133, -330, 94, -54, 148, 154, 56, 143, 69, 251, 231, -196, -223, -173, -475, -647, -434, -775, -772, -797, -663, -643, -811, -614, -362, -3, -67, -102, -103, -426, -376, -31, 96, 4, -13, -147, -87, 177, 43, -142, -512, -595, -544, -9, -34, 227, -299, -86, -76, -463, -336, -123, -738, -241, 261, 306, 91, -56, 323, 221, 22, 73, 24, 140, -108, 433, -445, -339, 84, 69, 31, 334, -9, -92, -253, -207, -246, -107, -91, 129, 110, -343, -58, -164, 493, 329, 828, 477, -17, -86, 138, -93, 2, 481, 19, 45, 208, -18, 431, 467, 430, 241, -44, 49, -215, 77, 95, 84, -104, -141, -331, -124, 139, -111, -12, 385, -56, -61, 128, 146, -76, 373, 186, 404, 563, 263, 362, 125, 348, 343, -188, -36, -196, -120, -140, -221, 60, -211, -320, -354, -78, -210, -562, -607, -78, -233, -130, -607, 239, 403, 582, 275, 705, 90, -31, 303, 400, 346, 43, -71, -127, -59, -7, -32, 112, 183, -170, 47, 239, 73, -287, 459, 24, 168, 390, 333, 895, 307, 112, 131, 551, -11, 450, 249, 87, 65, 47, -573, 82, 271, 69, 140, -8, 205, -4, 184, -240, 5, -117, 416, -30, -91, -56, -131, -155, 138, 88, 342, 415, 237, 354, 311, 208, -100, -432, -255, -252, 137, 304, 202, 184, 79, 233, 180, -298, -200, 71, 187, -59, 56, 65, 39, 65, -18, 399, 863, 697, 403, 501, 196, -124, 92, -492, -866, -608, -145, 17, 483, 34, 182, 197, 610, 495, -187, -429, 157, -336, -185, 154, 623, 103, 373, -11, 148, 529, 733, 157, 84, -49, -380, -431, -677, -349, -687, -399, -21, -20, 328, 591, 621, 457, 263, -86, -18, -398, -191, -86, 168, 54, 244, 56, 221, 287, 355, 282, 55, 50, 15, -347, -540, -646, -1081, -720, -220, -25, 449, 173, 382, 555, 339, 106, -492, -445, 172, -94, 133, 8, 320, 469, 93, 178, 424, 327, 378, 414, 147, -212, -585, -256, -704, -1214, -368, 170, 555, 349, 494, 647, 231, -223, -115, -86, 138, -123, -407, -375, 187, 450, 243, 414, 314, 217, 82, 200, 207, -58, -260, -356, -621, -1025, -547, 677, 843, 434, 412, 249, 190, 53, 161, 444, 370, -82, -348, -728, 238, 260, 507, 345, 459, -84, 266, 377, -182, 68, -71, -409, -860, -888, -101, 705, 935, 326, 284, -110, -212, 159, -271, 617, 381, 38, -244, -195, 25, 128, 63, 71, -64, 114, 312, 30, 89, -72, -232, -653, -679, -394, 478, 762, 528, 414, 136, -127, -283, -279, -293, 861, 554, -93, -198, -73, -159, 91, -104, -174, -168, -234, 179, 212, -164, -282, -207, -510, -286, 179, 513, 634, 309, 168, -208, -104, -160, 192, -110, 447, 411, -78, -308, -416, -330, 188, 254, 115, 34, -256, 212, 220, -199, -677, -485, -276, 19, 325, 483, 531, 176, -106, 58, -60, -198, -150, -40, -123, 248, 27, 297, -165, -366, 28, -70, 314, 236, -28, 96, 177, -363, -130, -309, -251, -145, 109, 457, 581, 159, 19, -228, -226, -227, -55, -294, 168, 10, 132, 416, 426, 58, 405, 456, 5, 74, 10, -280, -92, -12, 248, -267, -232, -373, -2, 58, 284, 21, -426, -27, -286, 99, -145, -66, 270, 61, -127, 172, 154, 550, 41, 490, 125, -384, -148, -285, 68, 17, -10, -400, -167, -87, 114, 12, -154, -38, -59, -439, 24, 279, 306, -376, 315, 90, 157, -129, 109, 222, -194, 126, 345, -37, 49, -33, 24, -23, 59, -93, 17, -13, 23, -55, -16, 86, -330, -91, 224, 550, 265, 191, -439, 51, 141, -54, -355, -437, -280, 59, 289, 71, 209, -41, -57, 39, 180, 38, 264, -137, 32, 273, -58, 302, -155, 200, 118, 34, 124, -173, -297, -75, 80, -50, 158, -286, 122, -149, 54, 44, 318, 525, 52, -197, -108, -206, -201, -75, -336, 135, 501, 527, 502, 99, 88, 138, 346, 272, 133, -80, 26, 16, 151, 167, 582, 1, -135, -557, -603, 118, -683, -638, -715, -513, 199, 49, -587, -471, -106, 491, 532, 211, -157, 28, -96, 136, 134, 117, 78, 71, -9, 96, 563, 256, 143, 70, 30, 352, -338, -398, -427, -243, 33, -412, -99, 4, 374, 123, 259, 931, 274, 721, 245, -13, 144, 88, -58, 166, -27, 165, -124, -255, 434, 353, 501, -50, -317, -244, -236, 21, -83, -410, -264, -165, 188, 429, 517, 196, 157, -261, 47, 166, 159, 52}, {-31, 49, -73, 26, 19, 145, 56, -4, -25, 161, 49, -105, -119, -180, 21, -57, -155, -75, 97, -14, -61, -17, 10, -142, -166, 136, 56, -148, 4, -7, -12, -134, -114, 60, -344, -375, -327, -113, -300, -117, -539, -633, -9, -396, -256, -121, 149, -255, -259, -142, -119, -267, 15, 56, 55, 29, -116, 98, -199, -255, -195, 85, -303, -296, -418, -240, -544, -461, 198, 39, 375, 192, -64, -201, -154, -372, -141, 392, 246, -258, -344, -107, 45, 127, 63, 2, -134, -108, 71, 55, -264, -177, -155, 27, -173, -261, -760, -730, -89, -120, 80, -321, -556, -231, 4, 581, 625, 877, -15, -617, -428, 76, -152, -152, 39, -710, -609, -339, -110, 345, 79, -55, -228, -720, -639, -262, 302, -82, 220, 250, 146, 162, 515, 487, 330, 776, 868, 227, -486, 30, 53, -117, 83, -317, -603, -580, -470, -168, 324, 467, 339, -81, 90, -141, 314, -528, -17, 347, 262, 330, 505, 615, 510, 864, 837, 427, -484, 60, -158, 28, 94, -431, -339, -205, -440, -165, -45, 327, -155, -319, -306, -405, 14, -147, -124, 13, -282, 291, 177, 152, 560, 704, 457, 192, 188, 213, -55, 53, -165, -300, -299, 316, -510, -45, 294, -13, -165, -417, -426, 102, -113, 175, 71, -172, -578, -142, 167, 380, 726, 147, -261, -336, 182, 240, -299, -180, 139, -37, -77, 0, -193, 48, -141, 244, -430, -613, -529, -18, -69, -1, 274, -312, -499, -235, 207, 454, 0, -256, -666, -132, -3, 32, 38, -274, 17, -338, -626, -93, -81, 23, 6, 181, -252, -256, -435, -368, -340, -149, 179, -605, -409, -121, 250, 178, -300, -469, -174, 469, -157, -248, 6, 105, -509, -275, -65, -2, 41, 115, 264, 269, 366, 4, -135, -679, -326, -5, -108, -448, -147, 132, -260, -270, -550, -238, 22, -98, -491, -123, 95, -424, -766, 126, 54, 167, 135, -60, 141, 388, 458, 264, 143, -858, -359, -290, -327, -383, -65, -95, -254, -400, -443, -264, -721, -571, -367, -189, -67, -18, -431, 143, -27, 211, 232, 320, 213, 154, 555, 511, 189, -583, -335, -51, 6, -228, -79, -163, -232, -155, -193, -524, -166, -435, -396, -256, -91, -35, -223, 155, 104, 351, 163, 308, -47, 41, 155, 412, 111, -415, -79, -64, -194, 13, 229, -158, -142, 195, 102, -157, -481, -798, -552, -265, 42, -241, -379, -80, 232, 533, 483, 151, 49, 229, 239, 161, -54, -214, -47, -262, 17, 307, -52, -57, -83, -66, -96, -172, -389, -320, -181, -276, 145, -213, 329, 741, 129, 112, 341, 361, 124, -118, -108, 106, 30, 90, -79, 6, 233, 325, -185, 17, -153, 112, 160, -161, -694, -47, 186, -312, -15, -143, -183, 511, 224, 290, 59, 175, 34, 114, 41, 43, 68, -168, 116, 256, 381, 249, 144, 291, 86, 405, -73, -301, -440, -139, -103, -273, 83, -122, 152, 360, 393, 284, 151, 219, 112, -121, -104, -179, -592, 131, 238, 122, 225, 305, 100, 173, 313, 322, -65, -99, -199, -151, 105, -437, -303, -22, -95, 591, 482, 260, 188, -2, 223, -42, -227, -617, -174, 616, 311, -117, 45, 68, 247, -15, 267, 294, -295, -470, -70, -423, -642, -86, -141, -150, -613, 460, 113, 231, 92, 162, 261, 305, -279, -877, -487, 387, 219, 22, -60, -5, 56, -139, 191, 59, -278, -562, -35, -387, -302, 48, 146, -167, 221, 55, -31, -202, -152, 55, 185, -124, -585, -609, -136, 52, 154, 6, -147, 101, 476, 138, 238, 364, 80, -107, -30, -643, 157, 116, 114, -73, 352, -3, -136, -526, -447, -326, 151, -114, -199, -49, 37, 64, 274, 312, 44, 303, 55, 350, 188, 195, 214, 570, -111, -159, -243, 28, 63, 2, 122, -401, -605, -1084, -898, -824, -613, -505, -224, 41, -61, 8, 355, 518, 415, 216, 127, 322, -85, 510, 234, 8, -12, 117, 168, 43, 35, 78, -92, -230, -414, -587, -455, -675, -251, -153, -222, -95, -26, 180, 278, 368, 192, 300, 447, 274, 330, 221, -245, -184, -356, 280, 372, 158, 161, -121, 14, 89, -245, -268, -260, -342, -292, -116, -67, -394, -619, -1, -121, -126, -67, 44, 134, 125, -46, -362, -641, -342, -637, -7, -142, -127, 76, 52, -231, 142, -118, -220, -20, 13, -241, -589, -829, -852, -1156, -772, -438, -69, -164, -24, 379, -312, -454, -375, -488, 36, -123, -316, -166, 144, -75, 45, -40, 27, -239, -328, -355, -271, -400, -531, -520, -659, -344, -877, -1025, -250, -538, -85, -144, -701, -943, -589, -501, -643, -119, 31, -56, 147, 18, 71, 95, 19, -163, -171, -34, -239, -315, -102, -334, -186, -211, -111, -524, -12, -638, -740, -613, -332, -135, -290, -391, -64, 44, -166, 53, 166}, {-168, 20, 118, 28, 168, -137, -74, -50, 94, 23, 138, 63, -140, -258, -75, 83, -101, -144, 148, -108, 6, 166, 10, -115, -79, -149, -29, 50, 119, -32, 104, 68, 115, 32, -233, -108, 8, -106, -325, -212, -125, -371, -268, -720, -48, -75, -842, -524, -564, -136, -267, -131, 71, -141, -64, 7, -6, -158, -3, 272, 169, -194, -395, -163, -924, -1184, -1130, -671, 4, -358, -190, -760, -895, -616, -161, -820, -896, -730, -645, -610, -458, -464, 42, -55, 126, -24, -737, -17, 505, 345, -479, 19, 93, -136, -219, 358, -105, 40, 404, 73, 122, 264, -122, -129, 494, -183, -529, -276, 239, 641, 298, 167, -81, 3, -360, -90, -274, 9, -260, 302, 27, -37, 6, 47, -101, -198, -184, 154, -64, 241, 163, 72, 74, 149, 152, 78, 891, 792, 451, 247, -19, 83, -616, 179, -159, 116, 82, 555, 234, 111, -52, -210, -37, -4, 129, 150, 4, -170, 74, 245, 311, 137, 248, -114, 74, 278, -92, 182, -54, 268, 4, 493, 205, 358, 261, 257, 364, 352, -39, -449, -4, 386, 350, -15, 82, 34, -6, 33, 72, 498, 483, 643, 457, -433, -55, -172, -11, 221, 45, 691, 105, 768, 195, 164, 234, 18, -119, -282, -101, 139, 28, 4, 151, 80, 171, 237, 154, -123, 456, 663, 621, -186, -149, -206, 674, -813, -7, 560, 479, 358, 47, 132, -183, 97, -182, -136, 314, 254, 73, 62, -41, 7, 152, 272, 122, 225, 646, 291, 262, 362, 49, 174, -31, -279, -1, 142, -130, -132, -65, -380, -196, -48, 61, 156, 330, 477, 109, -299, -425, -181, -309, -77, 415, 66, 96, 680, 440, 297, -26, -600, 81, -195, 130, 363, -144, -283, -334, -141, -407, 130, 140, 402, 446, 437, 98, -81, -364, 114, -330, -388, -141, -145, 491, 475, 447, -277, -95, -354, -128, 303, -265, 65, -661, -314, 72, 54, -278, -190, 292, 122, 374, 127, 141, -31, -310, 190, -124, -135, -458, -75, 244, -147, 249, -160, 764, -364, 3, 37, -233, -65, -193, 106, 315, -174, -130, -179, -36, -161, 243, 372, -20, 323, 39, -38, 89, 68, -142, 119, 94, 22, 233, -417, -151, -501, -131, -57, -523, 129, -165, 268, 134, 14, -300, -13, 119, -67, 408, 94, 98, -77, -24, 81, 266, 71, 192, 25, -44, 18, -110, 128, -85, -228, -55, 153, -386, 20, 41, 548, 273, -111, 75, 54, -146, -108, 169, -129, -29, -160, -427, 263, 388, 164, 46, 137, 95, 78, 278, 55, -268, -361, -26, 20, 306, 236, 368, 524, 266, 169, 149, 8, -248, -264, -258, -401, -288, 91, -95, 194, 173, 246, 249, 123, 553, 587, 539, -301, 289, -640, -278, 57, -4, 222, 293, 149, 2, 259, 307, -363, 9, -290, -128, -266, 136, 109, -74, 389, 68, 218, 394, 82, 11, 367, 314, -588, -591, -235, -156, 148, 257, 30, 244, 180, 113, 478, 34, -37, -40, -197, -4, 136, -84, -295, -45, 325, 157, 131, 165, 13, 58, 545, 123, -740, -278, 123, -401, 103, 311, 572, 170, -3, 79, 240, 316, -23, -160, 229, -25, -246, -205, -28, 248, 98, 44, 42, 160, 104, 217, 135, -83, -910, -243, -512, 53, -36, -19, 691, 157, 495, -72, 14, 203, 62, 41, 9, 19, 31, 257, 68, -128, 40, -4, 242, 176, 77, 57, -357, -295, -687, -275, -134, -60, 593, -359, 237, -4, -102, -127, 138, 80, 186, 64, 213, 91, 238, -62, 47, -119, -11, -276, -103, 50, -211, -637, -992, -586, -496, -619, -273, -220, 37, -83, 21, -125, -310, -78, 245, 140, 148, 153, 303, -21, 110, -278, -187, -216, -81, -740, -246, -395, -556, -205, -828, -942, -608, 362, 182, 7, 84, 54, 156, -578, -277, -83, 136, 237, 158, 365, 218, 309, 248, 85, 56, -494, -246, -712, -2, -458, -325, 32, -831, -709, -550, 312, -130, 57, 26, 234, 429, 101, -204, -183, 249, 171, 24, 460, 224, 99, 116, 63, -428, -492, -751, -446, -676, -696, -756, -1029, -832, -399, -453, -317, 7, 115, -123, -222, 689, 445, 510, 335, 250, 218, -14, -200, -97, -26, 82, -277, -261, -244, -1258, -684, -607, -430, -743, -210, -32, -70, -227, -250, 147, 44, 161, -102, -409, 118, 311, 426, 222, -250, -100, 583, 351, -571, -887, -1098, -490, -441, -440, -545, -309, -866, -334, -20, 4, 261, -122, 67, -71, -159, 121, -131, -372, 364, 164, 73, -436, -499, -884, -196, 405, 118, -146, -1033, -949, -950, -528, -683, 36, -305, -148, -177, -125, 159, -156, 123, -151, -23, 68, -165, -46, -103, -63, -340, -385, -299, -947, -815, -908, -466, -534, -544, -170, -116, -137, -94, 57, -81, -93, -136, -66, 112, 62, -25, 5}, {-96, -119, 128, 136, -75, 28, 127, 26, 145, 111, 137, -11, -37, 8, 136, 88, 49, 10, -30, -120, 121, -25, 23, 67, -167, -33, -97, 6, 85, 141, -164, 100, -140, 93, -68, 65, 111, -102, 529, 326, 261, -15, 474, 736, -5, -339, 277, 383, 161, -92, -48, -57, 60, -167, -45, -49, 84, 0, -57, -100, 69, 152, 217, 348, -209, -72, 513, 310, -301, 140, -188, -291, -666, -353, 29, 311, 126, -626, -591, 157, 382, 95, 136, 118, 143, 165, 413, 737, 623, -434, -281, -53, -41, 0, -849, -1024, -391, -335, -352, -413, -596, -402, -93, 66, -194, -74, -60, -468, 50, 247, 331, -70, 42, -10, 384, 174, -192, -542, -364, -240, -780, -692, -701, -720, -402, -119, -65, -377, -365, -288, 431, 168, 101, -56, -481, 64, 232, 429, 311, -314, 0, -131, 532, 367, -801, -23, -369, -457, -119, -118, -271, -261, -48, -135, -81, -132, 59, -80, -135, -179, -67, 149, 34, 206, -36, 90, 304, -274, -9, 94, 57, 173, -449, -32, -79, -107, -30, -338, 27, 194, 537, 326, 174, 9, 10, 157, 504, 404, 273, 110, 145, 398, 346, 299, 197, -108, -81, -192, 91, 237, -399, -265, -156, -317, -152, -178, -115, -10, 422, 547, 281, 58, 335, 266, 551, 381, 548, 506, 559, 370, -38, 131, 593, 140, -379, 143, -535, 104, -325, -222, -28, 368, 180, -549, -300, 38, 314, 367, 453, 588, 658, 744, 814, 839, 781, 650, 530, 848, 846, 367, 760, 315, 126, 350, -250, -125, 460, 207, 375, 326, -214, -292, 15, 148, 153, 216, 448, 545, 289, 211, 513, 268, -83, 182, 386, 405, 693, 255, -24, 419, 215, 91, -139, -222, 451, -80, 82, 206, 58, 100, 57, -404, -178, 119, -180, 119, -78, -674, -655, -680, -832, -387, -427, -889, -384, -276, 86, 413, 254, -380, 433, -175, 208, -88, -112, 133, 24, -293, -133, -462, -407, -442, -473, -270, -248, -718, -955, -931, -913, -860, -900, -961, -1238, -570, 353, 344, 87, -69, 2, -675, -426, -631, -197, -80, -133, -25, -118, -506, -549, -322, -455, -237, -174, -440, -288, -792, -865, -757, -1216, -1264, -1570, -673, -71, 231, 128, 241, 507, -278, -848, -629, -240, 120, -327, -67, -335, -278, -295, -400, 282, 435, 25, 64, -161, -376, -687, -396, -1190, -1478, -1142, -775, 54, 114, 423, 277, 639, -318, -444, -659, 236, 168, -209, -366, -19, -433, -488, -175, 498, 156, -107, -175, -21, 376, 90, -338, -879, -604, -297, -17, 717, 121, 68, -173, 5, -507, -236, -105, 253, 79, -225, -257, -73, -182, -169, 170, -10, -319, -348, -194, -45, -51, -95, -39, -501, -720, -135, -327, -411, 470, -145, -312, -405, -177, -460, -45, 28, -32, -54, -24, -32, -228, -2, 82, -127, -74, -93, -177, -361, -464, -262, -58, -499, -325, -289, 173, 209, 193, -105, -321, -914, 4, -172, 18, 320, 0, 158, 16, -129, -198, -113, 20, -23, 93, 241, 129, -164, -332, 219, 216, -185, -183, 26, 835, 598, 192, 107, -52, -773, -51, 218, 164, 288, 274, 29, -20, -86, -51, 291, 364, 179, 179, 86, 28, -99, 38, 354, -2, -109, -321, 18, 277, 1065, 496, -40, 228, -2, -330, 191, -201, 154, 145, 277, -80, -55, 9, 326, 328, 179, 124, 160, 83, -112, 147, 50, -119, -303, 313, 572, 206, 425, 19, -32, -127, 143, -407, 237, 363, 356, -250, 44, -10, 87, 383, 390, 266, 197, 186, 178, 228, 219, -65, -72, 160, 237, 439, 345, 15, 375, 254, 160, 112, -244, -322, 548, 321, -149, -524, -250, -152, 159, 223, 343, 85, 346, 391, 323, 42, 196, 413, 439, 467, 132, 704, 665, 343, -185, 131, 203, -71, -396, -42, 721, 71, -67, -430, -273, -140, 19, 70, 119, 170, 369, 442, 330, 421, 92, 81, 321, 119, -258, 479, 320, 188, -239, 3, 14, 100, -337, 164, 611, 63, -133, -429, -725, -406, -323, -79, 246, 230, 78, 286, 312, 240, -235, 9, 26, -258, -171, 297, -170, 134, 86, -6, -22, -138, -609, -260, -457, -617, -776, -406, -37, -68, -47, 132, 133, -200, -46, 227, -186, 263, 167, -63, 127, -241, -553, -408, 130, 403, 225, -149, -113, -109, -462, 513, -472, -762, -559, 206, 599, 568, -402, 37, 409, 4, 76, -129, -219, -92, 64, -477, -414, -147, -61, 146, 126, 82, 137, -39, 83, 144, 63, -40, -527, -621, -357, -246, -10, 79, -269, -377, -251, -259, -330, -416, -163, 97, 369, 272, 362, -51, -257, 94, 81, 194, 123, -120, 138, -94, -82, -31, 210, 178, 237, 64, 317, 355, 694, 692, 445, 945, 462, 548, 694, 356, 315, 348, 19, -315, -396, 40, 45, -83, -114, -88}, {-134, 49, -3, -114, 31, 111, -59, -3, -68, 1, -18, -48, 129, -92, -156, 147, 136, 94, -62, -111, 155, -126, -123, 96, -90, 146, -53, 28, -9, -157, -55, -21, -70, -18, 164, -17, -163, 57, -291, -382, -271, -296, 186, 167, -304, -633, 321, 625, 304, 320, 72, -134, 121, -115, 7, 129, -67, -93, -102, -19, 23, -20, -307, 106, 14, -274, -399, 28, -264, -399, -121, -110, -133, 63, 283, 383, 745, 489, 305, -230, -235, 214, -78, -56, 96, -40, -371, -653, -411, 77, 16, -18, 609, -103, -220, 9, -36, 130, 65, 54, 126, -36, 404, 482, 594, 394, 217, 651, -113, -521, -450, 138, 68, 168, -360, -220, -23, -122, -102, 292, 301, 133, 239, -223, -210, 71, 102, 202, 55, 52, 273, 207, 361, 464, 384, 122, 218, 214, 281, 554, -72, 90, -230, -460, -675, -92, 107, 471, 119, 106, -302, -487, -236, -197, -8, -143, 53, 262, 374, 643, 513, 313, 103, -317, -19, 365, 415, 469, -137, 80, 33, -453, -203, 129, 263, 538, 274, 162, -342, -340, -216, -348, -119, 162, 50, 68, -66, 258, 503, -1, -442, 192, 101, 452, 135, 375, -4, 155, -6, -249, -204, -126, 435, 589, 221, -117, 6, -238, -209, -72, -129, 295, 65, -97, 123, 242, 240, -262, -42, -23, 343, 175, 92, 130, 75, -192, 209, 320, 35, -121, 364, 201, 58, -75, 57, -13, 43, 295, -136, 2, 50, -78, 252, 322, 306, 38, 71, 178, 117, 135, 213, 126, -94, -128, 215, -2, -341, -508, 264, -109, -28, -74, -16, -221, -173, 44, 79, -338, -251, 318, -26, 232, 269, 160, 175, 463, -213, 543, -34, -111, 75, -23, 298, 464, -48, -161, -277, -167, -233, -110, -19, -183, -219, 76, 209, -344, 79, 252, 284, 203, 168, -95, 412, 117, -626, -320, 221, -102, -168, -470, -27, 373, 119, -287, -162, -436, -398, -90, -407, -273, 164, 616, 705, 435, 160, 472, 482, 48, -114, -215, -286, -506, -513, -233, 436, -382, 83, -349, -272, 66, 73, 162, -352, -405, -817, -557, -212, 17, 162, 690, 737, 542, 323, 630, 324, -201, -344, -614, -909, -425, -386, -308, -208, -258, 199, -163, -323, -30, -154, 17, -438, -853, -630, -591, -415, -13, 335, 394, 562, 442, 