
    //#include <esbmc.h>
    #include <math.h>
    //extern float nondet_float();
    #define INPUT_SIZE 784
    #define LAYER_SIZE 10

    float weights[LAYER_SIZE][INPUT_SIZE] = {{0.017517f, 0.016632f, -0.018936f, 0.024445f, 0.024033f, 0.001175f, -0.025909f, -0.035248f, 0.022720f, -0.007950f, -0.030289f, 0.030807f, 0.006699f, 0.004776f, 0.011353f, -0.023880f, -0.029312f, -0.006165f, 0.013092f, 0.028519f, 0.007004f, -0.013580f, -0.002243f, 0.032501f, -0.012573f, -0.005463f, -0.026718f, -0.012314f, 0.003876f, 0.028259f, 0.000702f, -0.003845f, -0.025330f, -0.032135f, -0.021881f, -0.020844f, -0.005661f, 0.014313f, 0.028793f, -0.014465f, 0.001099f, 0.031265f, 0.000290f, 0.033249f, 0.001038f, 0.034576f, -0.020554f, 0.030029f, 0.005127f, -0.029129f, 0.033905f, -0.017700f, 0.035522f, -0.023041f, -0.016754f, -0.030426f, -0.004715f, 0.023621f, -0.029327f, -0.022690f, -0.015320f, -0.020691f, 0.005432f, -0.025513f, -0.007935f, -0.026505f, -0.027695f, -0.024445f, -0.021973f, -0.049545f, -0.017990f, -0.006180f, -0.014740f, -0.002319f, 0.018600f, -0.000839f, 0.021606f, -0.036316f, -0.032288f, 0.004120f, -0.005371f, 0.003036f, -0.032166f, 0.028381f, -0.034836f, 0.013168f, 0.025574f, -0.029922f, -0.009415f, 0.030060f, -0.028763f, 0.015427f, -0.031769f, -0.010391f, 0.025330f, -0.007034f, 0.034241f, 0.056931f, 0.057816f, 0.024124f, 0.009476f, 0.047363f, 0.027969f, 0.033859f, 0.021500f, 0.000656f, -0.020645f, 0.016739f, -0.022156f, 0.028214f, 0.022614f, -0.021255f, -0.015152f, -0.016907f, -0.033264f, 0.002579f, 0.037689f, 0.009384f, 0.031540f, 0.008255f, 0.029831f, 0.088181f, 0.108383f, 0.129517f, 0.117676f, 0.125336f, 0.056992f, 0.098190f, 0.101410f, 0.057098f, 0.011551f, -0.019623f, -0.010956f, -0.027954f, -0.009933f, 0.017395f, 0.032959f, -0.024414f, -0.012421f, -0.032455f, 0.018158f, 0.016663f, 0.009003f, 0.011810f, 0.008514f, 0.016800f, 0.049301f, 0.107498f, 0.075699f, 0.136368f, 0.164490f, 0.096207f, 0.110855f, 0.101578f, 0.039185f, 0.101456f, 0.060684f, 0.041885f, 0.017151f, 0.022095f, 0.001190f, -0.061768f, -0.061050f, 0.001968f, -0.038483f, -0.003036f, 0.030258f, 0.022537f, 0.019455f, -0.029037f, -0.013458f, -0.003815f, 0.000610f, 0.061768f, 0.049850f, 0.091873f, 0.090988f, 0.133469f, 0.099106f, 0.039047f, 0.085938f, 0.141632f, 0.130173f, 0.144379f, 0.159454f, 0.087540f, 0.067947f, 0.034256f, 0.012390f, -0.024704f, -0.046280f, -0.046738f, -0.002365f, 0.011780f, 0.023376f, 0.022446f, 0.026108f, -0.009766f, -0.023254f, -0.017258f, -0.004440f, 0.070938f, 0.055893f, 0.024826f, 0.031830f, 0.000290f, 0.021790f, 0.011230f, 0.042038f, 0.101776f, 0.134323f, 0.147247f, 0.119415f, 0.057114f, 0.053787f, 0.003754f, -0.020432f, -0.014496f, 0.020264f, -0.025391f, -0.030426f, -0.022339f, 0.025864f, -0.030304f, 0.015640f, 0.031540f, 0.023666f, -0.013168f, 0.047058f, -0.009399f, 0.037445f, -0.005234f, -0.048172f, -0.056259f, -0.002075f, -0.032639f, -0.000214f, 0.004211f, 0.074951f, 0.059921f, 0.043274f, 0.020935f, 0.031296f, 0.015350f, 0.045776f, 0.001389f, -0.021301f, -0.048630f, -0.032089f, 0.007950f, 0.009842f, 0.019699f, 0.003525f, -0.020264f, -0.032486f, -0.041992f, -0.030746f, -0.032425f, -0.028564f, -0.090805f, -0.075348f, -0.080795f, -0.093948f, -0.052383f, -0.113892f, -0.078888f, -0.055344f, -0.034576f, -0.014526f, -0.002167f, 0.005066f, 0.020813f, 0.018600f, 0.046738f, -0.040497f, -0.062073f, 0.007156f, -0.002609f, -0.008896f, -0.024246f, -0.000916f, 0.024048f, 0.012848f, -0.040955f, -0.047333f, -0.028763f, -0.064270f, -0.107971f, -0.098785f, -0.108948f, -0.077209f, -0.133911f, -0.115417f, -0.144623f, -0.098267f, -0.079681f, -0.000031f, 0.040054f, 0.050476f, 0.034363f, 0.027359f, -0.002808f, -0.027466f, -0.081131f, -0.016129f, -0.030090f, 0.000824f, -0.031845f, -0.017380f, -0.027664f, 0.007278f, -0.001266f, -0.042755f, -0.057144f, -0.056961f, -0.084122f, -0.113892f, -0.096802f, -0.040314f, -0.079849f, -0.045639f, -0.097961f, -0.052002f, -0.012634f, 0.031174f, 0.090393f, 0.069351f, 0.042770f, 0.025864f, -0.081711f, -0.074600f, -0.110031f, -0.062164f, 0.016663f, 0.017349f, 0.012543f, -0.030304f, 0.008545f, -0.030045f, -0.035797f, 0.011215f, -0.015961f, -0.090363f, -0.067932f, -0.092163f, -0.006470f, 0.052933f, 0.028961f, 0.077957f, 0.060303f, 0.080399f, 0.047943f, 0.086227f, 0.109894f, 0.084610f, 0.097931f, -0.028717f, -0.097443f, -0.079300f, -0.121017f, -0.019226f, -0.034134f, -0.026794f, -0.025620f, -0.033875f, 0.030563f, -0.018738f, -0.037582f, 0.023560f, -0.019043f, -0.026535f, -0.031601f, 0.024567f, 0.064667f, 0.081284f, 0.156860f, 0.204895f, 0.190582f, 0.090530f, 0.057632f, 0.129471f, 0.167572f, 0.132339f, 0.052841f, -0.001831f, -0.078049f, -0.127945f, -0.091217f, -0.064713f, -0.013763f, 0.006287f, -0.001099f, -0.011383f, 0.012177f, 0.010208f, 0.000839f, 0.011948f, -0.035049f, -0.010666f, 0.004761f, 0.022659f, 0.058350f, 0.099747f, 0.154373f, 0.207092f, 0.220581f, 0.126602f, 0.048401f, 0.121841f, 0.145477f, 0.136917f, 0.025955f, 0.042099f, -0.064957f, -0.106201f, -0.096542f, -0.071747f, 0.009659f, -0.021011f, 0.022293f, 0.034256f, -0.033936f, -0.017960f, 0.020004f, 0.018478f, 0.017761f, 0.046539f, 0.029495f, 0.055252f, 0.027069f, 0.060211f, 0.195023f, 0.185135f, 0.159027f, 0.048264f, 0.039795f, 0.122528f, 0.142136f, 0.060638f, 0.055222f, 0.019409f, -0.048660f, -0.061386f, -0.050171f, -0.053757f, 0.025986f, 0.033020f, -0.015213f, -0.006241f, 0.011993f, 0.028595f, 0.047501f, 0.012955f, 0.002701f, 0.018280f, 0.052139f, 0.012070f, 0.026489f, 0.006516f, 0.091751f, 0.113144f, 0.066223f, -0.027435f, 0.031265f, 0.144165f, 0.110321f, 0.110916f, 0.034058f, 0.035568f, 0.015244f, 0.002960f, -0.000122f, -0.041122f, -0.019363f, 0.034500f, 0.023132f, 0.003662f, -0.006775f, 0.033737f, 0.003784f, 0.046921f, 0.017410f, 0.053925f, -0.005051f, -0.033539f, -0.062317f, -0.060150f, -0.057465f, 0.004425f, -0.064560f, -0.073212f, 0.062881f, 0.143295f, 0.092346f, 0.074570f, 0.118622f, 0.062820f, 0.045578f, 0.046097f, 0.000168f, 0.038071f, 0.041962f, -0.007767f, 0.010956f, -0.013046f, -0.034790f, 0.003387f, 0.072006f, 0.075226f, 0.098587f, 0.066162f, 0.026489f, -0.025635f, -0.074524f, -0.110962f, -0.102936f, -0.059341f, -0.046890f, -0.078522f, 0.038986f, 0.115341f, 0.095581f, 0.105072f, 0.127640f, 0.093094f, 0.069275f, 0.078476f, 0.037247f, 0.030670f, 0.022354f, 0.027557f, 0.027084f, -0.030060f, -0.018265f, 0.010818f, 0.056183f, 0.096451f, 0.077286f, 0.079300f, 0.072220f, -0.015396f, -0.017639f, -0.087540f, -0.091736f, -0.108566f, -0.090714f, -0.073303f, 0.050308f, 0.071945f, 0.170517f, 0.164749f, 0.123825f, 0.154953f, 0.113617f, 0.074905f, 0.028137f, 0.029129f, -0.017746f, 0.016495f, 0.023895f, -0.002457f, -0.016296f, -0.003082f, 0.027420f, 0.135208f, 0.125732f, 0.103729f, 0.052780f, 0.036575f, -0.014633f, -0.054626f, -0.067566f, -0.092361f, -0.047729f, 0.005478f, 0.050171f, 0.071762f, 0.174286f, 0.130875f, 0.142441f, 0.166702f, 0.117233f, 0.064514f, 0.017120f, -0.009659f, -0.025223f, 0.002731f, -0.028519f, 0.007462f, 0.035690f, 0.034897f, 0.062286f, 0.063370f, 0.090134f, 0.054138f, 0.025848f, 0.008316f, 0.034378f, -0.031372f, -0.016632f, -0.026581f, -0.028305f, -0.005554f, -0.000061f, 0.056396f, 0.095901f, 0.109146f, 0.142151f, 0.070480f, 0.068527f, 0.048843f, 0.025604f, 0.038193f, 0.017746f, 0.011078f, -0.006943f, 0.031464f, -0.027634f, 0.035995f, 0.045990f, 0.064041f, 0.048462f, 0.080627f, 0.051788f, -0.040955f, -0.018036f, 0.018463f, -0.029892f, 0.018463f, 0.009445f, -0.059570f, -0.043533f, 0.001694f, 0.019592f, 0.051254f, 0.108643f, 0.090073f, 0.062622f, -0.003448f, 0.034378f, 0.016922f, 0.027237f, 0.027344f, -0.029846f, 0.002182f, -0.009811f, -0.001541f, -0.021118f, 0.008560f, 0.041321f, 0.054703f, 0.026688f, 0.001678f, 0.001877f, -0.008667f, -0.019958f, -0.033386f, -0.050293f, -0.093506f, -0.067307f, -0.045929f, 0.026733f, 0.038864f, 0.037064f, 0.079239f, 0.051559f, -0.015350f, 0.014862f, -0.025986f, 0.032654f, 0.034943f, 0.016327f, 0.001358f, -0.014145f, 0.014420f, 0.037720f, 0.012238f, 0.026825f, 0.035522f, 0.039658f, 0.039810f, 0.073517f, 0.039581f, 0.044083f, 0.019440f, -0.012650f, -0.029266f, -0.037628f, -0.047836f, -0.018112f, 0.048340f, 0.003555f, 0.008469f, 0.014236f, 0.013550f, 0.035187f, -0.032623f, -0.011581f, 0.014282f, -0.000092f, -0.022736f, -0.012436f, -0.009537f, -0.007309f, -0.012848f, -0.014160f, 0.001053f, 0.020294f, 0.015747f, 0.013306f, 0.040665f, 0.057236f, 0.015594f, 0.038559f, 0.013931f, 0.000580f, 0.006836f, -0.034058f, 0.023636f, 0.000198f, 0.024399f, 0.022614f, 0.031723f, 0.018753f, 0.008163f, -0.009750f, -0.010269f, -0.015320f, 0.000366f, 0.027359f, 0.033997f, 0.016098f, -0.034012f, 0.000931f, 0.034851f, 0.002090f, -0.030350f, 0.010071f, 0.005280f, -0.007004f, -0.012436f, -0.040085f, -0.023117f, -0.049332f, -0.003464f, -0.042984f, -0.040527f, -0.025330f, -0.014847f, -0.012955f, -0.034622f, -0.000977f, -0.002808f, -0.020584f, 0.016693f, -0.017578f, 0.004898f, 0.005890f, -0.027069f, -0.033630f, -0.013596f, -0.014832f, 0.021286f, -0.024872f, -0.019409f, 0.024872f, 0.000000f, -0.010071f, 0.013138f, -0.001755f, -0.011551f, 0.018433f, -0.016174f, 0.017014f, -0.033951f, 0.004486f, 0.030273f, 0.017654f, -0.005646f, 0.007935f, 0.012711f, -0.000732f, 0.001846f, 0.003265f}, {-0.018082f, 0.026077f, -0.005356f, 0.032303f, 0.021271f, 0.030899f, 0.004211f, 0.003830f, -0.023636f, -0.003052f, 0.002121f, 0.028046f, 0.020782f, -0.016647f, 0.008514f, -0.002121f, -0.013275f, -0.014297f, 0.002731f, -0.015564f, -0.013657f, 0.001205f, 0.022079f, 0.026901f, -0.011261f, -0.023987f, -0.020203f, -0.014191f, 0.000916f, -0.021027f, -0.009430f, 0.002884f, -0.000381f, -0.007385f, 0.001419f, -0.002777f, -0.006866f, -0.004166f, -0.022415f, -0.029633f, 0.011719f, -0.021301f, 0.015076f, -0.017929f, -0.006348f, -0.031616f, -0.032730f, 0.034561f, 0.001709f, -0.008362f, -0.034470f, -0.002014f, 0.017960f, 0.028290f, -0.018555f, -0.010742f, 0.015335f, -0.015427f, 0.008621f, 0.015060f, -0.003616f, 0.022888f, -0.019745f, -0.012314f, 0.006470f, -0.047073f, -0.047882f, -0.014160f, -0.052811f, -0.064163f, -0.067657f, -0.009598f, 0.000900f, -0.002228f, 0.017853f, -0.044022f, -0.006577f, -0.002380f, -0.013916f, -0.017441f, 0.024399f, -0.017975f, -0.013016f, 0.030823f, 0.002319f, 0.033798f, -0.019913f, -0.000992f, 0.029480f, 0.033020f, -0.023682f, 0.010178f, -0.027954f, -0.039810f, -0.030701f, -0.068161f, -0.073196f, -0.066452f, -0.085800f, -0.084732f, -0.069138f, -0.063675f, -0.068100f, -0.026443f, -0.039413f, 0.021622f, -0.020996f, 0.002106f, 0.027786f, -0.008347f, 0.024246f, 0.003723f, 0.019669f, -0.026871f, 0.032608f, 0.010300f, 0.033005f, -0.014252f, -0.017441f, -0.015457f, -0.055466f, -0.036804f, -0.056473f, -0.064011f, -0.082031f, -0.119705f, -0.097595f, -0.107895f, -0.098419f, -0.045700f, -0.063217f, -0.051346f, -0.043991f, -0.005875f, -0.037079f, 0.023682f, -0.022568f, -0.027512f, 0.019073f, -0.034149f, -0.034698f, -0.031494f, -0.002914f, -0.004868f, 0.009506f, 0.034348f, -0.008392f, -0.036880f, -0.058014f, -0.021103f, -0.053497f, -0.065308f, -0.125305f, -0.097351f, -0.069489f, -0.072418f, -0.092667f, -0.087463f, -0.026657f, -0.076355f, -0.076019f, -0.055649f, -0.045044f, 0.015213f, -0.008545f, -0.021652f, -0.020691f, -0.027664f, 0.001343f, 0.017197f, -0.002914f, -0.022629f, -0.007034f, 0.010162f, -0.021500f, -0.026474f, -0.001282f, 0.010849f, -0.039658f, -0.030243f, -0.019775f, 0.007736f, -0.007553f, 0.056015f, 0.080353f, 0.039597f, -0.008591f, -0.039001f, -0.024048f, -0.022018f, -0.029175f, -0.038589f, -0.033020f, 0.002518f, -0.015442f, -0.020248f, 0.018005f, -0.030441f, 0.025146f, 0.016510f, -0.021072f, 0.012650f, -0.007889f, 0.038528f, -0.010300f, 0.003159f, 0.068436f, 0.052231f, 0.073090f, 0.077927f, 0.109192f, 0.110672f, 0.143707f, 0.102554f, 0.062698f, 0.056412f, -0.007324f, -0.006241f, -0.004791f, -0.034805f, -0.063690f, -0.007034f, -0.033371f, 0.023041f, 0.005692f, -0.026276f, 0.027313f, -0.015900f, 0.005646f, 0.028687f, 0.002304f, 0.062271f, 0.078384f, 0.048080f, 0.107285f, 0.113388f, 0.134811f, 0.125626f, 0.087189f, 0.051117f, 0.135010f, 0.129211f, 0.110733f, 0.083084f, 0.063583f, 0.005997f, -0.026184f, -0.066330f, -0.086914f, -0.033203f, -0.042496f, -0.027390f, 0.019699f, -0.018356f, 0.016495f, 0.038483f, 0.033829f, 0.019608f, 0.044067f, 0.027252f, 0.079300f, 0.104340f, 0.117432f, 0.131409f, 0.125427f, 0.036041f, -0.032639f, 0.008377f, 0.107422f, 0.151260f, 0.115250f, 0.115555f, 0.112015f, 0.085266f, -0.002533f, -0.061020f, -0.063416f, -0.061081f, -0.042786f, -0.024307f, -0.006027f, -0.003006f, 0.032639f, 0.020081f, 0.055313f, 0.050217f, 0.045944f, 0.100311f, 0.097626f, 0.135925f, 0.154617f, 0.172852f, 0.072388f, -0.007294f, -0.077148f, -0.009048f, 0.130173f, 0.195145f, 0.185562f, 0.161240f, 0.147018f, 0.114655f, 0.007904f, -0.010330f, -0.061966f, -0.054321f, 0.003494f, 0.011337f, 0.010422f, -0.017105f, 0.015167f, 0.045578f, 0.010193f, 0.034897f, 0.044769f, 0.115799f, 0.136871f, 0.142899f, 0.153702f, 0.150345f, 0.043381f, -0.098801f, -0.087692f, 0.075668f, 0.277603f, 0.271057f, 0.195770f, 0.185913f, 0.165710f, 0.124008f, 0.065140f, -0.002640f, 0.002472f, -0.000244f, 0.016663f, -0.021393f, 0.029190f, 0.011566f, -0.000916f, 0.002747f, 0.082611f, 0.086411f, 0.099030f, 0.094666f, 0.150879f, 0.162323f, 0.103485f, 0.034348f, -0.074478f, -0.117432f, -0.067978f, 0.088501f, 0.268661f, 0.311356f, 0.230576f, 0.185501f, 0.144272f, 0.097275f, 0.080093f, -0.023834f, -0.044678f, -0.010071f, 0.004745f, 0.016281f, 0.026138f, 0.011673f, -0.024323f, 0.001816f, 0.083908f, 0.113663f, 0.126846f, 0.121246f, 0.126984f, 0.081070f, 0.043427f, -0.055618f, -0.118942f, -0.122284f, -0.022339f, 0.125168f, 0.249664f, 0.291260f, 0.196671f, 0.201584f, 0.167206f, 0.100159f, 0.043152f, 0.001907f, -0.038574f, 0.010712f, 0.002838f, 0.032196f, -0.022430f, 0.015381f, 0.012314f, 0.012772f, 0.078476f, 0.076050f, 0.083023f, 0.128372f, 0.095749f, 0.027298f, -0.055344f, -0.050827f, -0.073059f, -0.133636f, -0.023972f, 0.087875f, 0.231842f, 0.259293f, 0.214310f, 0.203415f, 0.145401f, 0.081512f, 0.020309f, -0.006195f, -0.000244f, -0.009094f, -0.016953f, 0.022659f, -0.019073f, 0.025269f, -0.006363f, -0.003799f, 0.048019f, 0.060516f, 0.048737f, 0.100616f, 0.059235f, 0.041000f, 0.017654f, -0.015091f, 0.004654f, -0.032120f, -0.059082f, 0.155930f, 0.294067f, 0.283203f, 0.171448f, 0.097748f, 0.065796f, 0.000320f, -0.032578f, -0.058182f, -0.037445f, 0.019379f, -0.035004f, -0.002792f, -0.032959f, 0.034439f, -0.024902f, 0.001144f, 0.023788f, 0.006271f, 0.041351f, 0.107132f, 0.143341f, 0.064575f, 0.061859f, 0.037018f, 0.080688f, 0.006882f, 0.032898f, 0.214233f, 0.254074f, 0.223541f, 0.117126f, 0.036957f, 0.021820f, -0.045990f, -0.012604f, -0.082687f, -0.054672f, -0.040359f, 0.017715f, 0.026825f, 0.025711f, -0.000473f, -0.026871f, -0.044724f, -0.044067f, -0.049896f, -0.030792f, 0.059830f, 0.068085f, 0.093369f, 0.030243f, 0.063538f, 0.119553f, 0.126083f, 0.124817f, 0.216141f, 0.140045f, 0.116531f, 0.041687f, -0.026306f, -0.080063f, -0.053162f, -0.089340f, -0.050827f, -0.013443f, -0.013199f, 0.001648f, 0.011673f, -0.016571f, -0.022736f, -0.009705f, -0.044327f, -0.032059f, -0.074310f, -0.086334f, -0.046890f, -0.037277f, -0.009277f, -0.061417f, -0.026520f, -0.004410f, 0.102539f, 0.117218f, 0.085602f, 0.019196f, -0.026138f, -0.083969f, -0.085312f, -0.093964f, -0.148102f, -0.106186f, -0.042191f, -0.047638f, -0.049362f, 0.014511f, -0.005188f, 0.012161f, -0.021454f, -0.028702f, -0.044571f, -0.049072f, -0.071121f, -0.124023f, -0.117340f, -0.158981f, -0.124985f, -0.157532f, -0.129990f, -0.116364f, -0.053940f, 0.000488f, -0.018845f, -0.076050f, -0.092575f, -0.147675f, -0.116028f, -0.095932f, -0.122787f, -0.125977f, -0.092316f, -0.000107f, -0.024780f, -0.013641f, -0.016556f, -0.024063f, 0.023972f, 0.005066f, -0.016937f, -0.045502f, -0.065887f, -0.155685f, -0.169357f, -0.208664f, -0.201691f, -0.189789f, -0.187408f, -0.151169f, -0.122421f, -0.042404f, -0.076019f, -0.131622f, -0.127960f, -0.127838f, -0.129944f, -0.090637f, -0.106689f, -0.070465f, -0.073715f, -0.011536f, 0.003418f, -0.009201f, 0.035065f, -0.026199f, -0.001877f, -0.029327f, -0.013824f, -0.030411f, -0.059311f, -0.103622f, -0.121445f, -0.164612f, -0.132355f, -0.110825f, -0.112305f, -0.045105f, -0.070419f, -0.088882f, -0.059540f, -0.090118f, -0.067444f, -0.095215f, -0.051590f, -0.058899f, -0.036942f, -0.071518f, -0.005188f, -0.040390f, 0.022476f, 0.007538f, 0.031860f, 0.033417f, 0.021423f, -0.020920f, -0.038574f, -0.050140f, -0.020691f, -0.092010f, -0.081940f, -0.062408f, -0.035400f, -0.040619f, 0.036453f, 0.029297f, -0.003906f, 0.027191f, -0.032242f, -0.046112f, -0.024643f, -0.047729f, -0.066422f, -0.031921f, 0.003113f, 0.016418f, 0.025360f, -0.021118f, 0.028671f, -0.005844f, 0.015411f, 0.035217f, -0.011490f, -0.019775f, -0.023361f, -0.007324f, -0.020676f, -0.053406f, -0.032425f, -0.018814f, 0.028198f, 0.005829f, 0.052902f, 0.031311f, 0.057449f, 0.038651f, -0.005554f, 0.029755f, 0.028442f, 0.040848f, 0.020538f, -0.004501f, 0.016144f, 0.014999f, -0.020126f, -0.006012f, 0.024155f, 0.026901f, -0.012833f, -0.008163f, -0.007278f, 0.026505f, 0.025970f, -0.009995f, -0.003021f, 0.014633f, 0.078064f, 0.034943f, 0.043671f, 0.072617f, 0.092285f, 0.063980f, 0.004013f, 0.063141f, 0.025482f, 0.049774f, 0.047806f, 0.075760f, 0.060196f, 0.049286f, -0.001099f, -0.008102f, 0.022400f, 0.022293f, -0.014526f, 0.007477f, 0.007690f, -0.014191f, -0.022812f, 0.015060f, 0.029022f, 0.009995f, 0.029160f, 0.041458f, 0.027176f, 0.065170f, 0.087555f, 0.109390f, 0.053024f, 0.072372f, 0.058945f, 0.081024f, 0.069397f, 0.048920f, 0.056076f, 0.033142f, 0.059326f, -0.001022f, 0.004486f, 0.007736f, 0.015518f, -0.018875f, -0.015167f, -0.020950f, -0.009720f, 0.023544f, 0.021194f, -0.014740f, -0.006256f, -0.018036f, 0.028976f, 0.004028f, 0.024734f, 0.005615f, 0.047867f, 0.044540f, 0.039520f, 0.076385f, 0.040726f, 0.034805f, 0.036697f, 0.058411f, 0.007721f, -0.011978f, 0.017899f, 0.041443f, 0.015717f, -0.017365f, -0.026016f, 0.009674f, 0.026306f, 0.033203f, 0.016434f, 0.005020f, 0.007462f, -0.016174f, 0.005341f, -0.018738f, 0.009109f, 0.007233f, 0.033279f, -0.031784f, 0.033676f, 0.020004f, 0.014252f, -0.025482f, 0.039032f, 0.026276f, 0.016220f, -0.028183f, 0.002121f, 0.036270f, 0.002319f, -0.003265f, -0.026672f, -0.025482f, 0.033875f, -0.021942f, -0.013992f, -0.021164f, -0.020340f}, {-0.006210f, 0.002838f, 0.035553f, -0.031021f, 0.000198f, 0.003036f, 0.013092f, -0.023758f, 0.014740f, 0.002869f, 0.011765f, 0.009705f, -0.029755f, -0.006317f, -0.022507f, 0.018875f, -0.000473f, 0.033325f, -0.029800f, 0.011688f, 0.031555f, 0.012100f, 0.023315f, 0.003616f, 0.005753f, 0.007385f, -0.035172f, 0.023209f, 0.028351f, 0.010086f, 0.011688f, 0.020386f, -0.012558f, 0.012985f, -0.031830f, -0.013977f, -0.011871f, -0.034912f, -0.006241f, 0.012466f, -0.017548f, 0.006119f, -0.023148f, -0.005814f, 0.014130f, -0.029892f, 0.014420f, -0.027267f, 0.018509f, 0.020050f, 0.028259f, 0.026672f, -0.014694f, -0.032501f, 0.006378f, 0.011230f, 0.003067f, -0.030762f, 0.000961f, 0.006454f, -0.031296f, 0.011353f, 0.020508f, 0.014542f, 0.020905f, 0.026764f, -0.006088f, -0.039017f, 0.026718f, -0.002350f, -0.022964f, -0.047668f, -0.033081f, 0.009064f, -0.026688f, -0.023010f, -0.004135f, -0.025635f, -0.016205f, 0.022858f, -0.000549f, 0.015594f, -0.014481f, 0.007065f, 0.015656f, -0.029968f, 0.017181f, 0.015656f, -0.017136f, 0.026993f, -0.004105f, 0.028351f, 0.015549f, -0.034958f, -0.036880f, -0.011154f, -0.001572f, -0.023331f, 0.011719f, -0.016098f, 0.021118f, 0.001755f, -0.028076f, -0.066483f, -0.003265f, -0.049896f, 0.007401f, 0.020386f, 0.012344f, -0.008148f, -0.018295f, 0.029312f, -0.010300f, 0.020340f, -0.002197f, -0.013657f, -0.004196f, -0.006683f, -0.019882f, -0.004654f, 0.000610f, -0.014053f, 0.046936f, 0.013977f, 0.024200f, 0.043030f, 0.038727f, 0.023468f, 0.030594f, 0.003830f, -0.021072f, -0.048538f, -0.054718f, -0.079941f, -0.055099f, -0.028473f, -0.040985f, -0.034317f, -0.032043f, -0.012268f, 0.008835f, 0.008560f, -0.028107f, -0.033722f, -0.002243f, 0.026093f, -0.000351f, -0.014465f, -0.008942f, 0.011948f, 0.030106f, 0.010284f, 0.005753f, 0.024429f, 0.002335f, 0.023270f, 0.020691f, -0.045563f, -0.018127f, -0.049576f, -0.040497f, -0.047348f, -0.063583f, -0.053680f, -0.045456f, 0.018219f, 0.027466f, 0.019135f, -0.004669f, -0.009247f, -0.029556f, 0.000885f, -0.015900f, 0.027634f, 0.064621f, 0.004852f, 0.026077f, 0.055862f, 0.055771f, 0.051392f, 0.086212f, 0.103806f, 0.141815f, 0.132858f, 0.163589f, 0.129776f, 0.089676f, 0.024521f, 0.007004f, -0.006851f, -0.049347f, -0.034882f, -0.051300f, 0.024979f, 0.035294f, -0.002167f, -0.003510f, 0.026154f, -0.001053f, -0.012497f, 0.042038f, 0.034149f, 0.028915f, 0.038193f, 0.024170f, 0.051285f, 0.078857f, 0.116837f, 0.189331f, 0.247528f, 0.281403f, 0.335770f, 0.277847f, 0.232956f, 0.166870f, 0.126587f, 0.065216f, 0.002060f, -0.051437f, -0.010223f, -0.016434f, -0.023880f, 0.007446f, 0.005402f, 0.015549f, 0.022827f, 0.036026f, 0.043915f, 0.044693f, 0.061447f, 0.051224f, 0.038559f, 0.093216f, 0.090057f, 0.114319f, 0.162842f, 0.234879f, 0.249710f, 0.310593f, 0.327042f, 0.329468f, 0.275726f, 0.175858f, 0.147247f, 0.102600f, 0.053772f, -0.008881f, -0.017883f, -0.043137f, 0.008835f, 0.027802f, 0.003754f, -0.024597f, 0.003052f, 0.034180f, -0.002457f, 0.019089f, 0.029938f, 0.059250f, -0.006729f, 0.010406f, 0.051285f, 0.087433f, 0.074066f, 0.109940f, 0.198914f, 0.243546f, 0.288452f, 0.286209f, 0.215240f, 0.214310f, 0.143692f, 0.139389f, 0.018784f, 0.042175f, 0.008987f, 0.018051f, 0.002274f, 0.031479f, -0.033600f, -0.026337f, 0.033844f, -0.017349f, 0.054977f, -0.000397f, 0.057083f, 0.025238f, -0.031052f, 0.007629f, 0.032135f, -0.023178f, 0.034149f, 0.020935f, 0.100464f, 0.174911f, 0.165924f, 0.178680f, 0.141083f, 0.174957f, 0.118454f, 0.106232f, 0.062836f, 0.001511f, 0.057373f, 0.038284f, 0.032181f, 0.023712f, 0.020401f, -0.035400f, 0.035553f, -0.003036f, 0.028534f, 0.040878f, 0.023300f, -0.021973f, 0.010193f, -0.035187f, -0.010590f, 0.010269f, -0.042816f, -0.013565f, 0.005554f, 0.004211f, -0.019073f, 0.002777f, 0.020508f, 0.060303f, 0.095444f, 0.077911f, 0.046509f, 0.058838f, 0.003754f, 0.032440f, -0.034149f, 0.011169f, 0.001999f, -0.026611f, 0.012085f, 0.024139f, -0.014145f, -0.008301f, 0.009918f, 0.012970f, -0.031189f, 0.000229f, 0.006653f, 0.018936f, -0.031281f, -0.080109f, -0.135437f, -0.146057f, -0.132980f, -0.144302f, -0.022415f, 0.049164f, 0.026749f, -0.012115f, 0.014877f, 0.064301f, 0.076721f, 0.024231f, -0.008438f, -0.004532f, 0.009445f, -0.027939f, 0.029922f, 0.026398f, 0.016510f, -0.004425f, -0.023895f, 0.030731f, -0.023102f, 0.009247f, -0.007690f, -0.028549f, -0.114288f, -0.209412f, -0.203049f, -0.210007f, -0.189102f, -0.107681f, -0.022003f, -0.008957f, -0.011520f, -0.008102f, 0.037720f, 0.038986f, 0.095291f, 0.009308f, 0.007965f, -0.029953f, -0.010681f, -0.001587f, 0.006363f, 0.019791f, 0.019363f, -0.024506f, 0.002533f, -0.027649f, -0.025681f, 0.019669f, 0.019150f, -0.012848f, -0.118881f, -0.194290f, -0.230743f, -0.257294f, -0.148743f, -0.126801f, -0.037842f, 0.021149f, 0.046295f, 0.007584f, 0.028625f, 0.045578f, 0.071106f, 0.011017f, 0.012695f, -0.019882f, -0.025497f, 0.021729f, -0.004395f, 0.019562f, -0.031021f, -0.026718f, 0.032333f, -0.032516f, -0.022842f, 0.013168f, 0.020782f, -0.031601f, -0.109055f, -0.217606f, -0.226273f, -0.240784f, -0.195480f, -0.124222f, 0.016968f, 0.045837f, 0.076309f, 0.110062f, 0.075424f, 0.053085f, 0.063309f, 0.047058f, 0.031418f, 0.003632f, -0.011017f, 0.003189f, -0.015396f, -0.019379f, -0.026962f, 0.015656f, 0.046036f, -0.019135f, -0.029526f, -0.016602f, -0.040344f, -0.025620f, -0.136124f, -0.188446f, -0.270309f, -0.231537f, -0.171707f, -0.097519f, 0.000793f, 0.094025f, 0.102585f, 0.085632f, 0.072968f, 0.096024f, 0.050156f, 0.036545f, -0.003677f, -0.012680f, -0.025528f, -0.029358f, 0.035797f, 0.032318f, 0.021027f, 0.049026f, 0.045166f, 0.063721f, -0.015472f, -0.083755f, -0.068115f, -0.146133f, -0.167938f, -0.267868f, -0.275223f, -0.234009f, -0.149658f, -0.046997f, 0.052948f, 0.063293f, 0.059799f, 0.076675f, 0.083435f, 0.108780f, 0.042099f, 0.040329f, 0.012695f, 0.007339f, 0.023117f, 0.000046f, 0.035278f, 0.002029f, -0.011307f, 0.028366f, 0.100342f, 0.046188f, -0.006454f, -0.050583f, -0.141769f, -0.121948f, -0.189285f, -0.215652f, -0.165070f, -0.134247f, -0.044998f, 0.052338f, 0.070572f, 0.101715f, 0.044540f, 0.099396f, 0.057632f, 0.043808f, 0.012268f, -0.002670f, 0.002808f, 0.008957f, 0.027512f, -0.015335f, -0.015228f, -0.004791f, 0.041321f, 0.024063f, 0.101929f, 0.075638f, 0.036850f, 0.008636f, -0.058136f, -0.074982f, -0.062164f, -0.067245f, -0.008728f, -0.014862f, 0.029190f, 0.000839f, 0.058365f, 0.040054f, 0.069702f, 0.055756f, 0.037491f, 0.017014f, -0.015396f, 0.018860f, -0.009979f, 0.007141f, -0.019714f, -0.015717f, -0.025024f, -0.025681f, -0.004654f, 0.047180f, 0.054703f, 0.053604f, 0.025284f, 0.037521f, 0.057419f, 0.028000f, 0.064560f, 0.052750f, 0.054626f, 0.070526f, 0.016327f, 0.008301f, 0.033600f, 0.026688f, -0.010803f, 0.027634f, 0.040482f, 0.017151f, -0.022736f, -0.038025f, 0.033966f, 0.033539f, 0.020508f, -0.026291f, -0.030075f, -0.029800f, 0.039932f, 0.037689f, 0.066086f, 0.051529f, 0.044952f, 0.062744f, 0.061432f, 0.079605f, 0.106995f, 0.088303f, 0.039246f, 0.036285f, 0.042084f, 0.043716f, -0.020370f, -0.013031f, 0.005875f, -0.029541f, -0.024521f, -0.002243f, -0.036438f, -0.013519f, 0.014694f, 0.024765f, -0.023956f, 0.029327f, -0.032196f, 0.000580f, 0.000137f, 0.052048f, 0.019409f, 0.016357f, 0.061432f, 0.046799f, 0.096390f, 0.131775f, 0.110535f, 0.123657f, 0.071198f, 0.071609f, 0.097610f, 0.026474f, -0.000778f, -0.048904f, -0.020401f, -0.070740f, -0.039749f, -0.033340f, -0.005753f, 0.004913f, -0.009460f, 0.024597f, -0.019531f, 0.008759f, -0.013184f, 0.001511f, -0.027725f, 0.047180f, 0.020752f, 0.085220f, 0.051834f, 0.081604f, 0.078979f, 0.115891f, 0.127899f, 0.115692f, 0.093323f, 0.057220f, 0.021820f, -0.004196f, -0.027786f, -0.030716f, -0.057281f, -0.066238f, -0.046661f, 0.002625f, -0.034515f, 0.032883f, 0.001175f, 0.014465f, -0.026413f, 0.006348f, 0.023361f, 0.004288f, 0.000504f, 0.032913f, 0.064453f, 0.059113f, 0.056808f, 0.110565f, 0.077484f, 0.104202f, 0.059067f, 0.115402f, 0.084045f, 0.060989f, 0.047333f, 0.005600f, -0.001724f, 0.013748f, -0.042252f, -0.047501f, 0.000900f, 0.019974f, 0.015671f, 0.000046f, 0.028015f, -0.002121f, -0.000153f, 0.027832f, -0.030991f, 0.018402f, 0.009018f, -0.006332f, 0.047272f, 0.038422f, 0.077118f, 0.104691f, 0.091858f, 0.136047f, 0.123199f, 0.155136f, 0.112854f, 0.132324f, 0.101257f, 0.077438f, 0.046280f, 0.037125f, 0.032211f, -0.033524f, -0.003510f, -0.004013f, -0.022720f, -0.017014f, -0.006088f, -0.021011f, 0.012894f, 0.034363f, -0.009827f, 0.016968f, 0.000870f, -0.020157f, 0.011307f, 0.039734f, 0.044174f, 0.051025f, 0.009048f, 0.013336f, 0.025009f, 0.044724f, 0.055435f, 0.091583f, 0.095963f, 0.052155f, 0.024826f, 0.011856f, 0.000702f, 0.028137f, 0.033890f, -0.013596f, 0.035294f, 0.032715f, 0.033066f, -0.016052f, 0.025345f, -0.019836f, -0.015091f, -0.017761f, 0.022339f, 0.014465f, -0.000229f, 0.028214f, 0.009064f, -0.029465f, 0.028839f, 0.022629f, -0.011841f, 0.028229f, 0.010162f, -0.012100f, -0.007858f, 0.031174f, 0.023499f, 0.015366f, -0.009415f, 0.029541f, 0.010437f, 0.008774f, -0.034393f, 0.016632f, 0.021942f, 0.033737f, -0.009155f}, {-0.033844f, -0.034241f, -0.025070f, -0.025986f, 0.004318f, 0.010696f, -0.007431f, 0.033386f, 0.003769f, 0.022568f, 0.014618f, 0.031204f, 0.002945f, -0.032043f, 0.002396f, -0.012634f, -0.004868f, 0.009827f, 0.014374f, 0.033051f, -0.007629f, -0.006958f, 0.006332f, -0.029358f, 0.030518f, -0.018478f, -0.034698f, 0.012604f, -0.031662f, -0.033875f, 0.005630f, 0.034180f, -0.011047f, -0.028183f, 0.016861f, 0.016159f, 0.004990f, -0.026672f, -0.024673f, -0.017319f, 0.031052f, -0.021667f, 0.017792f, -0.011917f, -0.026749f, -0.005798f, 0.013855f, -0.026154f, 0.024612f, 0.005447f, 0.008774f, -0.008163f, 0.014557f, 0.010239f, -0.004776f, 0.001877f, -0.016525f, 0.006638f, -0.024841f, -0.023972f, -0.013840f, -0.006180f, -0.028793f, 0.014374f, 0.021973f, 0.034241f, 0.019470f, 0.041214f, 0.044601f, 0.019058f, 0.018799f, 0.021454f, 0.024384f, -0.010406f, 0.047989f, 0.008774f, -0.009750f, -0.014999f, -0.012299f, -0.019424f, -0.000473f, 0.013626f, 0.030716f, -0.011307f, 0.022507f, 0.016251f, -0.029449f, 0.000687f, 0.018646f, -0.015503f, 0.035263f, -0.015854f, 0.028381f, -0.004700f, 0.070908f, 0.070007f, 0.047134f, 0.067490f, 0.021637f, 0.047073f, 0.066772f, 0.024231f, 0.052994f, 0.036819f, 0.002762f, 0.021820f, 0.009659f, -0.015045f, 0.005417f, 0.017456f, -0.027374f, -0.031174f, -0.034851f, -0.006699f, -0.016022f, 0.018738f, 0.013504f, 0.013046f, 0.027618f, 0.003342f, 0.041809f, 0.043671f, 0.069336f, 0.008560f, 0.075455f, 0.047668f, 0.016373f, 0.056244f, 0.085541f, 0.036575f, 0.008316f, -0.003891f, -0.004715f, -0.030121f, -0.060120f, -0.029114f, -0.043335f, -0.027069f, -0.007507f, -0.034378f, -0.013367f, -0.017548f, -0.027954f, 0.028900f, -0.027420f, 0.024689f, -0.022354f, 0.045761f, 0.058655f, 0.079193f, 0.086731f, 0.075623f, 0.061798f, 0.098953f, 0.118744f, 0.192459f, 0.181534f, 0.184830f, 0.153427f, 0.039062f, 0.023605f, -0.015320f, -0.032150f, -0.009857f, -0.055588f, 0.002060f, -0.036072f, 0.012985f, -0.025177f, -0.019592f, 0.030594f, -0.014542f, 0.027863f, -0.040192f, 0.028046f, 0.008728f, 0.030441f, 0.069626f, 0.074020f, 0.038925f, 0.072235f, 0.060303f, 0.063568f, 0.065216f, 0.089752f, 0.104691f, 0.048553f, -0.000046f, -0.005676f, -0.045914f, -0.013840f, -0.055130f, -0.085831f, -0.004120f, 0.011993f, 0.018738f, 0.030884f, -0.003052f, -0.002335f, -0.034668f, -0.033264f, 0.010056f, 0.013870f, 0.045120f, 0.060364f, 0.087570f, 0.043442f, 0.078903f, 0.019501f, 0.032990f, 0.012329f, -0.012177f, -0.016754f, -0.024246f, -0.012115f, -0.039932f, -0.003479f, -0.000031f, -0.008499f, -0.038147f, -0.062302f, -0.063309f, -0.044708f, -0.011902f, -0.015564f, 0.033401f, -0.011978f, -0.015411f, 0.032700f, -0.003586f, 0.033249f, 0.029663f, 0.044937f, 0.082047f, 0.126526f, 0.075821f, 0.043472f, 0.040619f, 0.028580f, -0.033539f, 0.012527f, 0.035156f, 0.005417f, -0.016724f, 0.026031f, -0.009003f, -0.016846f, -0.078918f, -0.077896f, -0.046875f, -0.036453f, 0.033218f, -0.018066f, 0.034683f, 0.008438f, -0.012650f, -0.024567f, 0.027542f, 0.000275f, 0.046082f, 0.075653f, 0.082535f, 0.115402f, 0.104202f, 0.041458f, 0.023956f, -0.038269f, -0.066727f, -0.026718f, -0.006805f, 0.012268f, 0.027710f, 0.048996f, 0.005615f, 0.028732f, -0.042496f, -0.041458f, -0.050171f, -0.032501f, -0.027313f, -0.034637f, -0.007446f, -0.009201f, 0.023788f, -0.000763f, -0.029236f, 0.004272f, -0.028305f, 0.011978f, 0.065613f, -0.005859f, 0.016235f, -0.000519f, -0.061478f, -0.140961f, -0.163879f, -0.065445f, 0.006912f, 0.013992f, 0.064423f, 0.054001f, 0.073364f, 0.042221f, -0.011215f, -0.009308f, -0.036880f, -0.005432f, 0.020416f, 0.013321f, -0.034943f, 0.015427f, 0.007050f, -0.012817f, -0.036346f, -0.050842f, -0.035736f, -0.029617f, -0.017914f, -0.073410f, -0.042862f, -0.092850f, -0.203568f, -0.250397f, -0.269547f, -0.154999f, -0.022598f, 0.032318f, 0.074188f, 0.070175f, 0.064514f, 0.067978f, 0.068283f, -0.010056f, -0.032486f, 0.011292f, -0.014511f, -0.006989f, 0.027588f, -0.026352f, 0.021088f, -0.026306f, -0.092911f, -0.101273f, -0.076096f, -0.074997f, -0.049438f, -0.062546f, -0.055145f, -0.128784f, -0.185165f, -0.307205f, -0.272324f, -0.160080f, -0.058167f, -0.032852f, 0.080917f, 0.046356f, 0.109406f, 0.096878f, 0.057831f, 0.055130f, 0.014465f, 0.014694f, -0.032089f, -0.002625f, 0.023666f, -0.002075f, -0.011002f, -0.020737f, -0.076859f, -0.040298f, -0.050339f, -0.058090f, -0.036880f, 0.005966f, 0.054733f, -0.020248f, -0.131958f, -0.240189f, -0.227692f, -0.113770f, -0.038940f, 0.002945f, -0.011154f, 0.007690f, 0.074097f, 0.079575f, 0.069077f, 0.090790f, 0.019791f, 0.025970f, 0.036667f, 0.026154f, -0.001999f, -0.026291f, -0.042526f, -0.009384f, -0.062531f, 0.018875f, -0.001480f, 0.003174f, 0.053589f, 0.135193f, 0.115829f, 0.001602f, -0.078644f, -0.153702f, -0.117416f, -0.071671f, -0.029022f, -0.012543f, -0.020203f, -0.009430f, 0.042877f, 0.097580f, 0.124100f, 0.078156f, 0.033768f, -0.018463f, -0.013718f, 0.002090f, -0.009277f, 0.007660f, -0.039413f, -0.027557f, 0.019806f, 0.043106f, 0.082077f, 0.113434f, 0.147705f, 0.157608f, 0.149536f, 0.076691f, -0.025848f, -0.042191f, -0.019363f, 0.032608f, 0.016571f, 0.031158f, 0.028442f, 0.010025f, 0.052475f, 0.030792f, 0.074661f, 0.065170f, 0.013474f, 0.022629f, 0.020859f, -0.004684f, -0.017975f, 0.029129f, 0.009659f, -0.006088f, 0.071609f, 0.133377f, 0.145844f, 0.136215f, 0.164444f, 0.179733f, 0.195953f, 0.089035f, 0.001831f, 0.003021f, 0.057999f, 0.077026f, 0.074478f, 0.043167f, 0.051331f, -0.027039f, 0.047043f, 0.040695f, 0.077103f, 0.080627f, 0.036072f, 0.014557f, -0.022247f, -0.003372f, -0.032822f, 0.019882f, -0.020950f, 0.008438f, 0.085312f, 0.135345f, 0.123047f, 0.194122f, 0.216614f, 0.226318f, 0.177750f, 0.111832f, 0.083603f, 0.036301f, 0.068054f, 0.076157f, 0.098907f, 0.057877f, 0.044174f, 0.020950f, 0.077179f, 0.098358f, 0.120941f, 0.079803f, 0.064362f, -0.023590f, 0.010788f, -0.000305f, 0.012070f, 0.030899f, -0.008804f, 0.035202f, 0.088577f, 0.109222f, 0.166260f, 0.188919f, 0.191284f, 0.258957f, 0.205170f, 0.190460f, 0.132675f, 0.052872f, 0.040680f, 0.102249f, 0.084457f, 0.026886f, 0.037354f, 0.048203f, 0.084671f, 0.107788f, 0.145142f, 0.075409f, 0.054337f, 0.031570f, 0.028183f, 0.006577f, 0.001480f, -0.016113f, -0.015625f, -0.003723f, 0.043716f, 0.043564f, 0.093826f, 0.153442f, 0.160751f, 0.227066f, 0.203247f, 0.177902f, 0.125687f, 0.104462f, 0.044922f, 0.033752f, 0.046173f, 0.031189f, 0.045059f, 0.030136f, 0.058273f, 0.143051f, 0.123947f, 0.107147f, 0.045441f, 0.029663f, -0.031281f, -0.006332f, 0.016281f, -0.027634f, -0.026840f, -0.006561f, 0.045883f, 0.038620f, 0.053757f, 0.099579f, 0.094955f, 0.144211f, 0.161026f, 0.133255f, 0.064209f, 0.110825f, 0.059647f, 0.059143f, 0.054550f, 0.018707f, 0.076019f, 0.055878f, 0.097641f, 0.092194f, 0.088318f, 0.060883f, -0.010773f, 0.013321f, -0.003998f, 0.029602f, -0.029404f, -0.018463f, 0.026398f, -0.014297f, 0.005432f, 0.061554f, 0.047806f, 0.043289f, 0.101089f, 0.087311f, 0.090973f, 0.087662f, 0.087509f, 0.055939f, 0.035828f, 0.030090f, 0.060242f, 0.061554f, 0.069351f, 0.054840f, 0.097198f, 0.112930f, 0.091003f, 0.039154f, 0.041977f, 0.024734f, -0.027802f, 0.028061f, -0.033203f, -0.003571f, 0.012817f, 0.016586f, -0.007874f, -0.011780f, -0.006302f, 0.024384f, 0.024658f, 0.071564f, 0.107605f, 0.119980f, 0.088440f, 0.038864f, 0.055801f, 0.010086f, -0.010361f, 0.043579f, 0.051193f, 0.041458f, 0.098099f, 0.028839f, 0.019073f, 0.017487f, -0.022247f, 0.035126f, -0.020126f, 0.023438f, -0.019424f, 0.014969f, -0.027664f, -0.041077f, -0.025223f, -0.018127f, -0.058121f, -0.029663f, -0.004196f, 0.031570f, 0.074097f, 0.095581f, 0.085648f, 0.054245f, 0.029755f, -0.018677f, -0.023987f, 0.021088f, -0.004593f, -0.018799f, 0.017136f, 0.036026f, -0.014114f, -0.032211f, -0.005539f, -0.007935f, -0.033340f, -0.018539f, -0.028900f, 0.029465f, 0.000793f, -0.041946f, -0.007202f, -0.041809f, -0.027435f, -0.089706f, -0.031235f, -0.014145f, -0.029633f, 0.009140f, 0.042236f, 0.059631f, 0.048965f, -0.026184f, -0.020126f, -0.080688f, -0.045364f, -0.056656f, -0.057404f, -0.020142f, 0.002930f, 0.000244f, 0.028519f, -0.007324f, 0.015396f, 0.007629f, 0.026413f, -0.034103f, 0.010925f, -0.010162f, -0.036911f, -0.013687f, -0.034668f, -0.075165f, -0.071655f, -0.045044f, -0.056229f, -0.066605f, -0.048294f, -0.069855f, -0.070602f, -0.078842f, -0.093033f, -0.103668f, -0.054260f, -0.018570f, -0.046539f, -0.042770f, -0.042084f, 0.012421f, -0.016403f, 0.012146f, 0.029938f, 0.008759f, 0.001083f, 0.031219f, -0.026016f, -0.032822f, -0.029678f, -0.002014f, 0.015961f, -0.008392f, -0.039291f, -0.021240f, 0.000427f, -0.026474f, 0.018784f, -0.007675f, 0.011642f, -0.047821f, -0.029175f, -0.032455f, 0.005447f, -0.032166f, -0.020416f, -0.025742f, -0.012604f, -0.007614f, -0.021652f, -0.010178f, -0.001678f, 0.026855f, -0.006958f, 0.022781f, -0.006531f, 0.022858f, -0.031250f, -0.015823f, 0.000549f, 0.025696f, -0.021820f, 0.011353f, 0.000748f, 0.024200f, -0.013123f, 0.007233f, -0.024826f, -0.030167f, -0.006973f, -0.016708f, -0.021194f, -0.014862f, -0.020462f, -0.024506f, -0.001450f, -0.030365f, 0.011108f, 0.011887f, -0.033722f}, {-0.030289f, -0.026337f, -0.021286f, -0.027893f, 0.008942f, 0.031494f, -0.011124f, 0.014008f, -0.007004f, -0.016968f, -0.013885f, 0.019867f, -0.032623f, 0.021088f, 0.005219f, -0.005524f, -0.012314f, -0.020050f, 0.011124f, -0.032410f, -0.025787f, -0.035034f, 0.005066f, -0.020584f, -0.031189f, -0.001251f, 0.021225f, 0.019363f, -0.008255f, -0.013489f, -0.033020f, -0.025101f, 0.013779f, 0.000565f, -0.016342f, 0.015381f, 0.020081f, 0.037460f, -0.001587f, 0.019730f, -0.003433f, -0.014297f, -0.001053f, -0.020172f, -0.003098f, 0.022842f, -0.003922f, -0.028183f, 0.011917f, 0.004852f, -0.010452f, 0.029556f, 0.027954f, 0.004822f, 0.022583f, -0.028976f, -0.033066f, -0.002060f, -0.002258f, -0.034119f, 0.010864f, 0.018936f, -0.027695f, 0.031158f, -0.020309f, 0.039062f, 0.030594f, 0.058167f, 0.030945f, 0.064178f, 0.038757f, 0.006302f, 0.054123f, 0.015533f, 0.030151f, 0.048157f, 0.022583f, -0.013733f, 0.011032f, 0.037125f, 0.017181f, -0.030975f, 0.018036f, 0.032593f, -0.006454f, 0.024918f, -0.022812f, -0.023438f, -0.029999f, 0.028351f, -0.029465f, 0.041107f, -0.012222f, 0.040924f, -0.006424f, 0.050385f, 0.032852f, 0.023926f, 0.048523f, 0.055161f, 0.029404f, 0.014053f, 0.092758f, 0.047348f, 0.042084f, 0.034576f, 0.049408f, 0.045914f, 0.009216f, 0.017410f, -0.016846f, -0.031784f, -0.002518f, -0.010468f, -0.010483f, -0.021500f, 0.003632f, 0.016617f, -0.013046f, -0.001419f, -0.021484f, -0.048035f, -0.003922f, -0.000046f, -0.055862f, -0.011200f, -0.014114f, 0.008286f, 0.014832f, 0.019775f, 0.082230f, 0.070190f, 0.087189f, 0.042679f, 0.025253f, 0.033066f, 0.035599f, -0.019806f, -0.022278f, -0.017303f, -0.010590f, -0.019043f, -0.022858f, -0.001312f, -0.019913f, 0.006332f, -0.021683f, -0.055283f, -0.017685f, -0.063309f, -0.076752f, -0.079987f, -0.049866f, -0.025284f, 0.020142f, -0.012131f, 0.018280f, 0.054794f, 0.052551f, 0.076157f, 0.101273f, 0.071442f, 0.008286f, 0.037827f, 0.000275f, 0.026611f, -0.034912f, 0.020691f, -0.022461f, -0.001587f, 0.013947f, -0.034607f, -0.010147f, -0.061951f, -0.060837f, -0.085144f, -0.107590f, -0.099335f, -0.086273f, -0.071823f, -0.059937f, 0.007523f, -0.001587f, 0.075943f, 0.021835f, 0.050018f, 0.048935f, 0.008133f, 0.029190f, -0.010452f, 0.024979f, -0.015991f, -0.029694f, -0.048676f, 0.006088f, 0.025467f, 0.001419f, 0.003555f, -0.023819f, -0.038467f, -0.017227f, -0.041107f, -0.123734f, -0.112656f, -0.132782f, -0.150894f, -0.129715f, -0.058960f, -0.008896f, 0.022797f, 0.067368f, 0.108856f, 0.094757f, 0.070969f, 0.008713f, -0.001953f, -0.085907f, -0.040894f, -0.038025f, -0.080856f, -0.041946f, 0.009918f, 0.000916f, 0.006256f, -0.000793f, -0.010239f, -0.038834f, -0.013641f, -0.048279f, -0.098709f, -0.097214f, -0.115524f, -0.100677f, -0.077423f, -0.062149f, -0.040161f, 0.035767f, 0.032837f, 0.072433f, 0.003250f, -0.006409f, -0.000793f, -0.074814f, -0.086868f, -0.097260f, -0.108673f, -0.095444f, -0.093796f, -0.067062f, -0.035538f, -0.032761f, -0.014389f, -0.001480f, -0.025146f, -0.000046f, 0.004013f, -0.060043f, -0.102325f, -0.084915f, -0.059509f, -0.045349f, -0.006760f, -0.004868f, 0.065063f, 0.012817f, 0.050583f, -0.001404f, -0.116791f, -0.107101f, -0.097290f, -0.100723f, -0.087875f, -0.086243f, -0.125885f, -0.127411f, -0.041656f, -0.067902f, -0.046219f, 0.011658f, -0.025482f, 0.019516f, -0.032883f, 0.006821f, -0.038696f, -0.091522f, -0.057709f, -0.033585f, 0.004532f, 0.035965f, 0.031998f, 0.068390f, 0.085922f, 0.012283f, 0.009750f, -0.055771f, -0.083801f, -0.169876f, -0.128372f, -0.111359f, -0.093231f, -0.053452f, -0.073135f, -0.067520f, 0.014771f, -0.038467f, -0.025085f, -0.009781f, -0.034836f, 0.000763f, 0.019302f, -0.029602f, -0.051468f, -0.032486f, 0.006653f, 0.023727f, 0.093552f, 0.129395f, 0.066727f, 0.061096f, 0.058029f, 0.021271f, 0.022659f, 0.006653f, -0.074753f, -0.149429f, -0.079956f, -0.090134f, -0.053955f, -0.000549f, 0.000824f, 0.023178f, 0.023071f, 0.018616f, -0.027039f, -0.009186f, -0.000961f, 0.028046f, -0.018799f, 0.022018f, -0.024307f, -0.061249f, 0.003235f, 0.069687f, 0.124039f, 0.118576f, 0.152679f, 0.120728f, 0.077042f, 0.064529f, 0.051529f, 0.086884f, 0.006424f, -0.064423f, -0.037476f, -0.034897f, -0.038864f, 0.014923f, 0.117599f, 0.110886f, 0.144150f, 0.035782f, -0.040009f, 0.012344f, -0.016220f, 0.003540f, -0.035019f, -0.006638f, -0.002289f, 0.015289f, 0.035431f, 0.159027f, 0.202225f, 0.192200f, 0.176987f, 0.164551f, 0.108887f, 0.063751f, 0.122925f, 0.136978f, 0.149536f, 0.027985f, 0.000168f, -0.020157f, 0.027817f, 0.020584f, 0.098694f, 0.132629f, 0.106567f, 0.058289f, -0.012894f, 0.026031f, -0.025909f, -0.021530f, 0.003250f, -0.008240f, -0.038513f, -0.013977f, 0.090942f, 0.128601f, 0.178879f, 0.162628f, 0.208755f, 0.191711f, 0.118088f, 0.109436f, 0.108826f, 0.181946f, 0.129074f, 0.055420f, -0.020416f, -0.037506f, 0.004623f, 0.008133f, 0.082397f, 0.111343f, 0.122025f, 0.067276f, 0.019669f, -0.032608f, -0.001801f, 0.026123f, 0.030762f, 0.032135f, 0.007019f, -0.025620f, 0.034714f, 0.116730f, 0.188782f, 0.213913f, 0.222137f, 0.201614f, 0.144211f, 0.044998f, 0.085449f, 0.140015f, 0.076279f, 0.036880f, -0.024246f, -0.061478f, -0.039124f, -0.022125f, 0.018372f, 0.045319f, 0.074905f, 0.007568f, -0.037598f, 0.025375f, 0.032516f, 0.004425f, 0.025406f, -0.018448f, 0.016510f, -0.003784f, 0.022446f, 0.085739f, 0.149399f, 0.184357f, 0.156540f, 0.192398f, 0.116913f, 0.049240f, 0.095139f, 0.092697f, 0.059036f, -0.056671f, -0.080505f, -0.020538f, -0.046921f, -0.025009f, 0.014771f, 0.059067f, 0.034195f, 0.020386f, -0.029068f, -0.024094f, -0.014267f, 0.024155f, -0.029282f, 0.020462f, -0.039001f, -0.047241f, -0.008316f, 0.016602f, 0.080170f, 0.124405f, 0.125763f, 0.192490f, 0.158035f, 0.040771f, 0.060577f, 0.106903f, 0.001801f, -0.016068f, -0.006607f, -0.011993f, 0.009354f, 0.029663f, 0.009781f, 0.026825f, -0.032684f, -0.039505f, -0.017303f, -0.025040f, -0.025574f, -0.019211f, -0.027817f, -0.031219f, -0.034714f, -0.089813f, -0.054169f, -0.003281f, -0.001999f, 0.094788f, 0.158722f, 0.183929f, 0.115021f, 0.093445f, 0.088257f, 0.046555f, 0.015656f, 0.023926f, 0.044006f, 0.069168f, 0.071075f, 0.023117f, -0.033554f, -0.047897f, -0.060150f, -0.051437f, -0.013687f, -0.030930f, 0.016556f, 0.034653f, -0.008102f, -0.027466f, -0.025986f, -0.079773f, -0.058578f, -0.074188f, -0.007141f, -0.012009f, 0.102036f, 0.114532f, 0.124130f, 0.149170f, 0.103958f, 0.108521f, 0.092590f, 0.107620f, 0.066101f, 0.101715f, 0.021210f, 0.019363f, -0.033691f, 0.000259f, -0.041245f, -0.015625f, -0.037704f, -0.014771f, 0.026459f, 0.035263f, -0.024857f, -0.028076f, -0.052429f, -0.050049f, -0.067673f, -0.117569f, -0.040054f, -0.039368f, -0.004227f, 0.101837f, 0.123215f, 0.147141f, 0.132751f, 0.161301f, 0.159622f, 0.164703f, 0.079514f, 0.068909f, 0.012711f, -0.031265f, -0.006866f, -0.055496f, -0.042358f, -0.046295f, 0.013977f, -0.028702f, -0.001144f, -0.031281f, -0.018051f, 0.000061f, -0.037537f, -0.042358f, -0.027603f, -0.086533f, -0.022705f, -0.048019f, 0.026352f, 0.083984f, 0.087448f, 0.145203f, 0.143753f, 0.193863f, 0.153915f, 0.117172f, 0.050201f, 0.024368f, 0.020554f, -0.006516f, -0.030457f, -0.015381f, -0.020142f, -0.038040f, -0.019440f, 0.017075f, 0.004440f, -0.007095f, -0.014053f, 0.007111f, -0.024658f, 0.003113f, -0.000839f, -0.029282f, -0.074539f, -0.008713f, 0.000870f, -0.025070f, 0.007812f, 0.047165f, 0.051727f, 0.065750f, 0.010681f, 0.053619f, 0.000946f, -0.012589f, 0.024078f, -0.004852f, 0.024170f, -0.032639f, -0.001877f, 0.009888f, 0.017395f, -0.008606f, 0.034729f, -0.027374f, -0.001328f, 0.002060f, 0.006638f, -0.048721f, -0.019150f, -0.006775f, -0.023026f, -0.018402f, -0.021713f, -0.048828f, -0.011414f, -0.024796f, -0.025925f, -0.042770f, 0.025253f, 0.036285f, 0.014862f, 0.024811f, 0.044525f, 0.039413f, 0.015640f, 0.010132f, -0.025223f, -0.009094f, 0.010345f, 0.025894f, -0.032364f, 0.028549f, 0.029556f, 0.017242f, 0.025589f, 0.021317f, -0.023621f, -0.046555f, -0.058685f, -0.052094f, -0.035950f, -0.080017f, -0.086670f, -0.036774f, -0.051804f, -0.096634f, -0.044220f, -0.056290f, 0.016891f, -0.001129f, 0.021347f, 0.004837f, -0.020935f, 0.026993f, -0.027481f, 0.022064f, 0.009781f, -0.014862f, -0.023743f, 0.023453f, 0.006332f, -0.015350f, -0.004211f, 0.021729f, 0.007370f, -0.008652f, -0.022690f, -0.036972f, -0.075562f, -0.077042f, -0.037262f, -0.074692f, -0.059174f, -0.074692f, -0.038651f, -0.040146f, -0.024506f, -0.004730f, -0.003204f, 0.012070f, 0.012177f, -0.028534f, 0.005508f, -0.027161f, -0.027115f, -0.014175f, -0.018250f, -0.026550f, -0.033936f, -0.019745f, 0.020050f, -0.005936f, 0.011337f, -0.015396f, 0.006119f, -0.047546f, 0.004578f, 0.009949f, -0.035995f, -0.020126f, -0.003967f, -0.007797f, -0.011871f, -0.028168f, -0.012405f, 0.011963f, 0.010788f, -0.010986f, -0.004761f, -0.018646f, 0.024200f, 0.034317f, 0.021210f, -0.028259f, -0.014435f, -0.012207f, -0.019211f, 0.009628f, -0.019180f, -0.003723f, -0.023529f, -0.009247f, 0.015503f, 0.033630f, 0.000931f, 0.017883f, -0.030609f, -0.026031f, 0.007462f, -0.040985f, 0.016113f, -0.030640f, -0.030533f, -0.005920f, 0.016190f, 0.005310f, 0.013824f, 0.016342f, -0.024261f, -0.017609f, 0.013474f, 0.025085f, 0.020798f}, {-0.023682f, -0.032211f, -0.035461f, -0.011276f, 0.032028f, -0.012909f, 0.023544f, 0.021545f, -0.035355f, 0.020569f, 0.018661f, -0.006638f, 0.002045f, -0.030975f, -0.002396f, -0.013641f, 0.009140f, 0.008957f, 0.019028f, -0.034164f, -0.034027f, 0.008881f, -0.006714f, 0.001801f, 0.018982f, -0.027649f, -0.024979f, 0.027679f, -0.014740f, -0.021057f, 0.030563f, 0.013016f, 0.026443f, 0.010681f, 0.016342f, 0.003418f, -0.031967f, -0.021835f, -0.021255f, -0.025238f, 0.009949f, -0.000183f, -0.011963f, 0.014832f, 0.018738f, 0.025833f, -0.002777f, -0.027847f, -0.025314f, 0.022980f, -0.019257f, 0.024460f, 0.033478f, -0.020569f, -0.024414f, 0.024612f, 0.007156f, 0.009949f, -0.024063f, -0.027237f, 0.027557f, 0.023636f, 0.033035f, -0.021042f, -0.033890f, -0.021118f, -0.000168f, -0.011185f, 0.005280f, 0.035355f, 0.031754f, -0.019455f, 0.018143f, -0.035126f, -0.027222f, -0.033112f, -0.007050f, 0.030350f, 0.029037f, 0.027100f, 0.001678f, 0.004517f, 0.001038f, 0.027725f, 0.006088f, -0.003830f, 0.032608f, 0.012756f, 0.016510f, 0.029984f, -0.014679f, 0.023087f, -0.013687f, -0.007492f, 0.027130f, 0.014130f, 0.033783f, 0.031555f, -0.022873f, -0.016403f, -0.001389f, -0.032669f, -0.027420f, -0.007965f, 0.007431f, 0.031448f, -0.028030f, -0.027740f, 0.020035f, -0.024582f, -0.000702f, 0.026031f, 0.019363f, -0.023987f, -0.016052f, -0.013550f, -0.018600f, -0.022369f, 0.020859f, 0.025558f, -0.025299f, -0.031464f, 0.031815f, 0.016800f, -0.011551f, -0.015594f, 0.020050f, 0.033188f, -0.008469f, -0.035614f, -0.031235f, -0.005936f, 0.001022f, 0.011261f, -0.009079f, -0.013229f, -0.013214f, -0.019073f, -0.025024f, 0.027786f, 0.008255f, 0.011230f, -0.003540f, 0.026703f, 0.029968f, -0.018143f, -0.022247f, -0.024231f, 0.016159f, 0.024734f, -0.002548f, 0.018036f, -0.009567f, -0.000107f, -0.002716f, -0.005920f, -0.034103f, 0.003021f, -0.015366f, -0.029236f, -0.013062f, 0.009323f, 0.028458f, -0.012436f, 0.001968f, 0.010056f, 0.029800f, 0.035065f, -0.034302f, -0.021484f, -0.027527f, 0.031219f, 0.023804f, -0.029907f, -0.025101f, -0.022690f, -0.006134f, -0.002182f, -0.009171f, -0.005966f, -0.024628f, -0.014786f, 0.026825f, 0.017746f, -0.003540f, -0.014236f, 0.008987f, 0.031769f, -0.029663f, 0.025543f, -0.024887f, 0.023819f, -0.031769f, 0.035294f, 0.035522f, -0.010483f, -0.011475f, -0.009689f, -0.008102f, 0.028564f, -0.016937f, 0.013245f, -0.005508f, -0.034256f, -0.028427f, 0.016647f, 0.030914f, 0.001617f, 0.014465f, -0.037003f, -0.025391f, -0.017639f, 0.002579f, -0.020645f, -0.015640f, -0.027771f, -0.032516f, 0.004440f, -0.022827f, -0.016800f, 0.016647f, -0.013885f, 0.018784f, -0.018631f, 0.027695f, 0.019592f, 0.025330f, 0.023926f, 0.021225f, 0.013245f, -0.004410f, 0.028763f, -0.017883f, -0.023651f, 0.011063f, -0.004211f, 0.019653f, 0.026657f, -0.021454f, 0.015335f, -0.003815f, -0.027557f, 0.009293f, 0.012177f, -0.035568f, 0.010666f, 0.023315f, -0.017944f, -0.010986f, -0.018539f, -0.019226f, -0.015045f, -0.002777f, -0.013138f, 0.012466f, 0.016998f, 0.024170f, -0.032333f, 0.013229f, -0.014832f, 0.024399f, -0.026703f, -0.032059f, -0.031281f, 0.001358f, 0.027771f, 0.022842f, -0.019714f, -0.033981f, -0.013565f, -0.022766f, -0.010468f, -0.004379f, -0.012878f, -0.024628f, -0.013443f, 0.014923f, 0.024261f, -0.025543f, 0.026123f, -0.015839f, -0.023148f, -0.028595f, 0.006088f, -0.006042f, -0.014557f, 0.029312f, -0.007217f, -0.035233f, -0.016754f, -0.013641f, -0.002945f, -0.001495f, -0.027344f, -0.040131f, -0.011124f, 0.011856f, 0.003510f, -0.024399f, 0.004349f, 0.018677f, 0.016800f, -0.033203f, 0.028824f, 0.010468f, -0.010544f, 0.031342f, -0.025650f, 0.020294f, -0.012360f, -0.018341f, -0.002426f, 0.000107f, 0.033951f, 0.009430f, 0.023788f, -0.032440f, 0.010498f, -0.018066f, 0.006760f, 0.011459f, 0.019897f, -0.013138f, -0.022919f, -0.010147f, -0.005112f, -0.025116f, -0.013535f, -0.017838f, 0.005157f, 0.016617f, -0.019348f, -0.020416f, 0.021591f, -0.001343f, -0.003204f, 0.028366f, -0.003708f, -0.017288f, -0.033524f, -0.026764f, 0.020645f, -0.026962f, 0.003174f, -0.027206f, -0.035309f, -0.008789f, -0.004333f, 0.027802f, -0.001923f, 0.022583f, 0.028717f, -0.032974f, -0.003815f, 0.019653f, -0.026886f, -0.011475f, 0.016541f, 0.028687f, -0.007767f, -0.035522f, 0.029800f, -0.024734f, -0.022675f, 0.015015f, 0.023941f, 0.018890f, -0.029968f, 0.029465f, 0.033951f, -0.031738f, -0.028549f, 0.032684f, 0.012802f, -0.023560f, -0.025635f, -0.038422f, -0.004791f, -0.009094f, 0.007599f, -0.006790f, -0.014832f, 0.018158f, 0.005722f, -0.005646f, 0.026154f, 0.030136f, -0.028534f, -0.027679f, 0.014404f, -0.004852f, -0.020432f, -0.021088f, 0.011368f, -0.029083f, 0.017883f, 0.035049f, 0.034592f, -0.011475f, -0.005661f, -0.035187f, 0.016083f, 0.024170f, -0.035355f, 0.021057f, -0.009399f, -0.024826f, -0.010178f, 0.009491f, 0.012466f, 0.024643f, 0.017090f, -0.008987f, -0.024292f, -0.016541f, -0.027481f, -0.001312f, 0.027863f, -0.023834f, -0.006531f, 0.030365f, -0.012970f, 0.024628f, 0.001907f, -0.016830f, 0.032715f, 0.015518f, -0.020187f, -0.003769f, 0.014206f, 0.024536f, -0.022293f, 0.011948f, 0.021301f, -0.034302f, -0.017929f, 0.025864f, 0.004913f, -0.024292f, -0.009201f, -0.004333f, -0.013107f, -0.030350f, 0.021332f, -0.017181f, -0.033066f, -0.013382f, 0.014832f, -0.033401f, 0.007736f, 0.032394f, 0.016754f, -0.027695f, -0.004166f, -0.031769f, 0.014175f, 0.008713f, -0.016632f, -0.026306f, -0.000458f, 0.020798f, -0.021317f, 0.024582f, 0.003189f, -0.035004f, -0.033478f, 0.005875f, 0.025192f, -0.031296f, -0.028961f, 0.031555f, 0.014267f, 0.020950f, -0.008850f, 0.000732f, -0.016342f, 0.035309f, -0.019867f, -0.027878f, -0.002380f, 0.035370f, -0.031738f, -0.019043f, 0.031830f, -0.005829f, -0.009323f, 0.034210f, -0.025391f, -0.028275f, 0.012802f, -0.034149f, -0.017593f, 0.009979f, 0.000259f, -0.013321f, 0.013489f, 0.027878f, -0.018463f, 0.023895f, 0.003052f, -0.031845f, -0.024689f, 0.018356f, 0.019058f, -0.022171f, -0.031174f, -0.004959f, -0.003754f, 0.020050f, -0.031631f, 0.033417f, -0.015106f, -0.032242f, -0.029724f, -0.034485f, -0.023834f, -0.030624f, 0.029419f, -0.003571f, -0.002350f, 0.023117f, 0.013351f, -0.004257f, 0.012756f, -0.015549f, 0.021729f, 0.011246f, 0.010788f, -0.020752f, 0.015244f, -0.009506f, -0.010147f, 0.010910f, 0.028137f, 0.013489f, -0.005417f, -0.033096f, 0.008759f, -0.024734f, -0.027573f, 0.019714f, 0.002670f, -0.014679f, -0.017883f, 0.023224f, -0.017532f, -0.026566f, 0.001602f, 0.030609f, -0.029739f, -0.036316f, 0.015823f, -0.029785f, 0.010056f, -0.035553f, -0.032318f, 0.032791f, -0.007385f, -0.004364f, -0.033936f, 0.035645f, 0.005966f, 0.025009f, -0.021439f, -0.031128f, 0.013062f, 0.029602f, 0.002914f, -0.005051f, -0.004272f, 0.022980f, -0.031494f, -0.018616f, 0.004791f, -0.021179f, -0.032745f, -0.025177f, -0.018600f, -0.004471f, 0.021057f, 0.009430f, 0.012894f, 0.013596f, -0.027618f, -0.031738f, -0.023987f, -0.018219f, -0.029526f, 0.030014f, -0.003143f, -0.002655f, -0.012573f, -0.002762f, 0.004562f, 0.006897f, -0.012680f, -0.007751f, -0.012589f, -0.034821f, -0.003540f, -0.008163f, 0.010300f, 0.016281f, -0.020294f, -0.004852f, 0.019730f, -0.028717f, 0.002029f, -0.031189f, -0.019241f, -0.014099f, -0.031738f, 0.024033f, -0.013245f, -0.024521f, -0.027756f, 0.016418f, 0.017807f, -0.016190f, 0.027725f, 0.007050f, 0.008438f, 0.001129f, 0.025162f, -0.035492f, 0.016083f, -0.029663f, 0.000092f, 0.011520f, -0.009216f, 0.007248f, 0.025574f, -0.040192f, 0.015839f, -0.018570f, -0.019180f, -0.020401f, -0.030090f, 0.017014f, -0.005798f, -0.021225f, 0.005341f, 0.004211f, -0.021027f, -0.003433f, 0.032455f, -0.002243f, -0.011276f, -0.016022f, 0.019943f, 0.034149f, -0.009323f, -0.032639f, -0.028351f, 0.013306f, 0.030258f, 0.013443f, -0.025009f, -0.035599f, 0.027969f, 0.022598f, 0.001541f, -0.034164f, -0.018478f, -0.004181f, -0.009140f, -0.023483f, -0.034195f, 0.016586f, 0.015823f, 0.015503f, 0.013840f, 0.005829f, 0.035706f, 0.015015f, -0.025467f, 0.011520f, 0.002563f, 0.007355f, -0.013947f, 0.013275f, -0.016571f, 0.001480f, 0.005676f, 0.002502f, -0.030762f, 0.031677f, 0.000549f, -0.016022f, 0.000320f, -0.005417f, 0.022263f, -0.025238f, -0.029984f, 0.005676f, -0.014084f, 0.035538f, 0.002563f, 0.028366f, 0.034851f, 0.017319f, 0.031403f, 0.009384f, 0.011856f, 0.015839f, -0.005234f, -0.007477f, 0.003372f, 0.003296f, 0.013870f, 0.023102f, -0.033905f, -0.008789f, -0.023224f, -0.009109f, -0.032547f, 0.000671f, 0.018417f, -0.005844f, -0.000885f, 0.008057f, -0.008392f, 0.012924f, -0.003860f, -0.019684f, 0.014511f, 0.012924f, 0.014099f, 0.011948f, 0.010742f, -0.020493f, -0.015961f, 0.032761f, 0.025711f, 0.001724f, 0.022507f, -0.025421f, -0.018051f, 0.005661f, 0.002625f, -0.026917f, 0.010803f, 0.013275f, 0.021042f, -0.035568f, -0.018799f, -0.034073f, 0.008026f, 0.018280f, -0.003113f, 0.033478f, 0.035202f, 0.028641f, -0.021454f, -0.022766f, -0.033234f, -0.020370f, 0.034973f, 0.016968f, -0.014221f, -0.006226f, -0.031265f, 0.021255f, 0.016159f, -0.020386f, -0.014877f, 0.000626f, 0.030380f, -0.015457f, 0.005722f, 0.015152f, 0.010818f, -0.013596f, -0.032196f, 0.012665f, -0.025208f, -0.034088f, -0.031860f, 0.035233f, 0.033417f, -0.017807f, 0.005157f, -0.022736f, 0.002838f}, {0.031097f, 0.027145f, -0.021988f, 0.009521f, 0.005554f, 0.024857f, 0.027176f, -0.005020f, -0.018219f, -0.028229f, -0.013870f, 0.012939f, 0.016876f, -0.007233f, -0.023163f, 0.024673f, 0.009430f, -0.032364f, 0.018723f, -0.009918f, 0.013504f, -0.007187f, 0.003296f, 0.003952f, 0.030090f, -0.013916f, -0.031647f, -0.034180f, -0.018524f, 0.013107f, 0.012070f, -0.010574f, -0.010910f, 0.029678f, 0.033737f, 0.029770f, -0.020004f, -0.026016f, -0.013779f, 0.004028f, 0.003952f, 0.030640f, 0.011765f, -0.024750f, 0.034332f, -0.024063f, 0.004898f, -0.032166f, -0.015915f, 0.034912f, -0.020325f, -0.000549f, -0.023514f, 0.007446f, 0.027145f, 0.028427f, 0.031708f, 0.023972f, 0.029221f, -0.034897f, -0.003784f, 0.034241f, -0.028671f, 0.007492f, -0.002518f, -0.018661f, 0.030884f, -0.002121f, 0.001724f, 0.019806f, 0.064423f, 0.001511f, 0.025833f, 0.026978f, 0.014069f, 0.017395f, 0.019943f, 0.014709f, 0.012711f, -0.015793f, -0.000458f, 0.031326f, 0.004105f, -0.028534f, 0.033859f, -0.007004f, -0.032486f, -0.032547f, 0.025345f, -0.032303f, 0.010529f, -0.018631f, 0.043533f, 0.028397f, 0.049438f, 0.061874f, 0.050140f, 0.031006f, 0.066849f, 0.030121f, 0.024155f, 0.078323f, 0.062820f, 0.054092f, 0.063309f, 0.002579f, 0.018173f, 0.026169f, 0.003891f, 0.013290f, 0.031326f, -0.033371f, -0.008621f, 0.002014f, 0.010773f, 0.020706f, 0.029526f, -0.003220f, -0.017944f, 0.016571f, 0.028961f, -0.000580f, 0.047729f, 0.024094f, 0.032211f, 0.007980f, -0.007935f, 0.054230f, 0.044434f, 0.047638f, 0.012863f, 0.061295f, -0.003006f, 0.006760f, -0.014420f, 0.005310f, 0.028397f, 0.003616f, 0.023865f, 0.019592f, 0.001343f, -0.029358f, 0.031219f, 0.016953f, -0.008270f, -0.004868f, -0.024033f, 0.000809f, 0.031097f, 0.016418f, 0.025604f, 0.005386f, -0.014053f, 0.029144f, -0.014069f, 0.004562f, -0.046158f, -0.038834f, 0.010345f, -0.029648f, -0.060623f, -0.060532f, -0.065170f, -0.056137f, -0.041580f, -0.014694f, 0.030151f, 0.030258f, -0.029251f, 0.025253f, 0.005249f, -0.035858f, -0.018005f, -0.045410f, 0.001724f, 0.018326f, -0.024994f, -0.013016f, -0.001022f, 0.029404f, 0.054276f, 0.035553f, 0.071075f, 0.153427f, 0.115280f, 0.027740f, -0.014969f, -0.042328f, -0.105621f, -0.055191f, -0.063202f, -0.068604f, -0.026367f, 0.020477f, 0.016342f, -0.034149f, 0.000854f, 0.015152f, -0.029343f, -0.025513f, 0.006027f, -0.030548f, -0.014938f, -0.011536f, 0.009186f, 0.046387f, 0.031860f, 0.088043f, 0.118027f, 0.126038f, 0.232224f, 0.213501f, 0.210037f, 0.073257f, -0.032684f, -0.073547f, -0.095184f, -0.095718f, -0.079102f, -0.060211f, -0.008774f, 0.026840f, -0.017532f, -0.006973f, -0.022491f, -0.018173f, 0.031555f, 0.023285f, -0.007843f, 0.029449f, 0.035782f, 0.034744f, 0.029846f, 0.079285f, 0.095032f, 0.081085f, 0.121704f, 0.152451f, 0.210968f, 0.190918f, 0.133453f, 0.039276f, -0.032623f, -0.072784f, -0.082291f, -0.122726f, -0.043198f, -0.053925f, -0.002609f, 0.005905f, -0.011063f, -0.032761f, -0.016266f, -0.006104f, 0.008865f, -0.014618f, 0.013763f, -0.000763f, 0.039581f, 0.097458f, 0.076401f, 0.069122f, 0.062012f, 0.069763f, 0.098038f, 0.027527f, 0.049789f, 0.040039f, -0.054565f, -0.055008f, -0.112152f, -0.106689f, -0.068878f, -0.101624f, -0.022415f, -0.024582f, 0.055405f, 0.006119f, -0.005829f, -0.022324f, -0.013794f, -0.026474f, -0.000488f, -0.029800f, 0.013199f, 0.010803f, 0.070023f, 0.050980f, 0.079254f, 0.080353f, 0.053741f, 0.045410f, -0.014343f, -0.013885f, -0.023407f, -0.070892f, -0.091141f, -0.080673f, -0.048386f, -0.059067f, -0.042831f, -0.008072f, -0.023849f, 0.026169f, 0.040680f, 0.019211f, 0.014374f, -0.014038f, -0.013885f, 0.031738f, -0.013931f, -0.014557f, 0.014191f, 0.028763f, 0.037048f, 0.049042f, 0.056915f, 0.038712f, -0.029175f, -0.011078f, -0.026093f, 0.044296f, 0.011932f, -0.068039f, -0.050293f, 0.003677f, 0.060776f, 0.021866f, 0.004562f, -0.017014f, -0.013306f, -0.003693f, -0.015701f, -0.006851f, 0.037216f, 0.026199f, 0.008286f, 0.024643f, 0.017395f, 0.009628f, 0.015228f, 0.023956f, 0.018936f, 0.033417f, 0.008179f, -0.081802f, -0.122849f, -0.104721f, -0.061356f, 0.002625f, -0.012131f, -0.017776f, 0.061844f, 0.065964f, 0.136505f, 0.099091f, 0.076813f, 0.044861f, 0.008484f, -0.017838f, 0.009613f, 0.019348f, -0.002502f, 0.025330f, 0.010010f, 0.018295f, -0.008102f, -0.024200f, -0.005493f, -0.012466f, 0.006699f, -0.064758f, -0.067337f, -0.087814f, -0.150177f, -0.155655f, -0.037933f, 0.002319f, -0.000244f, 0.072617f, 0.088165f, 0.109604f, 0.065598f, 0.046219f, 0.035690f, 0.031219f, 0.001602f, -0.023071f, 0.022354f, -0.013153f, -0.020187f, 0.002243f, -0.018967f, -0.028564f, -0.023239f, 0.037216f, -0.037277f, -0.049667f, -0.026733f, -0.062012f, -0.112793f, -0.157837f, -0.170120f, -0.099670f, -0.030075f, 0.018524f, 0.066147f, 0.065353f, 0.112656f, 0.049011f, 0.016556f, 0.018509f, -0.021408f, 0.001923f, 0.020706f, 0.011703f, -0.003693f, -0.035370f, -0.011383f, 0.002457f, 0.022293f, 0.012207f, 0.007431f, -0.036118f, 0.009430f, -0.055847f, -0.078568f, -0.125565f, -0.062439f, -0.089935f, -0.027954f, 0.027435f, 0.037018f, 0.042923f, 0.033844f, 0.043198f, 0.039978f, 0.022369f, -0.065628f, -0.026505f, -0.016174f, -0.005722f, -0.059143f, -0.018326f, 0.011856f, -0.016068f, -0.027710f, 0.004120f, 0.015457f, 0.023773f, 0.004486f, -0.023743f, -0.029266f, -0.047836f, -0.076843f, -0.076630f, -0.019119f, 0.025604f, 0.065720f, 0.129013f, 0.147766f, 0.044510f, -0.001068f, -0.043335f, 0.021805f, -0.034805f, -0.036453f, -0.052307f, -0.015228f, -0.038544f, -0.048538f, 0.014618f, -0.036911f, -0.022888f, -0.016449f, 0.033386f, -0.010742f, -0.014847f, -0.015762f, 0.024658f, -0.015518f, -0.035934f, -0.037949f, -0.000244f, 0.010712f, 0.104645f, 0.185913f, 0.169662f, 0.159149f, 0.034805f, -0.017471f, -0.069168f, -0.036255f, 0.000351f, -0.010315f, 0.015839f, 0.042450f, -0.001007f, -0.014404f, -0.013779f, 0.024261f, 0.026810f, 0.024231f, 0.008698f, -0.002136f, -0.034134f, -0.016144f, -0.029602f, 0.003647f, -0.045410f, -0.045456f, 0.010239f, 0.014221f, 0.079987f, 0.139359f, 0.165298f, 0.140533f, 0.017380f, -0.046143f, 0.015411f, -0.019043f, 0.033081f, 0.101059f, 0.047852f, 0.064728f, 0.016983f, 0.021118f, 0.007950f, 0.019455f, 0.023117f, 0.018250f, 0.016861f, 0.011139f, -0.010910f, 0.021790f, -0.026749f, -0.014816f, -0.016418f, -0.004501f, 0.009705f, 0.073486f, 0.109314f, 0.136475f, 0.128006f, 0.089661f, 0.045746f, 0.011795f, 0.051987f, 0.062546f, 0.104965f, 0.061462f, 0.090958f, 0.019470f, -0.012894f, 0.031525f, -0.015839f, -0.003799f, -0.007797f, 0.028320f, -0.003830f, 0.004410f, -0.028229f, -0.002274f, -0.035019f, 0.008774f, -0.011414f, -0.012390f, 0.027405f, 0.051727f, 0.088898f, 0.083252f, 0.116089f, 0.093460f, 0.105438f, 0.073181f, 0.110352f, 0.049469f, 0.031021f, 0.035355f, 0.067764f, 0.031036f, 0.023697f, 0.019119f, 0.036255f, -0.025955f, 0.023209f, 0.032761f, 0.030655f, 0.010071f, 0.001495f, -0.009476f, -0.038162f, 0.004959f, -0.038925f, -0.007339f, 0.043427f, 0.029236f, 0.056381f, 0.024368f, 0.058090f, 0.141373f, 0.105392f, 0.068832f, 0.034958f, 0.042755f, 0.030838f, 0.001328f, 0.011383f, 0.037262f, -0.006973f, 0.003174f, 0.007278f, 0.014374f, -0.000244f, -0.012848f, -0.035065f, -0.017334f, 0.010941f, -0.013931f, 0.023605f, 0.014130f, -0.056747f, -0.034592f, -0.045731f, -0.010635f, 0.007904f, -0.010315f, 0.019058f, 0.036560f, 0.071381f, -0.005295f, -0.060638f, -0.021805f, -0.027893f, -0.040161f, -0.019501f, 0.039597f, -0.014603f, -0.018509f, 0.032272f, 0.023361f, -0.029312f, -0.003403f, 0.033707f, -0.006775f, -0.012207f, -0.001434f, 0.001938f, -0.023178f, 0.003891f, -0.039108f, -0.047806f, -0.008163f, -0.018494f, -0.081284f, -0.023041f, -0.059784f, -0.012756f, -0.067810f, -0.099289f, -0.060089f, -0.064651f, -0.006134f, -0.014389f, 0.024338f, 0.005081f, 0.033661f, 0.002991f, 0.024155f, 0.001389f, -0.012375f, -0.025543f, 0.029617f, -0.018707f, -0.001495f, -0.028534f, 0.026825f, 0.011002f, -0.016190f, -0.021255f, -0.033600f, 0.000320f, -0.007141f, -0.020416f, 0.011505f, 0.032318f, 0.005524f, -0.018768f, 0.009506f, 0.010651f, 0.039444f, 0.045303f, 0.007599f, 0.012070f, 0.046692f, -0.002899f, 0.002121f, -0.007401f, -0.010025f, 0.008774f, -0.032959f, 0.032364f, 0.031250f, 0.009949f, -0.030182f, 0.006500f, -0.031464f, -0.002213f, 0.044876f, -0.008942f, 0.031067f, 0.028412f, 0.046356f, 0.025497f, 0.052994f, 0.060150f, 0.087082f, 0.102936f, 0.060120f, 0.078964f, 0.058121f, 0.033646f, -0.013062f, 0.028534f, 0.028168f, -0.022491f, -0.028793f, -0.029083f, -0.029739f, -0.026154f, 0.028214f, 0.004440f, -0.031906f, 0.016434f, -0.005692f, -0.026901f, 0.028336f, -0.000427f, -0.001480f, 0.024460f, 0.057327f, 0.046280f, 0.013443f, 0.005661f, 0.034546f, 0.038452f, 0.004791f, 0.021835f, 0.034607f, 0.035568f, 0.022232f, 0.000885f, -0.000061f, 0.028931f, -0.018555f, 0.030548f, -0.033157f, 0.027359f, 0.008652f, -0.034958f, -0.001083f, 0.033936f, 0.004227f, -0.000977f, -0.001144f, -0.034378f, -0.008316f, 0.023178f, -0.008667f, -0.018997f, -0.011414f, 0.029724f, 0.035065f, 0.012878f, -0.002701f, 0.024139f, 0.015106f, 0.026810f, -0.011246f, 0.018585f, 0.023727f, -0.022095f, -0.002075f, 0.017014f}, {0.011871f, 0.007248f, 0.023743f, -0.001709f, 0.031494f, 0.024857f, -0.032181f, -0.033676f, 0.014938f, -0.001144f, -0.026352f, -0.005753f, 0.002121f, 0.026520f, 0.017319f, -0.016968f, 0.033600f, 0.001663f, 0.022552f, 0.001999f, -0.021072f, -0.025391f, -0.012009f, -0.007614f, 0.006775f, 0.000626f, -0.008179f, -0.004303f, -0.019012f, -0.014618f, -0.019653f, 0.011566f, 0.026428f, 0.032013f, 0.018173f, -0.007782f, -0.018341f, -0.026230f, -0.004196f, -0.008530f, -0.015289f, 0.020554f, -0.030060f, 0.029587f, 0.007523f, 0.011292f, -0.016571f, -0.022293f, -0.033264f, -0.028748f, -0.029404f, -0.007843f, -0.011917f, -0.023605f, 0.020798f, 0.014389f, 0.002548f, -0.009537f, 0.023392f, 0.012848f, 0.017609f, -0.009277f, 0.008163f, -0.003571f, -0.004593f, 0.028717f, 0.011292f, 0.018738f, 0.007828f, 0.021332f, -0.034622f, -0.032974f, 0.006531f, 0.026688f, -0.026825f, 0.034302f, 0.022720f, -0.009491f, 0.001175f, 0.006454f, -0.024277f, 0.014587f, 0.000198f, 0.023712f, -0.021194f, -0.021332f, 0.011948f, -0.000916f, -0.009995f, 0.006805f, -0.010910f, -0.020004f, -0.030579f, 0.025589f, -0.025650f, 0.010712f, -0.017944f, -0.012405f, -0.029175f, 0.000992f, -0.035278f, -0.017426f, -0.014297f, 0.033997f, 0.033829f, 0.010849f, 0.005859f, 0.007187f, 0.015808f, -0.008102f, -0.014923f, 0.023499f, -0.009415f, 0.017670f, 0.030029f, -0.000931f, -0.034637f, 0.009857f, 0.028641f, -0.015320f, -0.013077f, -0.010025f, 0.001556f, -0.025299f, -0.001297f, 0.022720f, -0.018692f, 0.032043f, 0.016861f, 0.002533f, -0.017044f, -0.007263f, -0.019485f, 0.011887f, -0.034302f, 0.024155f, 0.018402f, 0.028290f, 0.004395f, 0.004929f, -0.035660f, -0.006607f, 0.004654f, -0.004807f, 0.021744f, 0.005173f, -0.004929f, 0.020508f, 0.029907f, 0.011658f, 0.009140f, -0.009064f, 0.008499f, -0.036102f, 0.030228f, -0.036682f, 0.001740f, -0.031204f, -0.009460f, 0.029388f, 0.021667f, -0.020004f, 0.027084f, 0.023483f, 0.013779f, -0.031250f, 0.024582f, 0.028824f, -0.026230f, -0.008774f, -0.022369f, -0.030289f, -0.003647f, 0.033966f, 0.019958f, 0.012909f, 0.009537f, 0.020691f, -0.019241f, 0.022430f, -0.021042f, 0.021835f, -0.016769f, 0.010040f, -0.004257f, 0.010422f, 0.019119f, 0.028976f, -0.001633f, -0.020203f, -0.015839f, -0.033920f, -0.029831f, 0.006348f, -0.031540f, 0.028549f, 0.027847f, -0.023712f, -0.015793f, -0.033051f, -0.025970f, 0.018494f, 0.029053f, 0.024384f, -0.029037f, 0.012573f, 0.023087f, 0.015945f, -0.035156f, 0.014709f, 0.003021f, -0.036057f, -0.037369f, 0.020340f, -0.024841f, 0.016312f, 0.005447f, 0.005402f, -0.012589f, 0.030060f, 0.018082f, 0.005722f, 0.034744f, -0.028214f, 0.003372f, -0.004639f, 0.001694f, 0.027481f, 0.024704f, -0.012863f, -0.022446f, 0.006882f, 0.023697f, 0.026382f, -0.007278f, -0.003052f, 0.011200f, -0.027954f, -0.003799f, -0.025085f, 0.022125f, -0.009613f, 0.030365f, -0.017303f, 0.028091f, 0.021530f, 0.000702f, -0.024445f, -0.002716f, -0.024628f, -0.003891f, -0.010468f, -0.010834f, -0.033417f, 0.029800f, -0.017532f, 0.016342f, 0.018326f, 0.018738f, 0.019424f, 0.012817f, -0.024246f, 0.029770f, -0.019379f, -0.027756f, -0.018311f, 0.022339f, -0.024750f, 0.020859f, -0.013748f, 0.005005f, 0.023300f, 0.031158f, -0.026901f, 0.027771f, -0.018463f, 0.030365f, -0.018707f, 0.016876f, -0.005447f, -0.001160f, 0.010315f, -0.028122f, -0.018967f, -0.006393f, 0.007034f, 0.009933f, -0.010590f, -0.011490f, -0.023941f, -0.006683f, 0.019302f, 0.028046f, 0.034058f, -0.030060f, -0.034958f, -0.001068f, -0.034409f, -0.020905f, -0.018814f, -0.004196f, -0.022675f, -0.017044f, 0.029480f, 0.026962f, 0.010315f, 0.005402f, -0.003036f, 0.002457f, 0.029617f, 0.006821f, -0.006058f, 0.018234f, -0.009277f, -0.032333f, -0.002686f, -0.000458f, -0.012085f, 0.007996f, -0.027237f, -0.011337f, -0.015045f, -0.008987f, -0.030029f, -0.027527f, -0.017471f, -0.008926f, -0.011627f, -0.034927f, -0.012558f, 0.019241f, -0.025635f, -0.012451f, -0.002777f, 0.001205f, -0.003098f, -0.006134f, -0.028946f, 0.014145f, 0.025833f, 0.029037f, -0.014801f, 0.015228f, -0.027832f, -0.034698f, -0.032150f, 0.003891f, -0.033096f, 0.028152f, -0.038330f, -0.007706f, 0.011566f, -0.027695f, -0.026031f, -0.025391f, 0.008591f, -0.001633f, 0.004623f, -0.022873f, 0.002518f, -0.001816f, 0.022415f, 0.020569f, 0.024963f, -0.018509f, 0.011047f, -0.035416f, -0.013535f, -0.030914f, -0.029312f, -0.013458f, 0.014252f, 0.015366f, 0.004288f, -0.004608f, -0.008514f, -0.009827f, 0.001083f, -0.020767f, 0.010635f, 0.011963f, -0.037323f, -0.009933f, 0.018036f, 0.026840f, -0.020706f, -0.030472f, -0.028427f, -0.030579f, 0.020752f, 0.017227f, 0.014526f, -0.031403f, 0.004608f, -0.012375f, 0.017776f, 0.011749f, 0.011520f, 0.022186f, 0.028152f, 0.025192f, 0.004257f, 0.013809f, -0.037720f, -0.024887f, 0.025726f, 0.016907f, -0.022278f, 0.025085f, -0.025208f, -0.009323f, 0.018021f, 0.018661f, -0.029953f, 0.021286f, 0.013153f, 0.005585f, 0.007538f, -0.010376f, 0.015717f, 0.028214f, 0.018326f, -0.017303f, -0.022781f, -0.009247f, -0.014954f, -0.022583f, -0.021362f, -0.010391f, -0.031982f, -0.020508f, 0.016724f, -0.004745f, -0.010941f, -0.025787f, -0.026215f, 0.009323f, -0.017288f, 0.019028f, -0.035339f, 0.031769f, -0.018707f, -0.020035f, 0.018753f, 0.024048f, 0.014297f, 0.022202f, -0.033569f, 0.022232f, 0.014862f, 0.013748f, 0.020355f, -0.033905f, -0.023209f, -0.020447f, 0.006943f, -0.014832f, -0.003433f, 0.014465f, -0.005249f, -0.037704f, -0.004303f, -0.026337f, -0.006165f, -0.022369f, 0.008743f, 0.027496f, 0.026077f, -0.031631f, -0.025589f, -0.001114f, -0.009720f, 0.031815f, 0.004410f, -0.004028f, -0.034409f, 0.035446f, 0.028793f, -0.022629f, 0.012253f, 0.003128f, -0.011642f, -0.001572f, 0.036377f, 0.026535f, -0.034378f, -0.013626f, -0.022842f, -0.011887f, -0.009796f, -0.010635f, 0.008118f, 0.007996f, -0.008118f, 0.025345f, -0.012985f, 0.020630f, 0.027512f, -0.029678f, 0.033875f, 0.003540f, -0.025513f, -0.004013f, 0.027191f, 0.025146f, 0.001755f, -0.012482f, -0.023804f, 0.003922f, -0.001938f, 0.002213f, 0.031769f, -0.014603f, -0.004654f, 0.024887f, -0.001358f, -0.031952f, 0.009094f, 0.021576f, 0.012161f, -0.004745f, -0.011230f, -0.010330f, -0.014191f, 0.014618f, 0.014099f, -0.004272f, 0.002670f, -0.018555f, 0.019836f, 0.021057f, -0.024490f, 0.019638f, 0.016190f, 0.004196f, -0.021072f, -0.010849f, -0.008286f, -0.031296f, -0.004135f, 0.018585f, 0.007843f, -0.001236f, 0.030640f, -0.016632f, -0.010544f, -0.029007f, -0.014755f, -0.011948f, -0.004700f, -0.035507f, -0.027618f, -0.013809f, 0.026260f, -0.012192f, 0.014160f, 0.010895f, -0.020111f, -0.001358f, -0.018234f, 0.013428f, 0.026199f, 0.008179f, -0.018311f, 0.014999f, 0.010147f, -0.002518f, 0.011490f, 0.023361f, 0.032028f, -0.038254f, -0.015900f, -0.016357f, 0.003128f, 0.010849f, -0.022568f, -0.007217f, 0.012634f, 0.019653f, -0.034821f, -0.016357f, -0.016006f, -0.023483f, 0.006851f, -0.008545f, 0.014084f, -0.026443f, -0.018112f, -0.027084f, -0.035385f, 0.035004f, -0.032028f, 0.001999f, -0.019928f, -0.021515f, 0.017715f, -0.001907f, -0.008469f, -0.023804f, 0.005325f, -0.004745f, -0.028259f, -0.031250f, 0.022232f, -0.014557f, 0.026184f, -0.018234f, 0.013794f, -0.028534f, 0.018417f, 0.008759f, 0.001236f, -0.010254f, -0.010086f, -0.032104f, -0.004440f, -0.001221f, -0.025833f, 0.035461f, -0.031509f, -0.009033f, -0.018036f, 0.030136f, -0.002151f, 0.005539f, 0.029816f, 0.003281f, 0.013016f, -0.034088f, -0.031815f, -0.004776f, -0.014847f, -0.019196f, 0.020691f, -0.036194f, -0.006378f, 0.002106f, -0.026108f, -0.001953f, -0.033295f, 0.030579f, -0.007736f, 0.014099f, -0.011612f, -0.010483f, 0.002319f, -0.012451f, 0.030762f, 0.027344f, -0.003494f, -0.005951f, 0.031647f, -0.017532f, 0.012634f, -0.031586f, -0.031067f, 0.029663f, 0.022858f, 0.023270f, 0.032013f, -0.017548f, -0.035492f, 0.002472f, 0.023636f, 0.024048f, 0.019638f, 0.025101f, 0.026016f, -0.005173f, 0.034866f, 0.009644f, -0.033112f, 0.027908f, 0.003525f, 0.034851f, 0.008484f, 0.018280f, 0.008377f, 0.028824f, -0.032272f, 0.035263f, -0.020798f, 0.006439f, -0.012238f, -0.025864f, -0.022934f, 0.022507f, 0.021225f, -0.024643f, 0.015808f, 0.028488f, 0.022141f, 0.025925f, -0.020309f, 0.014618f, -0.001480f, 0.033768f, 0.030090f, -0.004959f, -0.006012f, -0.013474f, 0.033096f, 0.025650f, -0.027481f, 0.017578f, 0.021637f, 0.001602f, -0.008972f, 0.031937f, -0.019470f, -0.005005f, 0.010574f, 0.003250f, -0.006607f, -0.031265f, -0.007019f, -0.001495f, -0.031891f, 0.032944f, -0.003174f, 0.026001f, 0.031082f, 0.022873f, 0.017487f, -0.009872f, -0.021988f, -0.022049f, 0.012543f, -0.008026f, -0.032440f, -0.028580f, 0.016800f, 0.035110f, 0.024918f, -0.012466f, -0.021255f, 0.014633f, 0.022171f, -0.026138f, -0.032120f, -0.013489f, 0.015823f, 0.005035f, 0.025314f, -0.034576f, -0.001923f, 0.032928f, -0.030792f, -0.032181f, 0.010849f, -0.009109f, -0.016449f, -0.001831f, -0.027496f, 0.005035f, -0.032578f, -0.017471f, -0.027908f, -0.034912f, -0.011322f, 0.027054f, -0.022202f, -0.020813f, 0.022064f, 0.020248f, -0.004837f, -0.012619f, -0.008575f, 0.027863f, -0.021988f, -0.004700f, -0.030594f, 0.009048f, 0.021820f, -0.033600f, -0.011963f, -0.015091f, 0.025620f, 0.021423f, -0.005249f, -0.002365f, 0.000671f, -0.003830f, 0.027069f}, {0.030380f, 0.032623f, 0.016357f, 0.014496f, -0.008621f, 0.008453f, 0.028534f, -0.030991f, 0.025467f, 0.011292f, 0.027206f, 0.003281f, -0.030624f, -0.019516f, -0.012634f, 0.023956f, -0.035248f, -0.030518f, -0.005463f, -0.009384f, 0.009186f, 0.003830f, 0.004990f, 0.019470f, 0.028671f, 0.015579f, -0.000275f, 0.028946f, -0.002167f, 0.002762f, 0.033539f, -0.010513f, -0.030487f, -0.005768f, 0.009995f, -0.004425f, 0.015167f, 0.010162f, 0.012405f, -0.010269f, -0.016205f, 0.027664f, -0.009995f, 0.023056f, -0.019836f, 0.032974f, 0.011673f, 0.024063f, 0.030563f, -0.034225f, 0.024689f, -0.014023f, 0.027893f, -0.030273f, 0.034042f, -0.033493f, 0.034851f, -0.025742f, 0.006927f, 0.003159f, 0.021454f, 0.006668f, -0.023071f, 0.032547f, 0.001877f, -0.029114f, 0.015366f, 0.022369f, 0.020889f, -0.018143f, 0.010925f, -0.010651f, 0.030380f, -0.007278f, -0.012817f, -0.039825f, 0.005585f, 0.013306f, 0.021225f, 0.022141f, 0.013290f, 0.004868f, -0.011398f, 0.021759f, 0.006287f, 0.003067f, -0.026230f, 0.025864f, -0.004272f, -0.002441f, 0.025604f, -0.019119f, -0.024048f, -0.015152f, -0.023102f, -0.021347f, 0.037292f, 0.002060f, 0.025131f, 0.005203f, -0.002945f, -0.015884f, -0.034546f, -0.027924f, -0.083237f, -0.019302f, -0.010696f, -0.023041f, 0.008881f, 0.020996f, -0.005890f, 0.019958f, 0.024902f, 0.028061f, -0.000504f, -0.002808f, 0.019913f, -0.016388f, -0.003082f, 0.021530f, 0.032669f, 0.058929f, 0.066406f, 0.048386f, 0.102844f, 0.155624f, 0.092407f, 0.081360f, 0.041870f, 0.000198f, -0.021957f, -0.019028f, -0.009018f, -0.048370f, -0.064087f, -0.020630f, -0.003906f, -0.016769f, 0.032928f, 0.003815f, -0.006973f, 0.014481f, -0.028381f, 0.030960f, -0.024994f, 0.000366f, 0.054596f, 0.014359f, 0.021057f, 0.021439f, 0.027084f, 0.065247f, 0.087677f, 0.163437f, 0.154495f, 0.130920f, 0.127151f, 0.066757f, 0.018585f, 0.024963f, -0.015106f, -0.027954f, -0.039490f, -0.046738f, -0.010162f, -0.041122f, 0.016418f, 0.031967f, 0.004639f, -0.006332f, 0.029068f, 0.016800f, -0.009293f, 0.008362f, 0.028030f, 0.041550f, -0.011124f, 0.008820f, 0.010193f, 0.036209f, 0.063889f, 0.150833f, 0.141495f, 0.120346f, 0.065659f, 0.049744f, 0.065552f, 0.031296f, 0.016495f, 0.028717f, -0.089828f, -0.094101f, -0.080399f, -0.031296f, -0.016174f, -0.035110f, 0.028580f, -0.032898f, 0.011169f, -0.015060f, 0.053009f, 0.023102f, 0.014832f, 0.039825f, 0.028534f, -0.023605f, 0.043793f, 0.028702f, 0.111542f, 0.082596f, 0.126038f, 0.111771f, 0.061722f, 0.053787f, 0.084320f, 0.091064f, 0.025238f, -0.011459f, -0.078629f, -0.109451f, -0.107712f, -0.081207f, 0.022827f, 0.032303f, 0.008194f, -0.034546f, 0.018921f, -0.021576f, 0.048126f, 0.066376f, 0.043991f, -0.001312f, -0.030289f, 0.004166f, -0.013626f, 0.062180f, 0.054977f, 0.104309f, 0.124573f, 0.141037f, 0.086349f, 0.141571f, 0.082047f, 0.102570f, 0.055832f, 0.021103f, -0.098129f, -0.157623f, -0.138840f, -0.049225f, 0.014816f, 0.017258f, 0.015045f, -0.008774f, -0.016983f, 0.010742f, 0.047958f, 0.038818f, 0.027588f, 0.001724f, -0.016769f, -0.001678f, -0.061798f, -0.044785f, -0.013397f, 0.061584f, 0.177307f, 0.198715f, 0.184845f, 0.071991f, 0.070602f, 0.057831f, 0.019897f, -0.012894f, -0.062607f, -0.146042f, -0.120316f, -0.080643f, -0.011459f, 0.003525f, 0.000534f, -0.026184f, 0.021835f, -0.019821f, 0.030060f, -0.012039f, -0.016235f, -0.073212f, -0.125610f, -0.135284f, -0.170120f, -0.148880f, -0.164780f, -0.047272f, 0.125092f, 0.264435f, 0.136475f, 0.104050f, 0.055923f, 0.021255f, 0.024765f, -0.026367f, -0.052658f, -0.093109f, -0.043137f, 0.008926f, 0.031464f, 0.020966f, 0.011566f, -0.007187f, 0.003525f, -0.005661f, -0.030975f, -0.086945f, -0.120743f, -0.159470f, -0.175552f, -0.160690f, -0.196136f, -0.255356f, -0.244278f, -0.091553f, 0.176102f, 0.215744f, 0.138901f, 0.075211f, 0.018417f, 0.056946f, 0.043365f, 0.010666f, 0.020599f, -0.055862f, -0.053680f, -0.023422f, -0.026184f, -0.007935f, 0.028030f, 0.025513f, -0.004135f, 0.026535f, -0.004425f, -0.094360f, -0.164932f, -0.197189f, -0.168106f, -0.227036f, -0.267838f, -0.305038f, -0.287109f, -0.055542f, 0.224304f, 0.207458f, 0.109085f, -0.009735f, 0.018143f, -0.021515f, -0.017090f, -0.009567f, -0.011810f, -0.049240f, 0.024658f, 0.006912f, 0.030014f, 0.016937f, 0.020691f, 0.025284f, 0.005905f, -0.026108f, -0.026382f, -0.135574f, -0.138397f, -0.206909f, -0.169739f, -0.175262f, -0.248016f, -0.295151f, -0.234070f, 0.054443f, 0.266617f, 0.198181f, 0.081772f, -0.051132f, -0.033539f, -0.075729f, -0.021362f, 0.014999f, -0.016205f, -0.004364f, 0.019409f, -0.027786f, -0.011169f, 0.028152f, 0.027893f, -0.000900f, 0.027237f, 0.003693f, -0.034256f, -0.079330f, -0.163940f, -0.102753f, -0.131256f, -0.181458f, -0.211868f, -0.185165f, -0.113129f, 0.150528f, 0.252808f, 0.215439f, -0.016998f, -0.099808f, -0.058044f, -0.073654f, -0.023956f, -0.036041f, 0.012527f, -0.036575f, 0.027023f, -0.013443f, 0.001663f, 0.030731f, -0.007523f, 0.014389f, -0.030518f, 0.011108f, -0.000565f, -0.065155f, -0.098297f, -0.061188f, -0.084381f, -0.084686f, -0.144394f, -0.076340f, 0.054077f, 0.214127f, 0.284012f, 0.139908f, -0.055573f, -0.097107f, -0.056549f, -0.033508f, -0.059448f, -0.019867f, 0.009598f, 0.012650f, -0.018417f, 0.038589f, -0.000778f, 0.022995f, -0.031372f, 0.035660f, 0.021271f, -0.015488f, 0.053741f, 0.032089f, -0.009399f, -0.059677f, -0.027374f, -0.058258f, -0.038681f, 0.018906f, 0.117371f, 0.289154f, 0.247177f, 0.034882f, -0.030960f, -0.082382f, -0.090652f, -0.071945f, -0.019760f, 0.044250f, 0.036743f, -0.003693f, 0.020493f, 0.056244f, -0.001694f, 0.010391f, -0.034668f, 0.009201f, 0.023972f, -0.007736f, 0.043808f, 0.047928f, 0.007126f, -0.010162f, -0.003479f, 0.032486f, 0.017715f, 0.030396f, 0.183411f, 0.241226f, 0.201797f, 0.019501f, -0.045227f, -0.055145f, -0.044464f, -0.008957f, -0.022964f, 0.043411f, 0.011887f, 0.035873f, 0.083618f, 0.042130f, 0.005432f, 0.001831f, -0.020676f, -0.023621f, -0.012466f, 0.021194f, 0.059280f, 0.052689f, -0.012085f, -0.022903f, -0.018234f, 0.048584f, 0.054459f, 0.078888f, 0.108459f, 0.215195f, 0.091263f, 0.015579f, -0.053818f, -0.017151f, -0.003342f, -0.017166f, -0.018753f, 0.028198f, 0.024063f, 0.082993f, 0.085953f, 0.010208f, 0.002441f, -0.024765f, 0.029358f, -0.027588f, -0.032822f, 0.009659f, 0.048309f, 0.011597f, -0.004059f, -0.025803f, 0.012085f, 0.074997f, 0.058884f, 0.055679f, 0.032043f, 0.074326f, 0.021774f, 0.002960f, -0.025604f, 0.003586f, 0.006500f, 0.030685f, 0.057968f, 0.081345f, 0.088028f, 0.044724f, 0.037079f, 0.022034f, 0.020874f, 0.000763f, 0.024979f, -0.010040f, 0.001083f, 0.022217f, 0.052368f, 0.061493f, 0.014023f, 0.084122f, 0.069916f, 0.072311f, 0.051804f, 0.000580f, -0.001297f, -0.032974f, -0.020157f, 0.027802f, 0.021027f, 0.000305f, 0.032211f, 0.059814f, 0.035538f, 0.060608f, 0.030197f, 0.028244f, 0.030914f, 0.025101f, -0.007202f, 0.027908f, 0.018463f, 0.002930f, 0.034576f, -0.010605f, 0.065536f, 0.097412f, 0.081207f, 0.084274f, 0.083069f, 0.082108f, 0.081772f, -0.035461f, -0.092239f, -0.074966f, -0.013428f, 0.004913f, 0.033615f, 0.064377f, 0.064941f, 0.056000f, 0.002090f, 0.065933f, 0.012695f, 0.022614f, 0.002579f, 0.013367f, 0.020905f, -0.029480f, -0.031693f, 0.035156f, -0.012131f, -0.012894f, 0.056396f, 0.076675f, 0.106308f, 0.100449f, 0.119110f, 0.107971f, 0.055847f, 0.018402f, -0.059891f, -0.055496f, 0.034134f, 0.042587f, 0.103149f, 0.029282f, 0.052216f, 0.039337f, 0.035889f, -0.022186f, 0.027145f, 0.022217f, 0.015488f, -0.018799f, -0.013229f, -0.026749f, 0.023483f, 0.017075f, -0.024841f, -0.004288f, 0.002670f, 0.028168f, 0.062836f, 0.091827f, 0.066254f, 0.055389f, 0.054565f, -0.006653f, 0.020538f, 0.031036f, 0.057831f, 0.063095f, 0.037354f, 0.018021f, -0.001160f, -0.012146f, -0.042435f, 0.010788f, 0.008606f, 0.011261f, -0.014465f, -0.027802f, 0.026138f, -0.028091f, -0.020187f, -0.004379f, 0.019882f, 0.021347f, -0.014145f, -0.015503f, 0.055191f, 0.016388f, -0.024139f, 0.014709f, -0.011429f, -0.029480f, -0.037659f, -0.003067f, 0.014969f, 0.017624f, -0.009445f, 0.006805f, -0.027206f, -0.085709f, -0.018127f, -0.059143f, 0.005310f, -0.027191f, 0.032318f, -0.028442f, -0.004379f, -0.004440f, 0.001877f, 0.001465f, -0.003769f, 0.013596f, 0.000381f, -0.032349f, 0.013718f, 0.012589f, -0.048950f, -0.033829f, -0.058960f, -0.019791f, -0.026581f, -0.061005f, -0.012360f, -0.038528f, -0.051483f, -0.026337f, -0.016678f, -0.069046f, -0.021896f, -0.021912f, -0.012390f, -0.032394f, 0.033310f, 0.007553f, -0.022522f, -0.017776f, -0.014236f, 0.016876f, -0.007950f, 0.028214f, -0.000656f, -0.025101f, 0.019211f, -0.001541f, -0.017151f, -0.014206f, 0.011963f, -0.036255f, -0.040665f, -0.044067f, -0.012634f, 0.004761f, 0.017029f, -0.030594f, 0.001389f, -0.035751f, 0.007660f, -0.034225f, 0.008591f, -0.001099f, 0.002136f, -0.011337f, 0.016464f, -0.007996f, -0.023636f, -0.009659f, 0.003983f, 0.026367f, -0.009125f, 0.004196f, -0.010483f, -0.003204f, -0.002823f, -0.010315f, -0.007172f, -0.010666f, 0.018433f, -0.020187f, 0.029022f, 0.018478f, -0.028030f, 0.023270f, 0.023895f, 0.023178f, 0.030075f, 0.012466f, -0.011719f, -0.012390f, 0.011078f, 0.031464f, 0.015625f, -0.014984f}, {0.018021f, 0.013016f, 0.000443f, -0.005600f, 0.001175f, -0.010376f, -0.000702f, -0.021072f, 0.015030f, -0.019119f, -0.031219f, 0.005478f, -0.028000f, 0.030869f, 0.021088f, 0.006393f, 0.000336f, 0.012680f, -0.008057f, -0.020432f, -0.034714f, -0.032455f, 0.030472f, 0.012146f, -0.023804f, -0.016052f, -0.033417f, -0.005692f, -0.028610f, 0.013123f, -0.032043f, 0.028198f, 0.013412f, -0.032257f, 0.023468f, 0.015030f, -0.023483f, -0.013885f, -0.021912f, -0.006500f, 0.032944f, 0.023560f, -0.030533f, -0.013443f, -0.022110f, -0.028168f, -0.022583f, 0.014130f, 0.004929f, -0.015274f, -0.026352f, -0.018158f, 0.000854f, 0.019150f, 0.016953f, -0.010071f, 0.034866f, -0.010101f, -0.032104f, -0.017487f, -0.027954f, -0.027664f, -0.003998f, -0.030197f, 0.026215f, -0.020721f, 0.005554f, 0.005539f, 0.007431f, -0.040710f, 0.003860f, 0.003571f, -0.019852f, -0.015579f, 0.005310f, -0.030411f, -0.018906f, -0.001526f, 0.017776f, -0.020645f, -0.011841f, -0.030136f, 0.022568f, 0.001892f, -0.024826f, 0.015320f, -0.034821f, -0.018845f, 0.021591f, -0.005356f, 0.021683f, -0.004929f, 0.018921f, -0.008209f, -0.007553f, -0.022202f, -0.044708f, -0.023209f, -0.033127f, -0.001892f, -0.003128f, -0.062744f, -0.060715f, -0.013000f, 0.009766f, 0.015701f, 0.001785f, -0.018845f, -0.019287f, -0.000137f, 0.016678f, -0.016876f, 0.009995f, 0.006454f, -0.027390f, -0.005493f, 0.005035f, -0.002426f, -0.000931f, -0.038223f, -0.040649f, -0.026550f, -0.040817f, -0.019882f, 0.012466f, -0.020157f, 0.041245f, 0.056152f, 0.063141f, 0.003754f, 0.004379f, -0.025375f, -0.031815f, 0.011627f, -0.018616f, -0.023605f, 0.027420f, 0.009262f, -0.024796f, 0.028183f, -0.027390f, -0.008301f, 0.010696f, 0.018433f, 0.017700f, -0.051041f, -0.037415f, -0.076462f, -0.022385f, -0.019958f, 0.007935f, 0.042313f, 0.050323f, 0.121857f, 0.088943f, 0.068146f, 0.123520f, 0.086319f, 0.053513f, -0.010437f, 0.040771f, 0.039108f, 0.059021f, 0.047729f, 0.004807f, 0.053772f, 0.021225f, -0.032150f, 0.028061f, -0.012177f, -0.029129f, -0.028458f, 0.005569f, -0.033920f, -0.065170f, -0.048935f, 0.003189f, -0.032501f, 0.050964f, 0.103943f, 0.125320f, 0.115768f, 0.158249f, 0.176437f, 0.155975f, 0.129776f, 0.108475f, 0.082962f, 0.106598f, 0.030838f, 0.102921f, 0.129257f, 0.066879f, 0.029984f, 0.023941f, 0.016495f, -0.007355f, -0.029327f, -0.025940f, -0.026123f, -0.014008f, -0.022171f, -0.045395f, -0.010162f, -0.007187f, 0.046585f, 0.090195f, 0.078415f, 0.147202f, 0.156448f, 0.165802f, 0.154449f, 0.122894f, 0.136337f, 0.151764f, 0.145767f, 0.100601f, 0.119949f, 0.094833f, 0.176270f, 0.178131f, 0.103714f, -0.012451f, 0.016190f, -0.002258f, 0.008209f, 0.001831f, 0.014053f, -0.004105f, -0.044678f, 0.010025f, -0.013565f, 0.038818f, 0.062744f, 0.109894f, 0.106873f, 0.133987f, 0.126770f, 0.066010f, 0.075638f, 0.107208f, 0.122162f, 0.146347f, 0.172653f, 0.136230f, 0.148621f, 0.148773f, 0.208771f, 0.210297f, 0.092117f, 0.025894f, -0.016052f, -0.021301f, -0.012268f, 0.011459f, 0.021027f, -0.026047f, -0.023361f, 0.012650f, 0.079315f, 0.133148f, 0.140854f, 0.108917f, 0.170303f, 0.133728f, 0.050064f, 0.020248f, -0.041550f, 0.018143f, 0.039185f, 0.115555f, 0.116135f, 0.111053f, 0.146698f, 0.170456f, 0.223831f, 0.245911f, 0.130081f, 0.033325f, 0.014496f, 0.028351f, -0.032593f, 0.022491f, 0.017761f, 0.014618f, -0.019867f, 0.044952f, 0.128296f, 0.109528f, 0.140350f, 0.181503f, 0.130203f, 0.132416f, 0.071747f, 0.030075f, -0.062714f, -0.077118f, -0.026108f, 0.008118f, 0.038055f, 0.076065f, 0.051453f, 0.072952f, 0.174240f, 0.180313f, 0.077454f, 0.031357f, 0.028183f, 0.009888f, -0.023315f, 0.027100f, 0.010117f, 0.032379f, 0.072083f, 0.071762f, 0.161087f, 0.140808f, 0.170670f, 0.161545f, 0.083557f, 0.132614f, 0.171829f, 0.128754f, 0.007339f, -0.067978f, -0.086899f, -0.044022f, -0.029404f, 0.006775f, 0.025482f, -0.002441f, 0.041306f, 0.073364f, 0.019608f, 0.007736f, -0.001816f, 0.027557f, 0.023361f, 0.029099f, 0.009445f, 0.028381f, 0.072144f, 0.060410f, 0.082779f, 0.105606f, 0.075836f, 0.085739f, 0.034225f, 0.113052f, 0.214981f, 0.113800f, -0.005280f, -0.062836f, -0.079865f, -0.016602f, -0.008881f, -0.021851f, -0.048416f, -0.007553f, -0.019852f, -0.016708f, -0.010391f, -0.002823f, 0.016510f, -0.029068f, -0.009750f, 0.033844f, 0.027374f, 0.027771f, 0.029694f, 0.065094f, 0.006973f, 0.059036f, 0.017532f, 0.043518f, 0.029480f, 0.125290f, 0.149368f, 0.108215f, 0.029022f, -0.072784f, -0.016052f, -0.028732f, -0.017944f, -0.073990f, -0.045700f, -0.092087f, -0.018738f, -0.034866f, -0.007950f, -0.003662f, -0.026779f, -0.023636f, -0.014175f, 0.013184f, 0.019470f, 0.014496f, -0.000580f, -0.056976f, -0.034271f, -0.008331f, 0.001282f, -0.020798f, -0.008453f, 0.123642f, 0.152374f, 0.108139f, 0.034882f, -0.085037f, -0.083664f, -0.052612f, -0.080353f, -0.137833f, -0.094482f, -0.122086f, -0.061829f, -0.055023f, -0.026505f, -0.024292f, 0.013931f, 0.009445f, 0.034500f, 0.005997f, -0.018524f, -0.038788f, -0.070221f, -0.085083f, -0.112091f, -0.039246f, -0.013641f, -0.047562f, 0.045105f, 0.136063f, 0.109528f, 0.034760f, -0.039536f, -0.078644f, -0.075317f, -0.111923f, -0.112854f, -0.128250f, -0.086731f, -0.110031f, -0.073761f, -0.002640f, -0.034683f, -0.034927f, 0.025681f, 0.018875f, -0.007172f, 0.003464f, 0.003174f, -0.021057f, -0.076614f, -0.068115f, -0.094894f, -0.087921f, -0.036682f, 0.012527f, 0.000687f, 0.106384f, 0.085449f, -0.016190f, -0.067566f, -0.068192f, -0.084595f, -0.101334f, -0.095703f, -0.113281f, -0.050934f, -0.058182f, -0.039169f, -0.039856f, -0.016647f, -0.024261f, 0.010468f, 0.014587f, -0.029083f, 0.011200f, -0.002808f, -0.028519f, -0.021286f, 0.020248f, -0.049454f, -0.016403f, -0.007858f, -0.022537f, 0.053802f, 0.073715f, -0.032791f, -0.122498f, -0.049622f, -0.010239f, -0.023315f, -0.042709f, -0.020203f, -0.036896f, -0.006851f, -0.028641f, 0.022598f, -0.017776f, -0.025681f, -0.031174f, -0.000748f, -0.034775f, -0.015762f, -0.003754f, -0.016220f, 0.024872f, 0.049942f, 0.094086f, 0.086166f, 0.031494f, 0.061523f, 0.015335f, 0.049820f, -0.043442f, -0.068970f, -0.042511f, -0.043396f, 0.005737f, 0.000565f, 0.005447f, 0.023163f, 0.031754f, -0.017502f, 0.025040f, -0.012360f, -0.002441f, -0.008804f, -0.001373f, -0.020706f, 0.006287f, 0.005051f, -0.018555f, -0.008652f, 0.024078f, 0.074249f, 0.116348f, 0.145248f, 0.118317f, 0.098267f, 0.054138f, -0.000656f, -0.006500f, -0.049774f, -0.047729f, -0.035751f, -0.011017f, -0.050735f, -0.002258f, 0.010529f, 0.062927f, -0.008179f, 0.023880f, 0.033737f, 0.007294f, -0.018814f, 0.023056f, -0.011185f, -0.025391f, -0.025375f, 0.001251f, -0.040085f, -0.006088f, 0.063919f, 0.108917f, 0.165131f, 0.172974f, 0.117844f, 0.087433f, 0.028625f, 0.000046f, -0.023270f, -0.063339f, -0.040833f, -0.081238f, 0.003937f, -0.006546f, 0.020065f, 0.044250f, 0.058807f, 0.052414f, 0.011597f, -0.004959f, -0.026642f, -0.016708f, 0.029160f, 0.004257f, -0.026459f, -0.031158f, 0.018341f, -0.057938f, 0.018127f, 0.122971f, 0.128708f, 0.170166f, 0.137817f, 0.060471f, 0.077316f, 0.015976f, 0.034119f, 0.024979f, 0.005859f, -0.011963f, 0.018494f, 0.069870f, 0.032761f, 0.075699f, 0.015671f, 0.028610f, -0.022415f, -0.031235f, -0.013306f, -0.017044f, 0.029892f, 0.012131f, -0.018066f, 0.019730f, 0.005264f, -0.009918f, 0.003616f, 0.013947f, 0.066254f, 0.106812f, 0.063065f, 0.100586f, 0.167694f, 0.159149f, 0.174576f, 0.146103f, 0.105927f, 0.074890f, 0.090240f, 0.044373f, 0.088394f, 0.054657f, 0.051743f, 0.026367f, 0.031693f, 0.010651f, -0.015564f, 0.011581f, 0.032639f, -0.028076f, 0.012283f, 0.007095f, 0.009918f, -0.047913f, -0.035065f, -0.020569f, -0.019165f, 0.014389f, 0.070892f, 0.143997f, 0.210861f, 0.263672f, 0.261063f, 0.203125f, 0.144577f, 0.135696f, 0.106964f, 0.050690f, 0.055298f, 0.011200f, 0.050003f, -0.004868f, 0.029068f, -0.022415f, -0.018402f, 0.029297f, 0.008133f, 0.026169f, -0.017685f, -0.019714f, 0.018448f, -0.001358f, -0.036484f, -0.019470f, -0.009323f, -0.015961f, 0.066116f, 0.057938f, 0.109665f, 0.136795f, 0.123169f, 0.141617f, 0.121689f, 0.081009f, 0.065781f, 0.069565f, 0.044891f, 0.014236f, 0.019562f, -0.018341f, -0.005661f, 0.016708f, -0.016510f, -0.021042f, 0.017090f, -0.007431f, 0.025131f, -0.018036f, 0.035522f, -0.023941f, -0.018677f, -0.008820f, -0.041260f, -0.020325f, -0.025192f, 0.036743f, 0.032471f, 0.044464f, 0.037857f, 0.025543f, 0.024841f, 0.051346f, 0.048813f, 0.054123f, 0.074158f, 0.009766f, 0.040192f, 0.036911f, 0.031143f, 0.025421f, 0.032089f, 0.009171f, -0.028839f, -0.023987f, 0.032608f, -0.010696f, -0.034012f, -0.026855f, 0.016357f, -0.021622f, 0.028091f, 0.006546f, 0.009384f, 0.043259f, -0.016251f, -0.010742f, 0.042679f, 0.008972f, -0.017212f, 0.011337f, -0.005417f, 0.027374f, -0.016861f, 0.043579f, 0.037323f, -0.005875f, 0.017822f, 0.023056f, 0.002670f, 0.011658f, -0.030594f, 0.031219f, -0.020416f, 0.034729f, 0.034668f, 0.018753f, 0.019501f, -0.002777f, 0.020691f, 0.027069f, -0.031296f, -0.005814f, 0.017700f, 0.013306f, 0.028275f, -0.006012f, 0.008942f, -0.011841f, 0.007416f, -0.034271f, -0.022476f, -0.030121f, -0.019806f, -0.013077f, 0.019669f, -0.033127f, -0.012344f, -0.011444f, 0.002808f}};
    float biases[LAYER_SIZE] = {-0.036545f, 0.134354f, 0.334015f, 0.029770f, 0.212555f, 0.025513f, -0.058334f, -0.036636f, 0.109543f, -0.016785f};

    float preimage_low[LAYER_SIZE] = {3.788079f, 0.524762f, 4.465703f, 0.772403f, 1.175904f, -0.654763f, 0.261406f, -0.627369f, 2.696091f, 5.456404f};
    float preimage_high[LAYER_SIZE] = {5.053967f, 2.125004f, 5.900199f, 2.115050f, 2.446539f, -0.149932f, 1.283077f, -0.133448f, 4.116835f, 6.860214f};

    float input_bounds_low[INPUT_SIZE] = {0.000000f, 0.000000f, 0.000000f, 0.000000f, 0.000000f, 0.000000f, 0.000000f, 0.000000f, 0.000000f, 0.000000f, 0.000000f, 0.000000f, 0.000000f, 0.000000f, 0.000000f, 0.000000f, 0.000000f, 0.000000f, 0.000000f, 0.000000f, 0.000000f, 0.000000f, 0.000000f, 0.000000f, 0.000000f, 0.000000f, 0.000000f, 0.000000f, 0.000000f, 0.000000f, 0.000000f, 0.000000f, 0.000000f, 0.000000f, 0.000000f, 0.000000f, 0.000000f, 0.000000f, 0.000000f, 0.000000f, 0.000000f, 0.000000f, 0.000000f, 0.000000f, 0.000000f, 0.000000f, 0.000000f, 0.000000f, 0.000000f, 0.000000f, 0.000000f, 0.000000f, 0.000000f, 0.000000f, 0.000000f, 0.000000f, 0.000000f, 0.000000f, 0.000000f, 0.000000f, 0.000000f, 0.000000f, 0.000000f, 0.000000f, 0.000000f, 0.000000f, 0.000000f, 0.000000f, 0.000000f, 0.000000f, 0.000000f, 0.000000f, 0.000000f, 0.000000f, 0.000000f, 0.000000f, 0.000000f, 0.000000f, 0.000000f, 0.000000f, 0.000000f, 0.000000f, 0.000000f, 0.000000f, 0.000000f, 0.000000f, 0.000000f, 0.000000f, 0.000000f, 0.000000f, 0.000000f, 0.000000f, 0.000000f, 0.000000f, 0.000000f, 0.000000f, 0.000000f, 0.000000f, 0.000000f, 0.000000f, 0.000000f, 0.000000f, 0.000000f, 0.000000f, 0.000000f, 0.000000f, 0.000000f, 0.000000f, 0.000000f, 0.000000f, 0.000000f, 0.000000f, 0.000000f, 0.000000f, 0.000000f, 0.000000f, 0.000000f, 0.000000f, 0.000000f, 0.000000f, 0.000000f, 0.000000f, 0.000000f, 0.109804f, 0.533333f, 0.839216f, 0.839216f, 0.529412f, 0.109804f, 0.000000f, 0.000000f, 0.000000f, 0.000000f, 0.000000f, 0.000000f, 0.000000f, 0.000000f, 0.000000f, 0.000000f, 0.000000f, 0.000000f, 0.000000f, 0.000000f, 0.000000f, 0.000000f, 0.000000f, 0.000000f, 0.000000f, 0.000000f, 0.000000f, 0.050980f, 0.827451f, 0.988235f, 0.988235f, 0.988235f, 0.988235f, 0.925490f, 0.717647f, 0.149020f, 0.000000f, 0.000000f, 0.000000f, 0.000000f, 0.000000f, 0.000000f, 0.000000f, 0.000000f, 0.000000f, 0.000000f, 0.000000f, 0.000000f, 0.000000f, 0.000000f, 0.000000f, 0.000000f, 0.000000f, 0.000000f, 0.000000f, 0.019608f, 0.447059f, 0.541176f, 0.541176f, 0.698039f, 0.972549f, 0.988235f, 0.988235f, 0.878431f, 0.145098f, 0.000000f, 0.000000f, 0.000000f, 0.000000f, 0.000000f, 0.000000f, 0.000000f, 0.000000f, 0.000000f, 0.000000f, 0.000000f, 0.000000f, 0.000000f, 0.000000f, 0.000000f, 0.000000f, 0.000000f, 0.000000f, 0.000000f, 0.000000f, 0.000000f, 0.000000f, 0.000000f, 0.027451f, 0.713726f, 0.988235f, 0.988235f, 0.733333f, 0.000000f, 0.000000f, 0.000000f, 0.000000f, 0.000000f, 0.000000f, 0.000000f, 0.000000f, 0.000000f, 0.000000f, 0.000000f, 0.000000f, 0.000000f, 0.000000f, 0.000000f, 0.000000f, 0.000000f, 0.000000f, 0.000000f, 0.000000f, 0.000000f, 0.000000f, 0.000000f, 0.000000f, 0.129412f, 0.909804f, 0.988235f, 0.733333f, 0.000000f, 0.000000f, 0.000000f, 0.000000f, 0.000000f, 0.000000f, 0.000000f, 0.000000f, 0.000000f, 0.000000f, 0.000000f, 0.000000f, 0.000000f, 0.000000f, 0.000000f, 0.000000f, 0.000000f, 0.000000f, 0.000000f, 0.000000f, 0.000000f, 0.000000f, 0.007843f, 0.474510f, 0.909804f, 0.988235f, 0.988235f, 0.733333f, 0.000000f, 0.000000f, 0.000000f, 0.000000f, 0.000000f, 0.000000f, 0.000000f, 0.000000f, 0.000000f, 0.000000f, 0.000000f, 0.000000f, 0.000000f, 0.000000f, 0.000000f, 0.000000f, 0.000000f, 0.000000f, 0.000000f, 0.000000f, 0.007843f, 0.188235f, 0.658824f, 0.988235f, 0.988235f, 0.988235f, 0.886275f, 0.411765f, 0.000000f, 0.000000f, 0.000000f, 0.000000f, 0.000000f, 0.000000f, 0.000000f, 0.000000f, 0.000000f, 0.000000f, 0.000000f, 0.000000f, 0.000000f, 0.000000f, 0.000000f, 0.000000f, 0.000000f, 0.152941f, 0.596078f, 0.760784f, 0.772549f, 0.988235f, 0.988235f, 0.988235f, 0.988235f, 0.713726f, 0.117647f, 0.000000f, 0.000000f, 0.000000f, 0.000000f, 0.000000f, 0.000000f, 0.000000f, 0.000000f, 0.000000f, 0.000000f, 0.000000f, 0.000000f, 0.000000f, 0.000000f, 0.000000f, 0.000000f, 0.000000f, 0.000000f, 0.435294f, 0.988235f, 0.988235f, 0.988235f, 0.988235f, 0.988235f, 0.952941f, 0.266667f, 0.007843f, 0.000000f, 0.000000f, 0.000000f, 0.000000f, 0.000000f, 0.000000f, 0.000000f, 0.000000f, 0.000000f, 0.000000f, 0.000000f, 0.000000f, 0.000000f, 0.000000f, 0.000000f, 0.000000f, 0.000000f, 0.000000f, 0.000000f, 0.007843f, 0.533333f, 0.352941f, 0.352941f, 0.352941f, 0.764706f, 0.988235f, 0.905882f, 0.286275f, 0.003922f, 0.000000f, 0.000000f, 0.000000f, 0.000000f, 0.000000f, 0.000000f, 0.000000f, 0.000000f, 0.000000f, 0.000000f, 0.000000f, 0.000000f, 0.000000f, 0.000000f, 0.000000f, 0.000000f, 0.000000f, 0.000000f, 0.000000f, 0.000000f, 0.000000f, 0.000000f, 0.000000f, 0.070588f, 0.454902f, 0.988235f, 0.988235f, 0.368627f, 0.000000f, 0.000000f, 0.000000f, 0.000000f, 0.000000f, 0.000000f, 0.000000f, 0.000000f, 0.000000f, 0.000000f, 0.000000f, 0.000000f, 0.000000f, 0.000000f, 0.000000f, 0.000000f, 0.000000f, 0.000000f, 0.000000f, 0.000000f, 0.000000f, 0.000000f, 0.000000f, 0.000000f, 0.035294f, 0.576471f, 0.972549f, 0.913725f, 0.156863f, 0.000000f, 0.000000f, 0.000000f, 0.000000f, 0.000000f, 0.000000f, 0.000000f, 0.000000f, 0.000000f, 0.000000f, 0.000000f, 0.000000f, 0.000000f, 0.000000f, 0.000000f, 0.000000f, 0.000000f, 0.000000f, 0.000000f, 0.000000f, 0.000000f, 0.000000f, 0.000000f, 0.000000f, 0.000000f, 0.803922f, 0.988235f, 0.588235f, 0.000000f, 0.000000f, 0.000000f, 0.000000f, 0.000000f, 0.000000f, 0.000000f, 0.000000f, 0.000000f, 0.000000f, 0.000000f, 0.000000f, 0.000000f, 0.000000f, 0.000000f, 0.000000f, 0.156863f, 0.000000f, 0.000000f, 0.000000f, 0.000000f, 0.000000f, 0.000000f, 0.000000f, 0.000000f, 0.803922f, 0.988235f, 0.733333f, 0.000000f, 0.000000f, 0.000000f, 0.000000f, 0.000000f, 0.000000f, 0.000000f, 0.000000f, 0.000000f, 0.000000f, 0.000000f, 0.000000f, 0.000000f, 0.000000f, 0.000000f, 0.086275f, 0.858824f, 0.321569f, 0.000000f, 0.000000f, 0.000000f, 0.000000f, 0.000000f, 0.000000f, 0.000000f, 0.803922f, 0.988235f, 0.733333f, 0.000000f, 0.000000f, 0.000000f, 0.000000f, 0.000000f, 0.000000f, 0.000000f, 0.000000f, 0.000000f, 0.000000f, 0.000000f, 0.000000f, 0.000000f, 0.000000f, 0.000000f, 0.164706f, 0.988235f, 0.811765f, 0.000000f, 0.000000f, 0.000000f, 0.000000f, 0.000000f, 0.000000f, 0.262745f, 0.929412f, 0.988235f, 0.733333f, 0.000000f, 0.000000f, 0.000000f, 0.000000f, 0.000000f, 0.000000f, 0.000000f, 0.000000f, 0.000000f, 0.000000f, 0.000000f, 0.000000f, 0.000000f, 0.000000f, 0.000000f, 0.164706f, 0.988235f, 0.964706f, 0.321569f, 0.000000f, 0.000000f, 0.000000f, 0.141176f, 0.435294f, 0.933333f, 0.988235f, 0.945098f, 0.254902f, 0.000000f, 0.000000f, 0.000000f, 0.000000f, 0.000000f, 0.000000f, 0.000000f, 0.000000f, 0.000000f, 0.000000f, 0.000000f, 0.000000f, 0.000000f, 0.000000f, 0.000000f, 0.000000f, 0.741176f, 0.988235f, 0.905882f, 0.545098f, 0.545098f, 0.545098f, 0.890196f, 0.988235f, 0.988235f, 0.988235f, 0.411765f, 0.000000f, 0.000000f, 0.000000f, 0.000000f, 0.000000f, 0.000000f, 0.000000f, 0.000000f, 0.000000f, 0.000000f, 0.000000f, 0.000000f, 0.000000f, 0.000000f, 0.000000f, 0.000000f, 0.000000f, 0.352941f, 0.960784f, 0.988235f, 0.988235f, 0.988235f, 0.988235f, 0.988235f, 0.988235f, 0.807843f, 0.368627f, 0.003922f, 0.000000f, 0.000000f, 0.000000f, 0.000000f, 0.000000f, 0.000000f, 0.000000f, 0.000000f, 0.000000f, 0.000000f, 0.000000f, 0.000000f, 0.000000f, 0.000000f, 0.000000f, 0.000000f, 0.000000f, 0.000000f, 0.325490f, 0.643137f, 0.988235f, 0.988235f, 0.988235f, 0.835294f, 0.525490f, 0.043137f, 0.000000f, 0.000000f, 0.000000f, 0.000000f, 0.000000f, 0.000000f, 0.000000f, 0.000000f, 0.000000f, 0.000000f, 0.000000f, 0.000000f, 0.000000f, 0.000000f, 0.000000f, 0.000000f, 0.000000f, 0.000000f, 0.000000f, 0.000000f, 0.000000f, 0.000000f, 0.000000f, 0.000000f, 0.000000f, 0.000000f, 0.000000f, 0.000000f, 0.000000f, 0.000000f, 0.000000f, 0.000000f, 0.000000f, 0.000000f, 0.000000f, 0.000000f, 0.000000f, 0.000000f, 0.000000f, 0.000000f, 0.000000f, 0.000000f, 0.000000f, 0.000000f, 0.000000f, 0.000000f, 0.000000f, 0.000000f, 0.000000f, 0.000000f, 0.000000f, 0.000000f, 0.000000f, 0.000000f, 0.000000f, 0.000000f, 0.000000f, 0.000000f, 0.000000f, 0.000000f, 0.000000f, 0.000000f, 0.000000f, 0.000000f, 0.000000f, 0.000000f, 0.000000f, 0.000000f, 0.000000f, 0.000000f, 0.000000f, 0.000000f, 0.000000f, 0.000000f, 0.000000f, 0.000000f, 0.000000f, 0.000000f, 0.000000f, 0.000000f, 0.000000f, 0.000000f, 0.000000f, 0.000000f, 0.000000f, 0.000000f, 0.000000f, 0.000000f, 0.000000f, 0.000000f, 0.000000f, 0.000000f, 0.000000f, 0.000000f, 0.000000f, 0.000000f, 0.000000f, 0.000000f, 0.000000f, 0.000000f, 0.000000f, 0.000000f, 0.000000f, 0.000000f, 0.000000f, 0.000000f, 0.000000f, 0.000000f, 0.000000f, 0.000000f, 0.000000f, 0.000000f, 0.000000f, 0.000000f, 0.000000f, 0.000000f, 0.000000f, 0.000000f, 0.000000f, 0.000000f, 0.000000f, 0.000000f, 0.000000f};
